50 20
-0.3850039156141524 -0.325238049930902 0.07288986339178834 0.1262229250391879 -0.23132726467204903 0.30553439662103227 0.14417796974789715 -0.1194932602790773 0.1475685399330281 0.002590887200679158 -0.29713471823001425 -0.17382726376040494 0.06058289920030867 -0.057465142698747196 -0.20002270413714723 0.34223951743398323 -0.08427828727098095 0.25183844781591513 -0.16323368565835628 -0.3758313787534859 1.0
-0.0835950367016482 -0.30586067863757166 0.003743771713092687 -0.09459926566404242 0.47097136176635207 -0.01800824238201919 -0.07701724661799816 -0.39417936948884236 -0.04692554627950063 -0.32220348842716734 -0.13196956642517688 -0.20759907105739336 -0.20614049753847452 -0.3240561280809061 -0.04775227325164791 -0.031519583778436056 0.16472338989953972 -0.025951470660048048 -0.31712364685305 0.24772074308493647 1.0
-0.03250032082608685 0.23343713088424836 -0.3494067380735346 -0.08159898909264399 0.2681114811052888 0.1537824852941485 -0.3678223477058136 -0.24483975482377277 0.17810965832693085 -0.22635189961621838 0.37821455046776253 0.3776222170516688 0.24039612687788234 0.20851771165825908 0.07739990983950254 -0.1199985023197953 -0.15867571539736347 0.08636081640297621 0.032487333333959444 0.03130221886866697 1.0
-0.13682870905561387 -0.02456069333998345 0.05609154115529574 0.26948661283451086 -0.17515900443378646 0.3484635818318176 -0.2559890035514185 -0.007193094471336454 -0.1599970835559206 0.2894784553181784 0.07414778927249907 0.130458995088856 -0.32629391072222713 -0.2755136937348952 0.23099375205505096 -0.3095689402883205 -0.19235096672389526 -0.039215964928262154 -0.25368246491200697 0.34762523771782333 1.0
-0.11936825861235842 -0.27246867873708197 0.27904870130873494 -0.31417478642122754 -0.18635490840043703 0.32871837693799755 0.2890185068607011 -0.017998526479481167 0.19013708847330985 0.1605448066740982 -0.20378626513939285 -0.22722237192045713 -0.15753353848303905 -0.235773907729527 -0.3278548830190258 -0.09678216098957416 -0.18143247663299328 -0.15420652478743752 0.1204111065272061 0.29112696208316025 1.0
0.2596632107514122 -0.2195754449527601 -0.10614294714645928 -0.24535984203564115 0.2715516074664374 -0.06451937759492671 0.33039966586886743 0.35373543725804635 0.2510493124221854 0.288252875319589 0.2174817014430382 -0.06010407804301793 -0.2266146694181614 0.190156720375444 0.305900256181366 0.10420141555633838 0.16562828977664382 0.16661157506535945 0.23668579114400798 -0.02264667127261954 1.0
-0.1478239359201919 0.07269820555701195 0.03728667418235803 0.20642193879116782 -0.0265208421190001 -0.3618497166963403 0.23962306589270913 0.2279188408205168 -0.09616513601195634 0.07499003813143744 0.33456378219128863 0.06748859510827764 0.3694452930327207 0.3975068877171663 0.3134932655612312 0.15750906232996673 -0.28392472215602865 -0.1122284440321883 -0.05910960233666082 0.20544581896860398 1.0
0.396388481567811 -0.03827416427253263 0.11769295384981161 -0.12346328816269424 0.12717528270022074 -0.1694850586996472 -0.2716009931744555 0.4047031331262254 0.394326905496539 0.35663379063421835 0.2716748783833589 -0.09808887628926002 0.1326891909781282 0.09633195020174534 0.2668059831412247 -0.0757590302925821 -0.009759612722034329 0.046624373337755404 -0.23105004882609279 -0.06551037444501365 1.0
0.4052604126665091 0.14242942820338753 -0.28713618803946256 0.005655621099296153 0.008980752933559976 0.2588200641996756 0.29334057135575115 -0.13396739435074165 -0.033783799239495496 -0.22270649021373945 -0.08370834015186299 0.28719660061021934 -0.0897533334062377 -0.38983658805084187 -0.2963775773663323 -0.19285451372843057 -0.26498952255866076 0.15827997670492566 -0.01152221021323684 0.2030769048620073 1.0
-0.28995498986032914 0.02302800352365384 -0.40389140714813854 0.17262556873185103 -0.10258842924036739 0.37016608963034364 0.027043122132864948 -0.01656578508024885 -0.2302303306225555 -0.01593386896572256 -0.2651745197721726 -0.12942207925641125 -0.2783015921443065 -0.420001877345853 -0.10460539702405587 0.1531087587192618 0.0745241573238411 -0.23382019611557067 0.13469764867092798 0.2588054577268149 1.0
-0.34865329702682024 -0.11977134128114647 0.015004745908709587 -0.18247528140215402 0.2669496190514528 -0.2960996332371781 -0.23741411030152298 -0.04273738917988913 0.18580891626402624 -0.10993754133319394 -0.20608495500309487 0.28635512944521135 -0.059247456516363144 0.2979376082827279 0.3897037429174865 0.07815122464617753 -0.28577580036235045 0.23896631684323955 -0.12906388376860056 -0.19151740599820474 1.0
0.0990115906771645 0.018513669509969567 -0.07868016866513948 -0.17014840215493396 -0.12634485128430895 -0.3076784823038798 -0.19364844428659303 0.15958525676177146 0.35940301475326586 -0.26012005167523583 0.35259348778505273 -0.22966913547029102 -0.3692238548088219 0.20812960423180876 -0.18379737506359364 -0.36302389168435073 -0.05316577321827325 -0.20062161333660322 0.09077899630098993 0.10336897016339303 1.0
-0.0510288312300353 -0.16441714929614587 0.0470715844372267 0.19550790039161703 0.05731917215126748 0.2801442388865693 0.30158913543859583 0.1145481386473449 -0.22942701432608129 -0.2698358027477437 -0.26371984975243995 -0.11963233052476652 -0.06599064286537064 -0.3508848484753994 0.005128369931851663 -0.2328299129749573 0.27257849629460434 0.11368704454687352 0.31747482709118746 0.40626000971129894 1.0
0.30147698516784227 0.3088198983015047 -0.13231041046979922 0.20508883020779337 0.07588064774538168 0.23026230182744548 -0.3293800989661137 -0.3207755712722555 0.12957476576850535 0.057472019318826804 -0.2775143046260121 -0.06372888569584476 -0.17950563052718832 -0.25923612509440663 -0.1306145558626013 -0.1909662973701963 -0.12293231266368682 -0.2223645800089659 0.3314897987183053 -0.23546044088471932 1.0
0.04698123867508053 0.33212450632326834 -0.4047613263437062 0.12327059523804162 -0.04619996073510217 0.27611714761809236 0.16085246456697452 0.12886424855950893 -0.14611549216091907 -0.30807156467266705 0.08887075373248793 0.24326477647497732 -0.02155291844598387 -0.21999176815846108 -0.23191444951116474 -0.32850742304580327 0.16560657533188508 -0.34337782396074185 -0.14934047898633218 0.1614673311461259 1.0
0.11048621348011207 -0.41655241940051535 -0.03513812977217247 -0.13591203838525492 -0.02088575401558793 -0.3737334440792824 -0.22990862842185128 -0.07436124337267393 0.11491838456246146 0.3512821922697957 -0.14300973897049554 0.046443013497221644 -0.347095608060354 -0.32918881032427666 0.0863564351101239 0.09137013886098609 0.17723244574998834 -0.12622122115700993 -0.28998871556165956 0.24652042481353917 1.0
0.25282572991201296 -0.2983059774890688 -0.1990596804537349 0.2457546738979216 0.16889656415080528 -0.3082658850597257 -0.05188256710399026 0.2143213686067337 -0.2121234666324127 -0.4183785983965536 -0.1621825944239239 0.08091963057293475 0.2455568620306126 -0.23777364467110862 0.3475698134401731 -0.025211006865295166 -0.06383670452874762 0.033908082187076395 0.08892600325680233 0.26570182541786547 1.0
0.13195873787730367 -0.11960610899780028 -0.09586508991933378 -0.28777298479738134 0.049517369531148756 -0.006498787050499505 -0.08917149446057555 0.222958115967838 -0.24812660864368238 0.1745738057048274 -0.36892120631209363 0.17004566212637756 -0.05895202016398329 -0.38476667426457567 -0.18121598937552508 0.3201851747087692 0.1370886507263444 0.15991537559347235 0.2858781303868413 0.38221659505803457 1.0
0.04736199463529528 -0.039007670557202556 -0.29412205380023265 -0.00838956175385051 0.3360716302250869 -0.03518901211065197 0.06643382549824373 -0.22595588088166202 0.3666502810642302 0.17685748858648645 0.1798657769900595 0.2962341554388517 -0.1308611055931335 0.23462498114743513 -0.056321914115325535 0.274338734415831 -0.24399383508854072 -0.3653006335788674 0.13026281088030664 0.3059974323091656 1.0
0.1199707645080514 0.12687982615496401 -0.0060255234491937894 -0.05657429676724189 -0.35600493891807794 0.3021335003809317 -0.03987098340388732 0.23328502664444128 -0.06939181196937104 0.3419331028780366 -0.07243496990396026 0.2892230501993971 0.350215454966349 -0.11334507544564744 0.10362772551949795 -0.3293387280490097 -0.11222439968268395 0.028464752366274094 -0.3004067816122333 -0.3510784314393268 1.0
0.18439893416948216 0.11199450649646016 -0.19229004656221885 -0.3994373963636371 -0.04554199685461441 -0.07830995665353793 -0.32030765049510285 -0.23929504454497724 0.22133074085860652 0.10210217433392221 0.4069700277021422 -0.22936497903879596 -0.07552252208879655 -0.07433494528558897 0.25059975951094837 0.033656310457001896 0.03305081742016233 -0.09154688609789903 -0.29107557287735153 0.3766395993744404 1.0
-0.09239886273201997 -0.23603969035984507 -0.31400968333024826 -0.11720173102077396 -0.01013987793927046 -0.3657887312731635 -0.12826649147524957 -0.1502019140173395 -0.2955916647358934 -0.30362019011187324 0.3212846775544043 0.01626968112175688 0.08834510315166604 0.2647565054784608 -0.33029732213486196 0.1906631507665593 -0.22337166450705706 0.03781189747657821 -0.3005322645921683 -0.0494991269652062 1.0
-0.08025117402360986 -0.2063043092771329 -0.33502166239826 0.3441633024334965 -0.061341017477491995 0.004408067530582578 -0.2960797566596181 -0.31303582078378567 -0.012219145633316057 -0.15150947282568225 -0.037569070190905336 -0.3640987323554208 -0.2203816584058303 -0.24810736220807225 0.31176995107656497 0.3488102778675559 0.020463416888702943 -0.17060547077305027 0.12276991748817541 -0.014069744682301977 1.0
0.1012445189593202 -0.34108057641415623 0.05295509274347727 0.04255297875310203 0.2684127454563131 -0.027329528054708764 -0.23092166890728139 0.3634089223163844 -0.10760068543983532 0.11978303885875577 -0.18217660963112753 -0.10882864081351584 0.19158053672889117 0.19634097662360955 -0.10524554186061104 -0.3949324517091928 -0.3343922461781271 0.39404509123795217 0.14240346745272386 0.09993971392876423 1.0
-0.044755702048657246 -0.27617770032728367 0.18642005603766285 0.36358123624770555 0.09444547723008619 0.2474175296708373 -0.274046415808684 -0.008273029794146406 -0.026367828890522388 -0.07819326342309244 -0.1220359794336492 -0.3251711910407386 -0.13753204823024395 -0.3107074730426771 -0.29772247212299846 -0.2079797656358106 0.2731506362732864 0.0434169986788292 0.3156079013829581 0.24203750087119333 1.0
0.26195685960479637 -0.20891686482451938 -0.3103614414584442 0.3741081684758236 -0.19051348037183222 -0.216228231939772 0.2245211301246162 -0.010700876218089647 0.05790272665273562 0.20561460522309882 0.33460242661721473 -0.003530083571541456 0.33609700848865187 0.21194668586724438 0.06078272005884053 -0.18997088848349294 0.29520117216605657 0.19490993422621328 -0.03869673546567208 0.18967988021094395 1.0
0.003452981726884352 0.175924046139039 0.22698023087681102 0.25076837969081617 0.07229157985297043 0.06487866875666687 0.2978100293503013 0.16001641014549886 -0.3289566141027295 -0.1549767172903883 -0.1406446682826183 -0.22574998078179 0.20254501569537 0.3220555383002765 0.18217210751015478 0.35441682686159165 -0.3424850292442372 -0.32267781145302676 0.014736970434657767 0.05245996720485076 1.0
0.28385687659693376 0.16249124111915408 -0.012489683079486575 0.24048199971576253 -0.2122880939871062 0.012831202492003164 0.2003367816965896 -0.27660003086239576 0.31592558104104507 -0.009374361688374636 0.29553499671077244 -0.0657139550280472 -0.3086954340022556 0.3028717534972721 -0.3069225487842659 0.1286592051244087 -0.20803719456632336 0.28721475932935087 0.182436352133384 0.15738891798064902 1.0
0.041883213327105 0.35472962527832197 0.06150165260749262 -0.1774646015009252 -0.321495655127788 0.30261042470315347 -0.056168513128064056 0.10715749694597225 0.26689318610492385 0.09965601930685523 -0.32360471034299315 -0.18510746627592206 -0.32055439248876116 -0.21000567253026983 -0.3241649549986186 -0.21040335193621237 -0.26813334757152013 0.010012864354565231 -0.1882263807747212 0.06150941197522595 1.0
-0.17137629383990174 0.2265750771151575 -0.25316006689182724 -0.3318552922160084 0.08430373954240629 -0.0998395828334342 -0.35776465169573496 0.22162073329193427 0.0069400687997623394 -0.3754066417562974 0.15127776913607066 -0.08844176695192422 0.2807547512917235 -0.15655991064660613 -0.03361836347310993 -0.2983516882731977 0.2545409217030861 0.1235245425894989 -0.0822222160644894 0.3145096506529859 1.0
0.2644930751678697 0.3217478605305684 0.011235653892688068 0.4415085816070223 0.12750047597636077 0.041836625911346126 -0.3163502478807765 -0.2407764889104352 0.21900767277935354 -0.1898021948547285 -0.07926098304374919 0.38598873437024706 -0.05227340341179248 0.10444935676522435 0.031665791205878854 0.11152661408276184 0.29424805595849374 -0.3085023621579303 0.0013814881329154258 -0.08549110290064953 1.0
-0.13861473998558183 0.3422222247874177 -0.0659920015380326 0.01540136584341118 -0.4520893546775786 -0.16570706370985866 0.28676628290352707 -0.11606597289048295 -0.02065285790442406 -0.08479118513917568 0.013513557398127039 0.2856227034026459 -0.2193282401274521 0.4455787465466309 0.04287888039605712 0.14314538362856735 0.25922302094159366 -0.17853206010824207 0.26295556741827913 -0.0704166325946151 1.0
0.17438315735076407 -0.2933119254453424 0.24189390699935653 -0.2370009037521648 0.06523245901122787 0.20246666748400416 0.22675479264584572 -0.2673394963882986 -0.04189000341126335 0.22780387175384242 -0.25787191227084405 0.277843114488123 -0.2716920127741404 0.3003519101066441 0.27104623279477097 -0.19585864732961772 -0.11875962560531976 -0.008902404222385217 -0.11625965124099986 -0.3159784442289988 1.0
-0.23246504946079652 -0.2869743627540882 0.3111797407186722 -0.15222110184399457 -0.12974905076120585 -0.020789105562378576 -0.27462130933999246 -0.14111684302889535 -0.3175411074356146 -0.25209157604291943 -0.19031825685886286 -0.3364756612005846 -0.04375720499931204 -0.17800436992463045 -0.21971423198587828 0.30505019190708016 0.22986565019901053 -0.2592672395668495 -0.09925335818566305 0.1111089740898098 1.0
-0.24391997690279799 -0.14889620106312107 0.3140815179916324 -0.016840967094127066 -0.21864473648669727 0.2367745079521303 -0.0995167707729028 -0.19780383568117757 0.3391354398054768 -0.05073665930096029 0.25789713136513237 -0.177178982600057 -0.2050098032223275 -0.007429955454265417 -0.3227826500009411 -0.11270607638208538 -0.3584254176858007 0.08307410112806035 -0.32997643452494785 -0.21859570236229078 1.0
-0.21506077763733059 -0.3332577035481001 -0.3077983062210055 -0.34480304064318706 -0.23486912276854738 0.3074711941648334 0.28904211635020044 0.23570360253205072 0.1695136178048845 0.01574916186349969 0.06198622122007477 -0.25402385642397335 0.20226465576263042 -0.17460494919979264 -0.02037185372711789 0.013110779853626676 0.1642159189812406 -0.06468789104950505 0.278660196247942 -0.24922813441802988 1.0
-0.2241838793578603 -0.09202300228112865 -0.03472007050356903 -0.31032679898111987 -0.33760510730649057 0.22572251416348774 0.06256956925079246 -0.10947660652320405 0.3524984594541406 0.4686163148121143 0.275190290727911 0.0002507634785735437 0.09353086855824844 0.15388341448106913 0.23254246739903298 0.18414386584219652 -0.05769134747434682 -0.14324191683260745 -0.10144677911177744 0.2979932176317994 1.0
-0.04869251891056168 0.32217881369031187 0.02414123500972853 -0.22144231124171476 0.13272216574079174 0.363209726978189 -0.0009356198606183535 0.29231240909287176 0.25631462900060553 0.062217405767413775 0.3473837407879474 -0.3695637378525012 -0.24141818957874794 0.11612733029638628 -0.2757176782825348 0.011854948286737945 0.02143417114671019 0.1639087191615219 -0.20716658531432444 0.2534420602679109 1.0
0.19501811126993376 0.10665471014308427 -0.07274709759824437 -0.066312279418679 -0.21200402265856105 -0.24337960629455999 0.21342275818809045 0.12165877596843039 -0.2915440426771211 0.2523747678733899 -0.20329915306523422 0.1887940633920908 -0.37776140545448506 -0.36534459868575253 -0.11773753230481124 0.11022418269450418 0.2569845380579965 0.04604311012327336 -0.38900199206575087 -0.17039266853284746 1.0
-0.46678541497067993 0.028218809291654892 -0.158447312847154 -0.2810392564988372 0.1984587573979073 0.047918877599691295 -0.3867045084945323 0.2851273499418406 0.09416418860311186 0.19958602820693017 -0.0640464694812964 -0.08221881918710548 -0.040872470475496275 0.11873344299670069 0.14859746779528393 -0.47058996046948265 0.06918791358595065 -0.04047709198973139 0.28164280405388703 -0.009522609377585992 1.0
0.07886852951836147 0.22476657567835986 -0.06223676279629756 0.2329297433556401 0.32841223270912534 0.035247999721509965 -0.27173715367439216 0.20366664903758272 -0.34238942360470304 0.27040066205824353 0.0485597853514106 0.33417013671065515 0.06905131246649492 -0.19656613150185548 -0.3029540410877145 -0.07630026038737682 0.27197420740949296 -0.062259190600314124 -0.12314962477798061 0.34973686883791055 1.0
0.3531884842662593 -0.005628941870917016 0.17179670520854542 0.14594659844413013 -0.3187343289071829 0.3034538976055295 -0.15059371536746835 0.1163372734425709 0.351857352459667 -0.341701591170356 -0.00416729782083419 0.2934912694747056 -0.1308227444944537 0.12649392282624888 0.13849589517205957 -0.32743575162014715 -0.21461659129948146 0.23807573928099174 0.0486737949788686 -0.056434858406330356 1.0
0.33139370951132 0.05037564901462855 -0.20973562936211712 0.0796739622873264 -0.2532159118033264 0.2872921738704237 0.04714600242252047 -0.24022348649529768 -0.30874704354693616 -0.32716572908920794 0.33340311104219517 0.04515992578300414 0.31324524333206355 0.00024466686739752934 -0.21691871246427483 0.22525230398508092 -0.2221050821198329 0.08846482905607488 0.08065373668073461 -0.23575935774368503 1.0
0.27807640269731826 -0.3242500063026141 -0.23829247250942306 -0.28972284219963074 0.36315648355293134 0.12125177009767357 -0.17833945265283843 -0.13780862905493696 0.28911874227602274 0.001456161802093265 0.3292392872858953 -0.03594416708820367 -0.12902875725345264 -0.06569176089674379 -0.022773674774937146 -0.23085544750882703 0.09837449730632872 0.18583659988281323 0.3157881755515001 0.2596884635163971 1.0
0.07792634663322898 -0.04677300284765682 -0.38135036592578303 0.025523083778587925 0.12617740215933404 -0.04435129570481726 -0.12354469051158382 -0.07932454138249892 -0.09106476879071478 0.026501476579228318 0.3125768397290789 -0.32683452302211974 -0.33089075031670334 -0.10740027718579669 0.07077663422383118 -0.4062601990461366 -0.12093894475741812 0.048028170292226516 0.2905872952717518 -0.4474846231464104 1.0
-0.18127383935884434 0.15199684315809003 -0.4333911069222358 -0.047139627708936746 -0.3650427251785834 -0.12509602262622668 -0.2520806910938128 0.03316763539453249 0.23775086090416286 0.22419064495201377 0.17309857797260278 -0.05179174040714143 -0.12781500536093204 -0.029440009907052322 0.3452354889490106 0.05475907274803696 0.42421927500981 -0.15769844609150255 -0.09472108728364398 0.21865955363028736 1.0
-0.22396151769195666 -0.1524255368645982 -0.3386919708469307 0.20154235905004744 -0.2652623263863937 -0.24184190938234845 0.32272270185302837 -0.23347330946898615 0.2795261679027085 0.10304093518435575 0.17048689578823756 -0.25845665414382674 -0.005062850284736904 -0.18180949174124594 0.03411134220028188 0.1962453124695705 0.07796456489407132 -0.24227158945083466 0.19345489281418676 -0.35240874365401553 1.0
0.3109456407301289 -0.11917175356834318 0.051040741807916096 -0.06067956294071681 0.3391418126723119 0.13661557649932218 -0.29160581597234136 0.0016950971890106385 0.31651217009133825 0.0742558918146868 -0.26635625251162093 0.35727842520643294 -0.2283105720963431 -0.05028032317386281 0.2180143542967363 0.0791853935898053 0.3526252773608563 -0.039142308734980646 -0.33630294184512205 -0.11130012798079163 1.0
-0.10365488225496143 0.2763364183439483 -0.009167307219466068 -0.02043610936241446 0.1890946517103368 -0.028573589312564915 -0.08006430026003676 -0.4128864274707095 0.3124210890123363 -0.33988604422088653 -0.3242347304313349 0.27891318524951714 0.20858429352941235 -0.17499850523994673 0.18220858948096616 0.16535750149028328 -0.19985224982547503 -0.0871644500032796 -0.34233971290442944 -0.0589343585501894 1.0
0.3347329406932619 -0.15241363736822472 0.3365883694977188 -0.28916954380112236 -0.013475619201721118 0.3277901168147477 0.14998147617898616 -0.11235453482824538 0.20556937455205676 0.32591924223084173 0.2278686276727734 -0.05599243267915285 -0.17962917466701644 0.34101415603360785 0.13915845467703514 -0.2768101527454433 0.023114496209300086 -0.025349739791199997 0.27174851316769405 -0.04422091466751848 1.0
