20 10
1.0 -0.5965547375916809 0.0818571843842047 -0.26451340335526624 0.6318497554929607 -0.3098659313069627 -0.024751821863628006 -0.10909634157275591 -0.1896396587949143 0.06622366364995251 -0.13906853965069915
1.0 0.07071242083628271 -0.2112160522313473 0.38435038292639784 0.3037202388450131 0.4994911252601922 0.35317802285960626 -0.3977411707839966 0.3655994068158904 -0.20188853121696282 0.059751888649023616
1.0 -0.23057345121694547 0.2630209309623939 -0.43430694872348796 -0.19872331270468127 -0.42474714206514835 0.09580935989845876 0.2937003613408725 -0.42343771244523754 -0.3393599559567398 0.28147512559996285
1.0 0.0836041724646439 0.20662994960969394 0.3794985036401552 0.393627017071006 0.008666910525413832 -0.22211415109182792 -0.2132886599742194 0.3339518010405723 -0.5483672457413102 0.37976408188560035
1.0 0.12272197153584247 -0.1687156986535113 -0.015639919818982204 0.24228739473885333 -0.4540504923029583 0.522184027409322 0.2712065428231391 0.04759251233962456 -0.2525095537485169 -0.5283080759479248
1.0 -0.1302238714485281 0.0790096605449198 -0.10982539468057992 0.4087073265424584 0.5148642312777413 0.5378372993455681 0.023858988755274244 -0.30895912833407235 -0.2792472222723259 -0.26332067535719117
1.0 -0.11485519602667542 -0.3285804353016436 0.5373505330289846 -0.19897542899046375 0.28248167653554357 -0.2535615932540816 0.4546789944253288 0.215892736704295 0.3654094954230124 0.13982211757695853
1.0 -0.026611998553415544 0.2562475784246738 0.025767535740542427 -0.03276300370908617 -0.4759298156440466 0.5069258622425632 -0.1710910798199767 -0.255814003927304 -0.3410672538381646 0.4872050355907338
1.0 -0.08546987222213452 0.05742207858394317 -0.5868345849825722 0.3441346767449605 0.43422381733862314 -0.14412405810293766 0.07635986193096897 -0.5217406749445936 0.19703561172546816 0.02012062626843334
1.0 -0.20111977231255385 -0.39448090934358115 -0.5231639892590254 -0.15774783597726227 -0.4220699024676891 -0.24666884610226525 -0.031867146374808794 0.13520877956513083 0.4236252538871326 -0.2600132744851112
1.0 -0.26727525582981754 -0.17175446071007713 0.3660321531825161 -0.7296959438835906 0.015197657464410005 0.01938667254159027 0.02086747868333452 -0.08913435303873056 0.4303755942346412 -0.19600583314791822
1.0 -0.46000857914790416 -0.37114742363169545 0.270591612349587 -0.20506799814200283 0.46054625147627 0.22803484537131283 0.06605698998983076 -0.3921205951336298 -0.3281830460643275 0.07375671681326432
1.0 0.3742889828993111 0.47139596386545957 0.02888347445223949 -0.3850006534372034 -0.250773862994819 0.45627105804871276 -0.28345448999668615 -0.25738203091813705 -0.12275756798169074 0.2364353130947347
1.0 0.044008974558969474 0.4692507435428268 -0.5294669605737612 0.11224692193979167 0.560115802582063 -0.2851880466476419 0.22455917036203904 0.03159670949820636 0.08806787134708406 0.1751835002428704
1.0 0.16610505833074554 0.40387141886516503 -0.23990119055723946 0.30288851740916023 -0.44600601913228854 -0.36640139471494854 0.25574286969347026 -0.20751167884399735 0.4342546272979016 0.1725949207683763
1.0 -0.46503497413361244 -0.12348490202629703 0.33922725136163223 -0.5260292703351508 0.3223945992650769 -0.22193302384297048 -0.25951545825391104 0.3630428083278802 0.1548498783102421 -0.019815327829862176
1.0 0.07193617173307537 0.2389824646347659 -0.4442100821184685 0.45270098940205095 -0.5240510340275031 0.3899776456134809 0.22548187735429132 -0.02611014207712667 -0.23259721341326242 -0.055807305673566086
1.0 0.4462526812989896 -0.038090421324823154 0.464055286875875 -0.36218486368859654 -0.046420798148942406 0.3168766925375018 0.2901739662998246 -0.05756836809626803 0.48471514357883383 0.16689197872217226
1.0 0.11207440635935458 -0.07403053395527186 0.33789687180926475 -0.3007969616676179 -0.0833269204349898 0.3150867221243092 0.08774449237613047 0.4383246326256679 -0.47081131849406643 -0.499591637335359
1.0 0.43578806779070145 -0.48988747897366713 0.1841899100940006 0.24859337128001552 -0.5194538429328075 -0.12474961836028871 -0.11258525664038316 0.1849144018868402 0.24071024768367955 -0.2901197495771109
