30 10
1.0 -0.32069242577613344 0.355208293189132 -0.4929893108150303 0.29045093100230773 -0.21717972132745608 -0.42592569689795085 0.08353287721456432 0.16958913042334092 -0.28066020867066444 -0.31700967572468663
1.0 -0.29013147879619433 0.4589146053344914 -0.4053714209353958 0.49480407312651936 0.1936179595457091 -0.05475621898192024 0.3995824940688216 -0.09205866450611824 -0.15107216787722505 0.25419308678359337
1.0 0.2718641567155015 -0.2867418100593311 0.46651947079805806 0.17073907180282327 0.0006485121695760755 -0.43828901533624176 0.4882710014700241 -0.12108197642054255 0.23065726512062315 0.31417653637351867
1.0 -0.3700347044964435 -0.01868551109951149 -0.29989681150501635 0.49015762085805753 -0.5042391485254768 -0.25541235483814184 -0.07376478919508125 -0.3861276495423424 -0.051863638762674774 0.23625059895292624
1.0 0.008341275461345854 0.41815930624471304 -0.34591576153156883 -0.1462566867255123 -0.46253740440027186 -0.22251859577273725 0.4858726105665952 0.12478446798249439 0.021391919799045533 -0.41044870315492
1.0 -0.3943049407234977 -0.3170598733684633 0.44882939695771107 0.06933140549993524 -0.19681647860145118 -0.2578574098290355 -0.043644031380308985 -0.47222966128244914 -0.06332208250654413 0.4512199778409102
1.0 0.29266039475742706 0.0040565868537862345 -0.4083135202793691 0.37292067673580465 -0.04569903393238367 0.33371987305626505 -0.3886386854588185 -0.5206701874512636 -0.14245974569139794 -0.22946474459121202
1.0 -0.4691013809921706 -0.38342741612363634 -0.43339683395294804 0.40483483265109416 0.04833127900980324 0.13701406444801706 -0.02531374709109604 0.38147330999225265 -0.25739554128510367 0.2183560175926781
1.0 -0.000016204895740002902 0.4356682700386922 -0.5280680466362132 -0.5032545426652452 -0.05638562577689652 0.20339876781230196 -0.22973709222707253 0.3226230995130085 0.1351670152119382 -0.24163370253351127
1.0 -0.46480232179508874 0.004447708835422885 -0.23910020160936898 0.349150712408772 -0.386861372833516 -0.24408377785838006 -0.05313626862188667 0.20292562026481167 -0.13540151877856985 0.577312254382414
1.0 -0.3835100082444204 0.45486562824521665 0.03743184316635779 -0.517383899784222 0.4704610713149396 -0.3144856995318134 0.15392540010707303 -0.07231720555475926 -0.11487720499633282 0.12072960324929591
1.0 0.2510648910518289 0.041651552875361035 0.4736235971687065 -0.056502091145398475 0.09666341763533197 0.5149720725656897 -0.026697814555089044 -0.15123418421787282 0.6362900216305182 0.06877626981163391
1.0 0.21406754116220325 -0.18098357276013038 0.4950623894762993 -0.23887527981919646 0.1491368723495299 0.46242376424702275 0.13919312344204998 0.4479364264835191 -0.2017665121769499 -0.34994689279096086
1.0 0.5496195236605591 -0.0700662467263526 -0.09594683709286773 -0.0038542955993613893 -0.047305662144396035 0.35496217128233304 0.13992504761193258 -0.21449946375188028 -0.24466350507581802 0.655822545213803
1.0 -0.32850522088971557 0.03632703795443908 -0.10988085678949142 0.08005347533910265 0.3530655585212867 0.5137327420282426 -0.3260509302414891 0.4223559634521419 0.1846506347445098 0.4060985838767627
1.0 -0.4721237438368337 -0.011487452100383228 0.22504797848772268 0.021017769754126406 0.3557036665080212 0.4562356910139115 -0.23693674715807073 0.3048396800875948 -0.3877578686561848 -0.3029527160237267
1.0 -0.43687770400344167 0.29543878518860894 -0.2102677860158881 -0.5380891560404591 -0.07156911119801186 0.17268722427094327 -0.5350412616105565 0.24583475004319238 -0.06824794340618831 -0.042386807248690976
1.0 -0.24222657254612642 -0.25824274949977516 -0.45271254121384036 -0.20877062642804103 -0.46482500114712305 -0.45898340981978475 0.3350028506791541 -0.20729615885912858 -0.09427542782199495 0.18785269372238045
1.0 -0.3147663739316326 0.20781578269867285 -0.07880359594606565 -0.16382504696568007 -0.17447198628790245 -0.6122967484585695 0.08330666710960971 -0.0008140688338707267 0.22939822831094078 0.5998117077371636
1.0 0.4330848101984352 -0.20203852840243255 0.27086614115872765 0.6623610536622017 -0.15996603176724813 0.20709093727093317 -0.2988852051365907 0.04905535579433155 0.15517503326681456 0.2742872144878827
1.0 -0.1664944857277339 0.5453947098207396 0.38712488291992525 -0.35630423828723173 -0.07846849972331127 -0.11848046867430077 0.08295784660754879 -0.181055249330446 0.45939112286686273 0.3565216307964225
1.0 -0.019362384091107663 -0.3404726667416071 0.28372758279307664 -0.22763893094336587 0.15707682832552353 -0.43584307078646606 0.4595008497552945 -0.4452385918945794 -0.3365051632501589 -0.11889560666409206
1.0 -0.05679878047960304 0.08681447835134885 0.4498080448302147 0.0654159258565193 0.46811307501891997 -0.1447156829956298 -0.246930679720926 -0.4702544038090928 -0.45226828198664387 0.23642669190675578
1.0 0.3744704841329502 -0.40820398088630594 -0.1919983921299008 -0.3583543107321913 -0.475977162076302 0.18675141953466987 0.2504272393979551 0.44750752897222973 0.028739634056725805 0.05125488366530991
1.0 0.34380867568445816 0.5677240097920483 0.028367415368924724 0.4151737990319027 -0.06467676367775128 -0.13216662783746558 -0.06583848503237083 -0.5708279582866744 -0.1734114960551057 0.06640133478722816
1.0 -0.4688269752728786 -0.20190023062726914 0.1862179531750779 0.43706502893043436 -0.27081873538609574 -0.2783370762795208 -0.08369780105401199 0.49442866501405996 -0.24819975803923616 0.2232759200695593
1.0 -0.03703911187668487 -0.132763625554128 0.32463069747898887 -0.4274334505556309 0.16992915375742162 0.5971376344879995 0.2535595011549638 0.27374219807303196 0.14900225786495286 0.38215091681457697
1.0 0.4180723769979517 0.061951878758815554 0.2076961047532259 0.2614586551043535 0.2861647944917562 -0.5330440542051703 -0.4928558947100171 -0.20155431332409615 -0.2442444490913728 0.025816150739301085
1.0 0.1766847156757613 0.18962735152287408 0.22160907589127152 -0.0551991322332792 0.5728299352304521 0.41308660410853204 -0.032530960923069105 -0.021783291736539544 0.40760489059549865 -0.46283609716554774
1.0 0.1362301121562658 -0.09353846830471022 -0.5440222441689481 0.5906108472683628 0.0714426374237045 0.02968318061489593 0.19488246848797447 -0.024613987284280152 0.5274994866011444 -0.07130681254612674
