50 10
1.0 0.5325908435908553 -0.4180943235411281 0.02866065188358777 -0.0435031362058348 0.4807766796565924 0.0802141175843029 -0.36680653318486167 0.3726207512990643 0.008503396439719573 0.16668559902252772
1.0 -0.3823923360280543 0.0591348821951551 0.010106150997901442 -0.18840701960959638 -0.247146486013807 -0.3666196717629115 0.30810173421821674 -0.4384766443464454 -0.40873501066795714 0.40612276868548586
1.0 0.09030935171275467 -0.10535965643885628 0.4475186585780376 -0.39693626039346924 -0.2897645634888334 -0.315876590779836 0.3411268997086216 -0.44339902309657286 0.1123574419893206 -0.3370107508417336
1.0 -0.3744919338406267 -0.4016848548093457 -0.29011200781733565 0.47335025466411607 -0.06116913253118569 -0.48031922350931927 0.1514219955194807 -0.23254832462680233 0.0001034247361434861 0.2805780716253313
1.0 -0.04121975954302094 0.014948373096534281 -0.6005602136006751 0.020606139776506348 -0.30478483772842363 0.5414612784005728 0.1175056123848549 0.2240785160469569 0.025092062833648898 0.4315759715033808
1.0 -0.16390023927515748 -0.1149712704546785 -0.22911666188161803 -0.1939739737686875 -0.32421203788026076 0.5111088899055296 0.4744316134035858 -0.10102984995774984 0.3928160125360652 -0.33742469138062287
1.0 0.29588308660122126 0.47629438756539605 0.2147050884048133 -0.30413817576286517 -0.2864350075106498 -0.18188265762286515 0.263299746194019 0.41491404284166417 -0.1314077530987282 -0.41608150518218007
1.0 0.2814527303844373 -0.030930468312720137 -0.41569811465832734 0.028792776178786804 -0.34311731543424184 0.3889973106597494 -0.2589056135025301 -0.22906517451512878 -0.4441677309966342 0.40044647109163845
1.0 -0.2068779518498294 0.28757820356704145 0.2750412666262291 0.21394840926664363 -0.3674983276559174 -0.2798079360200918 -0.45060795933779263 -0.2781067507179821 -0.2623607594248146 0.43647119252857514
1.0 0.19099513636293747 0.6851026418904199 0.021761693851788663 -0.3128241478715429 0.21874043966273532 0.02888006814751333 0.0824267961015405 0.4292323563710858 -0.08545297704782279 0.3857518206201843
1.0 -0.48027333480250123 0.39270097140353827 0.3476362500669074 -0.08183794160329873 -0.34486066051147723 0.04289936153984375 0.2667198335011375 -0.3081634472237408 -0.4297933871569912 -0.12640923253245293
1.0 -0.016130366800001985 0.4703592772857388 0.13278082096619861 0.29503358116277806 0.18949799154854427 -0.48303736983333373 0.3779470520689863 0.36736590390087 0.10290763870860387 -0.3408814281101067
1.0 -0.5256733724996188 -0.08567780444891235 -0.30893168815290245 -0.23280859867117504 -0.43074064013848495 -0.4571823471933641 0.13951614626502276 0.12387491211903831 -0.32562345291308276 -0.17690282091907425
1.0 -0.30867465775223113 0.5447963867068075 0.02340693811527541 -0.26761856534281997 0.06735837967425791 0.4585886112580405 -0.20459156254270097 -0.3220552921932299 -0.31897125677623617 0.2712722329948391
1.0 0.06278473841334438 0.43882002475991594 0.1340884874130469 -0.4123888705310567 -0.3727830927689952 0.3340348983248994 0.42169734114114504 0.29442904458294006 -0.24150564998863008 -0.2050905242768837
1.0 -0.11393321948277957 -0.34311228184431064 -0.28909655563736975 -0.17048286184556885 -0.12647925402084834 -0.476905068355683 -0.4762556864480079 0.39129441367185264 0.33996876292415446 0.1330674872062369
1.0 -0.23874960039411067 0.4723324619822819 0.07199350593544201 0.28097473821972263 -0.14161800376601957 0.13018919562641743 0.6977898452896215 -0.13321745180634229 -0.3049448211786916 -0.03342181903444944
1.0 0.3478518731205949 0.24219414855587829 0.6075645122388968 -0.42598078039022835 -0.14919379205338038 -0.27718270992313476 -0.19894466109469136 0.17152470406955175 -0.31590706253692624 0.04313687825157982
1.0 0.31498483085443146 -0.4109892482317466 -0.07753071986313419 0.4521119201583698 0.4547328912242245 -0.10805440934542636 0.31996877789957295 0.13624121472798253 -0.41514053508398513 0.09856512703118527
1.0 0.19302165612491076 -0.33835201738639764 -0.22070532143841537 0.41317915927621063 0.031187612960545324 -0.37030436648069875 0.44656789401975955 -0.19053137002628898 0.22798477420119562 0.4505913456649656
1.0 0.12807694317471302 -0.5096672536354517 0.4623087802996377 0.019885790068023455 0.1346705108229626 0.32852809473799777 -0.40742803933657956 0.26777388315070766 0.12055540539558338 -0.3625049147075127
1.0 -0.4216122763298155 -0.021153889744378176 0.15957755320710856 0.1044797503241875 -0.4723300992115898 0.33545110713468873 0.3855079757159775 0.06109642889300281 0.45923010148186527 0.2941937468931495
1.0 -0.44688846566825785 -0.018144613815084948 -0.07564515515666967 0.5336237538998971 -0.32325561269224523 -0.12850184327960174 -0.3630170482681636 -0.1243174221531572 -0.4882827079306112 -0.05312113991431141
1.0 -0.35765538004903924 0.4344337281868583 0.35774101680722525 0.46501905869240073 0.19021499754150453 -0.04614622676284135 -0.18104224401870858 -0.4352195884514436 0.03326642039991334 0.27842116717421245
1.0 -0.22336278812749497 -0.23660879101354862 -0.3753314703002943 0.015646460333028217 -0.5410541215066487 -0.36141669679966787 0.13548912597813964 -0.5373085293902257 -0.09887970500548068 -0.11318248263575281
1.0 0.4728936440983782 -0.03494133582774124 -0.5225906685120959 0.2433308219256527 0.27525254231796853 0.2862425676072464 0.15083112186992406 -0.44441849166445896 0.21688561093603287 0.13358086635126004
1.0 -0.21926097094801103 0.36273255069014043 0.24054763255786418 -0.39813367021692186 0.39295382074607116 0.20633838176029262 0.21173999169688024 0.39491446130849683 0.19424580105346212 0.41044514896816875
1.0 0.04955025745808373 0.1924160195058151 -0.24674043569267984 -0.19876607520657832 0.4021229135484189 -0.4393664857869307 0.23231513990903566 -0.45540009105478385 -0.3488066577000458 0.3498008778027454
1.0 0.4747150010845804 0.18263303152918756 -0.09422714201003389 0.5006010700170663 -0.3069059534122088 0.2118361271711766 -0.2997494779173338 -0.029644826618969125 0.2966675512205152 -0.4049748729578354
1.0 -0.28412882227900604 -0.4148633601731255 -0.363349623999311 0.14220182723677857 0.3537069805611752 0.049281417808971086 0.2689871969700532 0.40107791017737326 0.2026671841033832 0.439415543522158
1.0 0.4147824796412007 0.1253823915161414 0.4015506548946488 0.2901524699481275 -0.33124830302621666 0.2433753347154199 -0.1830701279617935 -0.050129935666204585 0.5882613655853738 0.12556774255064265
1.0 -0.2995643896406829 -0.08532334633652967 -0.42295229992332156 -0.3498968974883131 0.33015354524856416 0.36140409068326457 -0.11772563739707687 -0.39136347172729957 -0.3466754407562044 0.27357226105267457
1.0 0.42702611525211315 -0.3601622545010241 -0.17268657115196248 -0.29557648587602225 -0.11328784531720328 0.16870527300736374 -0.45338986960237815 0.44546761248145356 0.35415467677186413 -0.004563849462158789
1.0 0.4044925635376661 0.0415380209461521 -0.2004248052785454 0.34865774237100816 -0.3948576345697481 -0.23441338858378338 0.40456142093150554 -0.33894263351451526 -0.4151581208747086 -0.10562920618357127
1.0 0.36793199386343506 -0.3834256018298872 -0.23525195339559601 0.3060646032961649 -0.4953096513950585 -0.2248266044196405 -0.01308316886819416 -0.12081193636913762 0.4731577327257109 -0.18457585608847699
1.0 0.26911251687960536 -0.26754356201264134 -0.24076979814348295 0.2198569922708338 -0.44842883403289024 0.20220615285160343 -0.009667337453811 0.4563010287577205 -0.15658896752449036 -0.5243012154130027
1.0 -0.4649966955092733 0.3194631485195322 0.2167503488412012 0.43766493898980147 0.3122495751919846 -0.12410519269217643 -0.33643754250780017 -0.09894786205387505 -0.017063787629259326 0.4549902076275932
1.0 0.11206904436778159 -0.288872300348865 0.11441406896779509 0.18802384740964953 -0.38618269237310493 -0.3821954169687402 0.5096085468087526 -0.15346979715992687 0.49892827155482306 0.16779779079350943
1.0 -0.09238930628660393 0.3211105257306661 -0.512491679003822 -0.01165393331576783 0.4481550690511189 0.12781012095717562 -0.2583832702646427 0.05518289602556218 0.1740539164994719 0.5552373240232007
1.0 -0.48994509343502807 0.5301294773504214 0.21240333309319595 0.05392153973054528 -0.023520336301850662 0.45416160328067634 -0.4287801567055494 0.02975590738988567 0.15145924325749593 0.12806298066072053
1.0 0.21370352484392963 0.14425633190026674 0.4189925722352217 0.19471342791456137 -0.25233448870927794 -0.3969406136198899 -0.4288053128301058 0.47388909438526317 0.10381078268431271 -0.2821289172597992
1.0 0.13972359424129 -0.48193726832024414 -0.4496884475568327 0.3253708781362374 -0.4316147318393068 -0.3819806958627699 0.29743216931529903 -0.10133725788784255 -0.058484504367407715 -0.07597221352336758
1.0 0.010281624299971027 -0.3556665923905334 -0.3264326515338388 0.31114118478562697 0.45914908700607965 -0.41148559383239064 -0.3844456310932045 0.06354041795799276 0.371552771726062 0.0016977083037250788
1.0 0.5090038343344985 -0.027924859380427377 -0.4203459465857012 0.12444706237275598 -0.4311761128176866 -0.3156597565020765 -0.0014604129060090268 -0.4733775816116447 -0.18957610130463143 -0.04874448495362373
1.0 0.1806430417069946 -0.2185354033821931 -0.2115902596978856 0.37350992201721434 -0.3921538579085829 0.5398965834047181 0.1319564116235393 -0.12868745603631793 0.43140503840456884 0.26452606108268867
1.0 0.4507034124131158 0.20336945211554916 -0.4223268898877915 -0.11209220981376698 -0.19615054768405768 0.012818205582446394 0.3612469748959955 -0.3215062913105424 0.4516042062387551 -0.29686909487980206
1.0 -0.3093521137291852 0.19377855731741767 0.07041570825089843 0.08975000758954908 0.30709060705065183 -0.3883836854934456 0.46693761557201513 -0.09201982863395615 -0.5376183637139514 -0.3050562010972537
1.0 -0.3232493510069892 -0.14759361085331865 0.3995099380838815 -0.3582439390135953 0.24790820121555016 -0.44151842577403605 -0.4374769510643777 -0.35043359689790315 -0.06763158822089574 -0.1030449214687287
1.0 -0.32417950480642604 0.25413462666758174 -0.10250645095479637 -0.3924080788435267 0.2462067560985578 0.4657777540896642 0.49242657103711657 -0.135197943036461 0.30367040235427084 -0.18784770288433134
1.0 -0.23344101810383078 -0.30765918750414134 0.4844040942982206 0.4841220400572335 -0.24495827722462793 -0.053251501178339565 -0.14307841473086644 0.048721430836460806 -0.11290412589856233 0.5323502671932351
