100 20
1.0 -0.3636764211524852 -0.34526001473108775 -0.06573947740268628 0.29221425629711034 0.1946041263707624 -0.027936077539232357 -0.1386697245842076 0.02707341939751282 0.13009932091837179 -0.15058842142541515 -0.01882688750807854 0.31859506234577983 -0.032338410831664666 -0.04421275458521285 0.34819311534216607 0.23874596047788613 -0.396065838550391 0.32018887687101594 -0.02322996561229602 0.13260238201038826
1.0 -0.24246220174648944 -0.2923168082216481 -0.04362256021041381 -0.08714402898570264 -0.3950432445998522 0.26636002671157955 -0.23043757610992371 0.16433677371974909 0.12415812556832244 -0.249865475698144 -0.07059992005496231 0.05082754231477707 -0.33282142868005204 0.18450362828099423 -0.1693263214178561 -0.3020845089525648 0.07319326368129742 -0.40976075561981395 -0.11211502606743116 -0.056269304761208554
1.0 0.35125808064565445 -0.17526512044234993 0.3711751316684618 -0.32694765786887264 0.07910145723059665 -0.3650257603967638 -0.20978817843892872 -0.011495456905135756 0.07387879951158272 0.1548141299748965 0.03524768238058073 0.27143170438046044 -0.28602058481735926 0.13230206751032 0.10415009885318544 -0.19550219095219967 0.21296435713780007 -0.07297410696417941 -0.11026578497580637 0.31942052757780204
1.0 0.27888186061544157 -0.01365689672095736 -0.033463332305679445 0.021476545607355655 0.007126482675613075 0.305348398060341 -0.015994725247488708 0.3057557517163199 -0.2974984316985693 0.01953748080820521 -0.15000868906382964 -0.24956452262720427 -0.35577366110788233 -0.23886692092029638 0.12947549790938312 0.2682669016512733 -0.07704357392912126 -0.269683795711583 -0.2012517862488462 -0.4101508848660849
1.0 0.25901020115666873 0.00349175974041145 -0.3695634251670179 -0.34253297434092483 0.09543827850939045 0.3231497222713846 0.2989893430112727 0.04602608545225586 -0.16803202357691194 -0.30621805349831316 -0.1242865047283853 -0.2018843904670913 -0.17659579242126955 -0.011108786712028126 -0.3156533697431078 -0.1714815566490451 -0.2557298672266344 0.1508713280207663 -0.1072555968898783 -0.189006574930898
1.0 0.20148471299512896 -0.14476127084024493 0.107845909793789 0.36759284185237867 0.14801465403173544 0.2180315610001375 -0.22084783885261558 0.3515221497579005 0.038021774298204934 -0.2887671787433514 0.3530998159705902 0.12179047890052694 -0.23132922501368183 -0.3106624558583015 0.10333312149823894 -0.10953784850245096 -0.2072812608348789 -0.163614783079796 -0.24140637668793133 -0.15763126405631164
1.0 -0.22677951112868136 0.025291167810201187 0.08412221235430585 0.1374967705436991 0.32337659585525275 0.09611848300561895 0.012870756135803458 0.14644768462045746 -0.17956729005732297 -0.22550036405650206 -0.22909537616563497 0.3513538509336885 -0.3472264865474296 0.3226528112941832 -0.1745773895448704 -0.16614522097234793 -0.2400327720526749 -0.182709463070359 -0.16771641054905545 -0.3544246700219163
1.0 0.2923796921532407 -0.25475736126151105 0.3322545270150109 -0.3310251188140909 -0.2746694393280756 -0.22479774397790087 -0.24255304702293323 0.008633945600233735 0.07492868406078958 0.03942203062984111 0.13501075470897472 -0.29068952909451107 -0.2637248993939797 -0.3499721344936196 -0.16378235622783702 -0.19272579051691824 0.10962568156099102 -0.1344336390705879 0.21177508288375463 -0.06263747060647334
1.0 -0.025254632360743722 0.300488662721015 -0.04160651370654457 -0.04296956964584645 0.06585120623015896 -0.26408339792964985 -0.26253052106466424 -0.2677343064810819 -0.0053831168342027575 0.09960510904168744 0.14325973720328483 0.38666788434562305 -0.15638972610327204 -0.34438221327752305 0.004223115323348738 -0.38781304816957707 0.18953698274751543 0.3639624797260047 -0.17918774425531334 0.1298095227781947
1.0 0.09912540783350277 -0.02558345939996564 0.12941383076071974 0.17365526102018058 0.2738547587796266 0.2564422955336821 0.343294029787282 -0.3571997864501661 -0.1736103159458852 0.09030397705903377 -0.0976104084196015 -0.07131208305136713 0.024133341253169474 -0.15162192422882204 -0.31321781368142776 -0.35517046492434046 0.11500316091886202 -0.1643997810821268 0.3241379644516387 0.33221065382827103
1.0 -0.03317340854651809 0.08173674578791261 0.11637209853336099 -0.3203081578639495 -0.21360439810177526 0.10021387918049172 0.2750690212853393 0.03182540110373364 0.2915880692189371 -0.13933121043514554 -0.27207314230376045 -0.3445926279827992 0.13308343487297564 -0.26383554086976796 0.0717876268638068 -0.14486132201885032 -0.16241250447954655 -0.3922077475389529 0.07946993085988063 -0.38281827883287617
1.0 0.34026303673432484 0.22889385388115446 -0.06559802439414736 0.33094246896688223 -0.25715649261721857 0.2765700562890935 0.07031866856478222 0.0600864337857504 0.19626838920290932 0.30952436181607434 0.1420956209701736 0.31579651658774616 0.06409450326917764 0.22257972835556508 -0.14093780864245278 -0.1338834887701152 0.0847641156979249 -0.25868392139866386 0.3467906014638037 0.16363905068373402
1.0 0.014991004777891241 0.20264128262096165 -0.25675170286055615 0.2549818023060752 0.34489530918410494 0.1957716383328744 -0.043017177611690216 -0.401347740513577 0.005770718867623859 0.032125736571432625 0.06068642765698701 0.23333157608308125 -0.3918285988120959 -0.21433188985702042 -0.3671306111040127 0.05326996932066155 -0.16365951221037986 0.2286001715133458 0.019339989242334276 -0.17851079291306288
1.0 0.22986018695691895 0.27462551573230326 0.028238128991349285 0.16645518853359412 -0.23731604125869574 -0.20171886062968 0.01941108816172287 -0.31323469421717304 -0.2921997718253837 0.2523882167710093 0.266775661770991 -0.24514332202247793 -0.2646449622980921 0.25535053642365363 -0.20544862805713332 -0.058020251998741425 0.17209108971644832 -0.3180941918165169 0.1679629413171496 -0.16603030862567297
1.0 -0.3365738405050424 0.3138235946973005 0.20249287352945056 0.06832430040759009 0.29224649425221577 0.08966121260471982 -0.20828450209302013 -0.1777426398853197 0.23757230904025928 0.11984425742672349 0.3635853122679257 0.12442806854386079 -0.12273283531052934 -0.11692075118458009 0.11400869672620276 -0.43688679065047714 0.08588085657294509 0.14705405421000586 -0.19231347639127233 0.23889867782626967
1.0 0.028329294208233755 0.2502282169752551 -0.21906107590240123 -0.18762042021441477 -0.3749140562187142 -0.20890645523882787 0.16679030583619875 0.1599588664441397 -0.11062884895336016 0.1970107270144673 -0.08877869959536748 -0.2887780136697879 0.27704442646483246 0.3480608581614695 -0.24988495428322882 0.04676468876438473 -0.13697436056831114 0.0642326069807259 0.34536859515239093 -0.26222656778816233
1.0 0.2585761288864034 0.006513282666051789 -0.3186932944857676 -0.11331597137462912 -0.21102553739338623 -0.3487154815000897 -0.3142063161675847 0.10658065464288542 0.19452753816739113 0.21408268170181746 0.33234986409528544 0.31638556671334134 0.13331579056921597 -0.13170814834120464 -0.16304312072907287 0.16413728569589392 0.2948996913093991 0.13144396491107307 -0.03548054239773799 -0.23258472500521285
1.0 0.008079527438760212 0.08815554579366734 -0.2255199078158645 0.2138630697061101 -0.30589351923352376 -0.06148129567048619 -0.35905386325689764 0.2836009468624667 0.3563933785089349 0.1685794716596579 0.3427001095368274 0.12032960479881985 0.03911498861783534 -0.05043233238860203 -0.07713731027685734 0.30468068557629086 0.15383700106740592 -0.22147605771060833 -0.2592485565826154 -0.2423379565409065
1.0 -0.31313070103700813 0.1891234489987841 -0.2254742987090523 0.2932107942329791 -0.39591796020530673 0.23840766921205342 -0.044278878556175905 -0.19753679283034065 -0.18922449842214292 -0.18750468707020052 0.33662597826348695 0.09495842621476305 -0.16019382759381412 0.009245647280355944 -0.22066146220781158 0.1544646425654774 0.1760437027386395 0.14274234337296637 0.30406695699172653 -0.1984432074602573
1.0 0.04466057538866922 0.07378559057450514 -0.005246454696220236 0.45251279342180895 -0.2751094249322578 0.0092234019290651 -0.025240619025222108 -0.1888823825620841 -0.20567261014642205 -0.30192761614664165 -0.04715913227598909 0.17910350454793228 0.21829155730342617 0.42590953386589714 0.027511051829339748 -0.15093503894809535 -0.19987165893885658 0.4282146614486837 0.1441501652305256 -0.10599138413666853
1.0 0.1893070675407061 -0.2092344480146985 -0.10881617817238903 0.08647814737395591 0.14998689900733436 -0.35954273805601955 -0.11356766368808816 0.31369400602977493 0.15662614224742297 -0.04854395203151258 -0.24454510852933675 -0.3128851625305897 -0.060971731510603415 0.1611057057721106 -0.332931651707902 -0.19209574701726517 -0.31819798093799434 -0.213966375646181 -0.18919878154521477 -0.305226885191767
1.0 -0.11903728752388526 -0.015531320284529613 0.1745811001456837 0.2824312341811496 -0.33511650083686323 -0.0999807666361053 -0.22455580767664285 0.2742122641639297 0.02893310821420185 0.03473898863113501 0.24075777989954947 0.16460948538384118 0.1986029527119201 -0.23457094364875852 -0.3020318065608396 -0.2089508539928189 -0.2833191617172135 0.3423648622906088 0.048217317874754015 0.33341091597100064
1.0 0.324466274643503 0.2570237491675768 0.07387893079090349 0.17564132021647308 0.30117359503394714 -0.27819194605479797 -0.26423005990163756 0.16813495814129145 0.19737217886547806 0.12036508925325226 0.21808982210380487 -0.1174919777829525 0.04451623351672085 0.2257147150249588 -0.19003989798515375 -0.23371515568250936 0.2743809646745221 0.34039872043090214 -0.13907519088841552 0.23915127939473083
1.0 0.09626292800653466 0.02300858079118526 -0.11535809929882403 -0.09262585537688245 -0.32484623435792764 -0.27892701949498555 -0.12831439674156084 -0.15918656570300155 -0.12897743743666637 0.2550622770448547 0.09520548154204116 -0.24473099947398355 -0.0560060294773935 0.28851627123888307 -0.27036378667278693 0.18352622705218258 -0.29712711258222607 -0.37519678441955184 -0.33067818577260144 0.24693205585611305
1.0 -0.016548805031298654 -0.14443788275230715 0.15355250641049423 -0.12913050230527418 0.42867740061924015 0.44673213183662314 -0.06783604137892783 0.4083121956977498 -0.12126046497379554 -0.1756886335845707 -0.15346686007567667 0.15460116419448558 0.3837048983720432 0.05353204787231311 0.14535102257720445 -0.19455412033250508 -0.13260949277728304 -0.04701567619976579 -0.18306643928067476 -0.16896646541855967
1.0 -0.05502100430624461 -0.3467552155530916 -0.13006217525558764 -0.15287173568992968 0.06532177546322335 -0.15917099926705786 0.33074376675730577 -0.06135566582535234 -0.3407382662126194 -0.11847052349205403 -0.33223990404581955 0.020476126929195978 -0.31811496016054275 0.3120493284548194 0.16544240414025602 0.04881212761557329 0.008624264810155394 -0.33223005661044963 -0.33282134815542974 -0.056584938060406
1.0 0.2655343379951454 -0.31758293317545644 0.3042803240270495 0.16479972139500756 0.31635641400383047 -0.09514081709623179 -0.16789190433693954 0.13208179960229932 -0.2787535886740923 0.14326024027283807 -0.150591855481726 0.017916376547108512 -0.16236533255825422 -0.08442912723771026 0.34894218767830637 -0.2876080439833445 -0.3233001611211624 0.24579181172690853 -0.030380332745730602 -0.17048557230790984
1.0 0.1904890683049701 -0.2598580592073688 0.02291827899740217 -0.20100489125517515 -0.1027299396748795 -0.277510865273087 -0.1723598020554183 0.04603409224383509 -0.07274544651557097 0.01838843954657887 -0.34425139708511787 -0.3859405361738351 0.15321996923599884 0.14374912273467402 0.416938684776042 -0.18901317838081388 0.4388331939383943 -0.06544876424201908 0.10971138131059473 -0.013373702779202534
1.0 0.34023795510993055 0.0072211402308576065 -0.20507303900456225 0.25774602514735173 -0.31258781480880177 -0.16101224076671844 0.1199122776872892 -0.17149442350786823 0.10927839605223474 -0.020450272506459453 0.12637089571172708 0.33467906425853067 0.3621258239576247 0.21992620830625903 0.22246623279383332 0.28258050006463126 -0.33184733336806954 0.07279378164510288 -0.15420820976541674 0.1410163665366277
1.0 -0.05035909260493557 0.20872891107250602 -0.3004143594221088 0.30303144038983787 -0.211749079044286 0.046447138201991825 0.20005799988623707 -0.2268747110857027 -0.3454212410744642 0.07903817135975257 0.01152433971083602 -0.33108558975592184 0.4414136880649489 0.04596279512112762 0.3312967793793176 -0.12784729131082948 0.016426331772388433 -0.1382317773647608 -0.1904177696008909 0.1389884409795141
1.0 0.02473208049040048 0.22180542809301937 0.04138986734334612 0.3449034040941214 0.36968332539882687 -0.3616996344520552 -0.042243751595333 0.019495951366803373 0.17244954984009478 -0.3603310838667497 0.19213436857518926 0.16263813464621896 -0.20844911621092604 0.08195334607464934 0.3331156364733595 -0.1555128156469859 -0.0819811731836177 0.37778094199879936 0.014260810639642074 0.044245862181736685
1.0 0.29048759255839424 0.15292225279852753 0.009057056196871844 0.23964293651302662 0.3094448013029199 -0.2989936487945954 -0.12689396522189786 -0.34563722632514826 -0.15997655305052033 -0.16895642532872526 0.12098519976362182 0.23094055525101215 -0.056921985055786044 -0.37021058950455055 0.29450235240643907 -0.23624971207481268 0.0120056287427736 0.1727090685999338 -0.22166477190077127 0.17303584824279925
1.0 -0.3195713035328554 -0.14111167682908737 -0.126194472174516 -0.11946990709692835 -0.1757019281981712 -0.039492894664017765 -0.2980988043384731 -0.33558640066913265 0.3070646165104254 0.31877958204821566 0.287777740075733 0.2944836419683248 0.12255476892178907 0.16530856383225948 0.3358652553745393 0.15500467596860557 0.06610475764961278 0.01127357560862764 -0.2437141128481739 -0.07303307703029796
1.0 -0.04797913157025917 0.16315493842795534 0.33760190925457295 -0.12637282811797076 0.011207446381579273 -0.18857339189623407 0.32327338918731474 0.18928399864240164 0.3225595924448021 -0.0632550588941392 -0.2628703996698832 -0.07993112620681495 0.1285635843527291 -0.14006329222788702 -0.194289240199486 0.21065953381067354 0.25204209704572 0.27091045182567103 -0.29567242565817703 -0.3727814531381833
1.0 0.02372868016428632 -0.041967950026070726 0.10509418177951305 -0.2935894669436139 0.21671719517727142 -0.3694532981167909 -0.07767707619218618 -0.2040194939606955 -0.29233361411589043 -0.1746345038945703 0.2416212438004725 -0.1412301648465377 -0.3229249183650231 -0.008312382188690159 -0.38037424108008366 -0.17856704759045494 0.2859235277907017 -0.2868429898979511 -0.16905831483287223 0.0387446373520515
1.0 0.18110264050038805 0.07025733001753591 0.19851861984058156 0.051903306889429644 0.09266437002279028 -0.16913229102480817 0.3147660258971207 0.16257383943270168 -0.3066111225914292 0.2963135229722889 -0.2953491967524852 -0.20493397951789566 -0.2405469747273483 0.20801981645509773 -0.29632233993002016 -0.1885375854781824 -0.14964800877842788 -0.28099004423229773 0.24248950641488554 0.24855808550991568
1.0 -0.023479451544645945 -0.24377772566864617 -0.3285024718149733 0.35456128070106746 -0.2398417259384609 0.30355076346149934 -0.21079995017772699 -0.3548723197729285 -0.17068973355806566 0.08874032315724178 -0.33562978404470856 0.24866977091342407 -0.27498431609272006 -0.14141691571990084 -0.21472778202310705 -0.00028614134044723926 0.058957369397858825 -0.10865240852889411 -0.07097870218756176 0.1132214969821622
1.0 -0.16052250579526817 -0.17377058432161488 0.04857513082855023 -0.01119383081052414 -0.23197501122883055 0.22229587712057403 -0.34540766285464325 0.22124380626627504 0.30898330538571 -0.2189218746457268 0.15805541548113694 0.2934053575699409 -0.10194756588185469 0.26848063878045597 0.21194733253191547 -0.36436701173213465 0.07924750913660777 0.07150841147279485 0.09883660030498105 0.3664426184210694
1.0 0.06031612822687021 -0.23022584280955982 -0.1587486348947251 -0.0974136166571606 -0.15771455516364638 0.09196912229242946 0.3281948211564855 0.17274147598468004 -0.2530555964735173 0.16820189018964607 -0.08334407738547815 0.0029542707877953565 -0.17674805470577193 -0.3214034853678223 -0.31516736535302514 0.07264511439263176 -0.4629111100282246 0.2837322931704614 -0.2269502737784653 -0.23033640424412383
1.0 -0.09037606433346496 0.27904645406893697 -0.3999798515395562 0.10895432096876354 0.20802809796266739 0.43551681255796443 -0.13460679228667222 -0.17126714083168526 0.07988327963833222 -0.11668579656644204 -0.03610725730434384 0.1942364358487469 -0.08254438160963273 -0.0194379818140629 -0.2278459009220875 0.08004163739204459 0.3790289838344628 0.41778779910018277 0.024957503342624397 -0.13540882774410126
1.0 0.3175312183142517 0.06305457433031951 -0.0094237375437434 0.26384334989116887 0.2627426913067352 0.29774080659692537 0.17527396864835054 -0.18243166194482044 -0.10238883967483585 -0.3537836993562314 0.10458092440529573 0.35959656198210577 0.15918464124363468 -0.09386474920171804 0.2843519690913402 0.1688578317028231 -0.37380406554290835 -0.1532226849480702 0.03193679321636908 -0.142025079137259
1.0 0.09717817831262444 -0.37356693252966344 -0.24590028099590455 -0.3285356250351373 0.172268865539042 0.10302229278924604 -0.002602474644540276 -0.18628915152092076 0.37505472819847063 -0.1115312605105834 -0.02132049436692131 -0.2034810989134375 0.03333362425433396 0.13609315842285244 0.38464530949533565 -0.3481789560849033 0.11042966421297475 0.03987158693449838 -0.03173850626109841 0.3301995012859668
1.0 -0.21362413074839323 -0.31244473713022225 -0.24717418829312407 -0.3367458245021094 0.3019484825814044 -0.14373884479219595 0.12472453756932737 -0.114254423912373 -0.14513887945892098 0.07572021414521446 0.25728270185432833 0.0488692092986028 -0.12957906498233437 -0.24377922340016103 -0.28704997347224787 0.15315900480929548 0.32945686197688817 0.18344136461762484 -0.007314062524751217 -0.34943420417320925
1.0 -0.21607355693309147 -0.028017801979602276 -0.29463297327592264 0.09861604574235791 -0.10708856780226207 0.2354602300599137 -0.08882610537186225 -0.06401073855042372 -0.3485957555158426 -0.18258534394913645 -0.15365003053771897 -0.07823856603884843 0.27780924812735264 -0.33739862736121407 -0.3400469719798522 0.056722706107098904 -0.2956730364430711 -0.06699109939955333 -0.2682245090717921 0.34466012380788286
1.0 -0.38488299532532644 0.09033435728629495 0.04258948604986246 -0.14598056055911304 0.36653729509175476 0.24089535828287847 -0.3430606362905727 0.1368068438016326 -0.14126116232962715 -0.04340811790797887 -0.12756537364184478 0.011875816666745372 -0.11829766720785446 0.060128218625959705 0.2151282525388373 0.38468270588485554 -0.13562167526191427 0.1890263353097652 0.38571590854285726 -0.19689879078032396
1.0 -0.21049426370189991 -0.11775897966881331 -0.3109419624991503 0.25576352269234703 -0.2801014427788065 -0.24259173765599554 -0.13950482639849673 -0.0021214749441251894 -0.2446288040258564 -0.06046298509094506 0.300310081641647 -0.32560973819340067 0.21306998709111843 0.2867786424476432 -0.25310987981884314 -0.15728896541532833 0.1315597952351247 0.13202541499782225 0.24611737785287438 0.2269071917337427
1.0 -0.31351019913891326 -0.30405042763430185 0.26746484680407856 0.09649366265081097 0.32516462264693674 -0.21700288521410357 0.10400158051092931 -0.1106825650354888 -0.13600195306825802 0.1732545931472341 0.32599754626755856 -0.015153454361661024 0.07443480582145402 0.3355023515567831 -0.332472338655913 -0.057596398206788545 0.23791081492333113 0.30236772650420835 0.03908995962654253 0.12647479422833835
1.0 -0.2953208334113112 0.2309050022006791 -0.31695744261464825 -0.07394140370822674 0.24331391316952236 -0.17208240170212744 0.2858187452805897 0.06291609379257823 0.30875435847864446 0.09053181054546075 0.06202170726981875 0.29804988848492614 0.13789578523048057 0.26441265451712465 0.03135987500919585 0.2906019310895194 -0.01976340309310513 -0.16618887031946036 0.28214703806552566 0.31763207047939396
1.0 0.20938200288557876 0.06618776833917575 0.16676131784775003 -0.3201643650847889 -0.3839212991984589 -0.28834426366988875 0.053014255205205946 0.37146999031641276 -0.1398118535652075 0.19456340853491674 -0.24989728692022678 -0.20598028405773813 0.19251669472304497 -0.08094795640130442 -0.26616997892455935 -0.17781986809106 -0.2054642068990531 -0.0414578410295432 0.30002173503723906 -0.08841720610309806
1.0 -0.2179835381641066 -0.0789926773120231 0.08264207683532525 0.33626819872487135 -0.3156460771305005 -0.09705475885401683 0.1897420630088157 -0.07428421233682467 -0.08475424899475918 -0.05625590305614784 0.363138258777724 -0.28093586330680465 0.32167255576744613 0.26006494220441045 -0.3068872187803312 -0.24101263032919676 0.025794053660239544 -0.08361244270923952 0.24677539521798442 0.2503884169819
1.0 -0.050295121171555185 0.009590104881230306 -0.24128374963331767 -0.02218124233906496 0.23256031900414562 0.2812558736810984 0.19654879268272735 0.14017594116619128 0.07206628477201826 0.29851686058741983 -0.39389473487269694 -0.07656326274788054 0.13291011888546772 0.3779786485291486 0.09961415113495355 0.19043530027994904 0.199862287808286 0.29279986661352836 0.367967682951748 -0.15517529070663247
1.0 0.04921616249987362 -0.20974259301931206 0.2856634037271193 -0.04393212711563481 0.2026443889201245 -0.1626294178154772 -0.03704037638414361 -0.33940828682740465 0.3826197526208396 0.17761459523765727 -0.29649068723102123 -0.15201298444591382 -0.04912908228455643 0.14929126609739524 0.36053199610837233 0.393409669901231 -0.05742468324122156 0.18089665738774427 -0.18291660288413716 -0.13443935770468268
1.0 0.22941428988125928 -0.337947992676833 -0.20060317779130557 -0.1045182746794324 -0.16597407791524024 0.03126230304844369 0.24387551091763182 0.02347645967633297 -0.1818580059138543 0.2890773829360419 -0.012676826177163085 -0.007971819768392443 0.1394441237986519 0.12786014339216623 0.3150311102178641 -0.2601276759853582 -0.3660652165270253 0.3438222368209682 0.266055190578284 -0.22555343647908013
1.0 0.3763794289811895 -0.37861250512957717 0.20436800435793387 -0.08650580794467544 -0.14501853877031226 0.06146471894032858 -0.16815220266544792 -0.03823924880712908 -0.05758274925053516 0.05844266002207913 -0.34998146689543974 0.07088081458277744 -0.27973184683566654 0.2477841267328292 -0.19344367024678552 -0.3186815489475207 -0.05988290284969123 -0.2708521032377023 0.2410681204637591 -0.2515303336916178
1.0 0.25187328969384104 0.027211359722569814 0.2728714208566394 -0.09064737979325047 -0.025839977443303876 0.3403937405855717 -0.1573211618633033 -0.01605162243636578 -0.14039106415965905 0.09440300217154045 -0.31318697007989266 0.12335105120707245 0.20877820577224152 0.277647991719179 0.048598556621946044 0.34449131469911193 -0.21509544872472294 -0.3232749280415587 -0.12638601824927803 0.4015199817845756
1.0 0.27882622192220513 0.04554815145802705 0.24684497212266082 -0.33408370772688417 -0.293527301655075 0.2286980748730825 -0.03773445881583046 0.2224188871737192 -0.19248803533449046 -0.07711212998412069 0.15631187979677624 0.11149038848872939 -0.10407980534650449 -0.18976660986210783 -0.33328847493742625 -0.2053044164868531 0.31175888972697025 -0.3251155090438551 0.27192610122624133 -0.038830153995387494
1.0 -0.3030562492104693 -0.17237134555268324 0.2961445313217411 0.12673315530584603 -0.21355803804420437 -0.03252968881533663 0.18406105468928 -0.18785124173442397 -0.17863927800008939 0.2008716912196852 -0.15504822551981867 -0.2390796480518514 0.26718343485059165 0.20528983710220397 -0.23791074922472624 -0.06179046086598236 -0.3087229819648219 -0.16872516313053876 -0.32878428698848033 -0.31553487783108547
1.0 -0.2202242076022031 0.35034715291956736 -0.08988149788045213 0.22919018292329807 0.04052729318235544 0.1625538982472096 -0.3474093082231343 0.04728327965178877 0.050501374166304826 0.2765955346219658 0.13731727924064038 -0.17839843501131494 -0.27511533258077364 -0.32880996821606895 -0.22118353817078235 0.21150362443743176 0.032558085315565574 -0.17659449339795186 -0.2763099260675846 0.3183794327027522
1.0 -0.2631061561533506 0.19691639305467593 -0.3778167283640522 0.1417540745841512 -0.1861964492993895 -0.08924198795605486 -0.09957913480358402 -0.12569739392275942 0.05480351623895177 0.08389213507113637 -0.196363761782527 0.12076259947587523 -0.017314997749599933 0.3766727141347642 0.37129348059535566 -0.04164288107731858 -0.20888903918959495 -0.4030813872214473 0.19723946896704248 -0.2661557535500484
1.0 -0.29715309569310155 0.14124867699342777 0.32805312040943063 -0.05591906364343159 -0.049727022824581545 -0.03351079170682766 0.27115651659442297 0.24398269073609674 -0.15452216098113428 -0.002549216259129103 0.2845096100674237 0.21419962245631152 -0.2251885966961756 -0.18997562092214548 -0.21057159729392783 -0.3454021103062617 0.08014134612915977 0.1860165128789846 -0.29834330426480277 -0.3364014607413202
1.0 0.30558762208746704 -0.28237536657376017 -0.280236031879435 0.0931159039128474 0.25330726996578345 -0.28912090972497656 0.3344333043088577 -0.2334276537267212 0.22475340934907953 0.19314605295936238 0.2822749115622657 0.042614867989826645 0.22978079665824558 -0.10370784213672991 -0.28733849050677174 0.14041039861856922 -0.012910527364212358 -0.19146113283934627 0.16018784281537365 -0.16720083041310432
1.0 0.08558991850605227 -0.16006750231791675 -0.40004048456147956 0.2803534122123101 0.0792932075009674 0.051931988328031135 -0.1368677137084143 -0.31499739350441003 -0.15286805410658083 0.027606663089561112 -0.1235935027976451 -0.3558202706512448 -0.21580778465613248 0.3306019868942169 0.2704743805907891 -0.28839840026582986 0.18958728117993248 -0.10400974015829578 -0.014276521829499726 -0.2762277861409717
1.0 -0.20533956105484064 -0.20367948904833955 -0.07436523979672507 -0.28900857014326287 0.3468643369386667 -0.4019041975629505 -0.3082678928306255 0.3909804175107584 0.17094716457020812 0.1154368816263225 0.18591539784510636 -0.1512532278800525 -0.17885003754865725 -0.1398462559587567 0.03139478189675227 0.2122712503238862 -0.0633545122110188 0.19700499872903676 0.176490901100828 0.16125769750990648
1.0 -0.05905052808899362 -0.32517430686874277 0.1994293725917512 0.28151008323504867 0.14475643168626406 -0.2523213425293519 0.16872120988975084 -0.20834048475461478 -0.21296049501376577 -0.12674901930527585 0.2848727648565973 0.2602064258227829 0.32661169765358744 -0.08654864056938874 0.19601770987308717 0.1348672576726281 0.28718564434915417 0.19032194565143498 0.05366665927814827 -0.3356011275865648
1.0 0.25469139243731037 0.16358443309971057 0.15957033781649937 -0.0032843374201153974 -0.22267847292887216 -0.07542724831925274 0.2963770428690824 0.17919566771827877 -0.2516063153648445 -0.021568384018980355 -0.1855857408053655 0.29099360382371864 0.29065183968557146 -0.32896884328898807 -0.025935539805828366 0.16575558125884585 -0.2630343166719838 0.27181168564067576 -0.27050756436112605 -0.2961312483614527
1.0 0.1735398560063311 -0.08723041843343887 0.35227182400631674 -0.13426359292963205 -0.2831328998873726 0.038426943130106785 0.19040329898842676 0.3715215100908292 0.07735903959680279 -0.1852231269143926 0.2644557207291704 0.11402031418983688 0.2702553529919099 0.13094821931211023 -0.35708752132715454 0.20454814287108905 -0.11034697511660534 -0.2644306749008136 -0.2998520326579129 0.09722399681843884
1.0 0.014115417619114052 0.18624542198883967 0.07019451031458626 -0.12447913944220376 0.36541876570234144 -0.19695455136876786 -0.19753748234138963 0.20958058819009262 0.23859334050470218 -0.2697323411205781 -0.07597928079350397 -0.08892289139114404 0.37932409147709195 0.1915684397808061 0.31533122722546253 0.25722368337404977 0.22297096624565882 0.3562395464329585 0.11965425386868497 0.09454484005427316
1.0 -0.11730664386734208 -0.2408992590218379 0.3502279159871792 0.3348047688122899 0.20069586647388007 0.22010761931762302 -0.05767470504969368 0.19658246882378025 -0.04922620487490768 -0.26379451577858554 0.2869335627677406 -0.2922571186026539 0.08197329978909342 -0.10218737314788247 -0.2183344181181386 0.23812195399799357 0.1688589124149991 0.3777411203679018 -0.09396507038594167 0.1464062662224119
1.0 -0.03588765516764631 -0.07611499355523511 -0.3072429796679603 0.18498972205459657 -0.160998603971471 -0.0471107933870219 -0.1271029313398836 0.18240558456350645 -0.3406174055326279 0.2831754772208987 0.19828663904268998 0.03277239399831244 0.3352522949760686 0.22252372465303052 0.2988591725271392 -0.0481342960346905 0.27368038672542544 -0.3252867024363828 -0.028401337120094183 0.33921728420137315
1.0 0.01376883277451335 0.24451697118406499 0.23658755383574584 0.36321711304732207 0.14439935768606874 -0.03476861345467875 0.18901586676999801 -0.13901778706962106 -0.3750117079960113 0.1311143196471362 0.1891321425462775 0.13495466179672222 0.13369527793406147 -0.1067854346567888 0.2815541730915514 0.2729836665850975 -0.1322718055183119 -0.39895243157777444 0.23239231563861776 -0.22240644686678684
1.0 0.2977105648032749 -0.15047112086415326 -0.34813234832472867 -0.18067314914859658 -0.18191549844051771 -0.017417877730806254 0.1837412791958767 0.11952331282658843 -0.20073800541179865 0.24855103435602158 0.3486955143845008 0.10029304116663554 -0.35414543138000465 -0.23199751523584197 0.1396865296965815 -0.06249494525205248 0.07799685031457378 -0.29527288750255304 -0.08678065343555974 -0.34097472819552943
1.0 -0.1250852742766966 -0.0709443460741016 0.10072196710092235 0.25437850392228584 0.38669666371513717 0.1350687515496385 0.10154102708423181 -0.30487784289988396 0.14708690418902645 -0.3635291164701279 -0.09365407434093043 -0.352965447392212 -0.2921856514620685 0.112358463346915 -0.2426005597397636 0.2439927820373023 -0.1657703936358442 -0.30620145787864966 0.074653782102753 0.05556868619945555
1.0 0.007318026606746877 -0.23296917900846872 0.13645027938128856 -0.3525376225086072 -0.14786498719883528 0.029267715248049806 -0.28420178710186855 -0.14700096650982736 -0.14365534444647746 0.35143286373650906 0.15822779848009202 0.2799955904111462 0.15750079847101825 0.16227348411315373 -0.21898418038164186 0.2008515589070781 0.3239612615830406 0.24706718254799306 0.07669513485097333 0.34465118226899283
1.0 0.2753187032954827 -0.19404539196307888 -0.4068870196783279 -0.16066902273893474 -0.2536234773253966 0.16212343036875643 0.3579577142978042 0.1208949243153593 0.025762583422913352 -0.13504217362131252 0.08770571213897224 0.16150356678539762 0.1599849347540902 0.3651479261653469 -0.0165769268994686 -0.011229157983415616 0.3352864226078019 -0.21890956142782383 0.21283520820354446 0.2101764892033145
1.0 0.2941718181325462 0.12484304832734694 0.078675997669543 -0.3170646113002849 0.07261487203406755 -0.11559659353269554 0.1987456630567739 0.24682456496082733 -0.34129553977546906 0.27278400594561275 0.0017824096059882344 -0.16508400731926368 -0.10290122499055752 0.17113242785804558 -0.33035868816588293 -0.08354800495433881 0.2995053508401758 -0.2775993364533855 -0.24735472581242451 -0.26459138853358777
1.0 -0.24590233094728145 0.2797944301734244 0.23380851993838958 0.12405256831666484 -0.2358844199693518 -0.3099538468277803 -0.03836437424850593 -0.3634812104088542 -0.11171529123638042 0.2744365539509203 -0.17428210776255468 0.26563388299150775 -0.06945670825537142 0.05197312621310628 0.3577523368963783 -0.20370895739185535 0.001143318161661815 0.29933733421893505 -0.2067907441843733 0.08820986575850308
1.0 0.16846601219754104 -0.34463005278527514 0.3739381213143491 -0.14596034195681923 0.2890637409687757 -0.25085670315962416 0.05738304842639094 -0.21422416939892513 0.007609857129114408 0.1767851294592365 0.08101525663182858 0.10467021443553191 -0.12904778280645296 0.289860154361529 -0.28962405895666127 0.13608276925093554 -0.34521044802506295 -0.3089080431315862 0.036630855420693074 -0.16794083487092015
1.0 0.2736567377588854 0.35978609788700194 -0.12670168069829618 0.36180188263511653 0.2089448482541476 -0.07759269643406 -0.31097974535198997 0.09575141897799748 0.03188100884585832 0.3136684550968491 0.16294457157198036 -0.2583247245617616 -0.04209796545124204 -0.13131917613765975 -0.18142057562145503 -0.15674207776693336 -0.2832955994637147 0.2761711040076603 -0.1920150751379729 -0.1748562110241901
1.0 0.33763047467593676 -0.24014057719982942 -0.18481892654500648 0.26044818187385055 0.04419514676868235 -0.34197915934629625 -0.2715399451585235 0.3107428964996448 0.08947462821129391 -0.2346978203036058 -0.058331932576065934 0.3654003687621282 0.03206164062842492 -0.00699094003142741 -0.3045019840851608 -0.1984986527727719 0.07726120808181118 0.10657469374689882 -0.29425454708099114 -0.0051783520904846074
1.0 0.18879969135207983 -0.185334041472939 -0.11009082422372143 0.24738701802928661 -0.15539621379858526 -0.015733564777393752 0.13055846186108996 0.562921955483142 -0.13844269275128407 0.10709014328042686 -0.06341507859997206 0.05732538941321691 -0.17263316240991688 0.14625661655018093 -0.038427827568925606 -0.4967763487747668 0.08334039262223501 -0.10786906106915634 0.13329453952949552 -0.35300947542370564
1.0 0.362877017270714 0.044207590524471235 -0.1578440337589846 0.07245351254418045 0.042817285693187816 0.14434263344404316 0.3394958932893337 -0.33612570312869605 0.33119745348746027 -0.04185862704268035 0.2963757047557268 0.254310896842236 0.18536057353076926 0.18825147452328125 0.2187580188498658 0.1401167809772133 0.001298057143648426 -0.3084868012366933 0.2274668398767774 -0.19273623671619586
1.0 -0.016796590656865815 -0.312269647662708 0.15402302877565177 0.2322664479150576 -0.06361551499248108 -0.11411155285152781 0.1348005089831003 -0.31461326940305967 -0.3072427744344598 -0.2500122683411302 -0.3271883103294535 -0.19608378724696823 0.01841834399503596 0.2697111620859462 -0.005631442634809906 -0.32015294319054316 -0.1893465307217578 -0.23052013407314184 0.13246218255746955 0.32520384787871204
1.0 0.2934705910348122 -0.1776149022186294 0.2989073605627191 0.35011431365717116 -0.1276296496304219 0.3584458470615334 0.1268140443491867 -0.08501456566403261 0.06852869365291107 -0.003049187695456627 0.026829980216900553 -0.10117389786018308 -0.2589259158767781 -0.35140774172227696 0.22955643375235593 -0.10939504858829296 -0.22193992849850838 0.2763807256922349 0.3109941847426657 0.09541653917460138
1.0 -0.14049712339631865 -0.011919179232353777 0.3388172763329916 -0.2774695911682907 0.13846002703996996 -0.176860050527781 0.24250204952021823 0.0012579601015538127 0.2849206416718559 0.3315729698495608 0.031074591620190977 0.24296434816074233 0.302793175142662 0.29427661380262554 -0.26196746165797874 -0.23033853341844243 0.21229044366527458 0.26579671612440414 -0.07252015294599223 0.08375711265163913
1.0 0.39977976185887815 -0.37981394001609187 0.19462107648266894 0.40530449302210175 0.08621523540333116 0.015162928252811073 0.045065669578118576 -0.17150707642868324 -0.10619593493613558 0.35861195532636686 -0.10325016709137509 -0.2589590388696647 0.2171863764659872 -0.17722419194159925 0.23227646359674256 0.18560746106489276 0.06325181256567215 0.1808467819977553 0.18263162283192616 -0.0042274166385271065
1.0 0.25942140468006564 -0.155516350592018 -0.04070081141411647 -0.35256022880087057 0.18185760438015522 0.1912661490987856 -0.28918927658299914 -0.16436270855636043 0.24496133765777342 -0.12766258372381525 0.2926541717448537 -0.2964853146144859 -0.14553887510489533 -0.33182185893167115 0.08720790493729685 0.12154249815992914 -0.058992892910155324 0.11204294061662437 0.2781635807221145 -0.32454860525324314
1.0 -0.28148161435789737 0.04587347934510206 -0.3716752860280341 0.2978020306146187 -0.11521536781986855 0.08124059841292394 -0.27207576988275495 0.3606851984356204 -0.2892793875712152 0.0004309143645727058 0.21895943102283777 -0.10858231323477502 0.13562051744534215 0.0990320294021446 -0.27508228109411204 -0.20723617412142406 -0.0345500367601883 -0.25589163307628304 -0.22305529562102516 -0.24734620402904742
1.0 0.20729205902192088 -0.1884599310741749 0.21077887515007138 -0.32053067676938435 -0.1655358451991574 0.11360713373003585 0.3116939308901959 -0.24665522446637167 -0.15719196800165053 -0.20656136774033654 0.2001036697396935 0.3410856094887663 0.39976925698813964 0.27896594531489854 -0.0419347556280576 0.013211447292710602 0.03480621316523449 0.1296266806025343 -0.24388889486473325 -0.18766980050181079
1.0 0.06803262339334776 0.27654431768676635 -0.20141989393982088 -0.0022298376554046474 0.3135959239784215 0.014027022964462567 0.29865160410550035 0.3357848566929943 -0.19000249904982075 -0.29628765100519316 -0.09523343553106021 0.17185335998610718 -0.177476705486905 0.07106470699793423 -0.17578746064085274 -0.3438417253808663 0.08149769658965307 0.43449076022182115 -0.04780649552736359 0.17877372704263925
1.0 0.07744400224483113 0.3825775222672834 -0.12188150824929592 0.29482879854642596 -0.11666445608949337 -0.07229451866794777 0.2808315850901345 -0.2154239056961701 0.339129097455889 -0.144797220252087 0.3110364195553133 0.04502435094764772 0.06976919731535403 -0.1701789768805367 0.2955975457587826 0.005796353341109158 0.366769976406496 0.05550211878596863 -0.2627856763097767 -0.19774741944609694
1.0 -0.09949856540151461 0.3600351255700827 0.25013821938033454 -0.18896946786337823 0.20697108240476306 -0.3577293052565366 0.05809984950276986 0.2586616715388306 0.1282412225799046 -0.2714568839921524 0.10895723984409876 -0.3246983838087215 0.22585797697129364 0.26195818520737923 -0.140062521654566 0.27422109348923945 -0.18933636148859767 0.11268969237744307 -0.09768617500580984 0.20281419588467278
1.0 -0.181681664743168 -0.2503011706646574 -0.10300405831827104 -0.022898139887562754 0.13529664886136641 -0.12163332167409845 0.15224637907587815 -0.21406073743011483 -0.22727060615435635 0.19035458463255836 0.23655296049022864 0.29713171551822576 0.2890771762355056 0.2929598614962681 0.01571266096748433 0.35143025186327137 -0.3451612041510356 -0.33811052562428995 0.06902272819976385 -0.16617595293467458
1.0 -0.27043085329710115 -0.1477480308047086 0.005473973654285811 -0.11987341815580371 -0.16733329520308649 -0.22672754415942517 0.2900955625788753 0.15708759551071771 0.11341975907637539 0.07301936802719067 -0.14989756070327925 -0.41944292702182506 -0.129599251845857 -0.24575472906569878 0.4236619673143048 0.22770024696537608 0.1077755697270886 0.07186801928004624 -0.14296287652251835 -0.3742400405125779
1.0 0.1284205966473792 0.34711975180681404 -0.1935282923228953 0.13313127396668792 -0.31853469010389274 0.303233877030604 0.06541294440381115 -0.28512843310158237 -0.24685582554505822 -0.34587820205327124 -0.21589107134960348 0.00787001511269021 -0.11614674120384837 0.20878067452256532 0.026702677465156484 -0.05101010177365497 0.3436726384564339 -0.06583285011882964 -0.18897796692574478 0.28819133214823367
1.0 0.08264935392728756 -0.2809860880583109 -0.35929169462302846 -0.17265335246361374 0.21486712456462562 0.14242444112267055 0.07880409865807037 0.01842389464428401 0.36874517102488663 0.2296177089931026 0.21372134040652527 -0.01558146217603384 0.1714082794978695 0.019367119711058534 0.3091618949875322 0.17506009117837504 -0.18240420819053887 -0.1000209835507802 0.3684256688717005 -0.335710028411991
1.0 -0.13288095421430554 0.10129148429605697 0.06176852813177806 0.15598996587526348 -0.23832103339465108 0.31159754889100877 0.2260549857350817 0.2888061880391249 -0.06436266415135806 0.11015426248620262 0.03898176107353001 0.2636997904618745 0.08453585011077135 0.37350866589450965 -0.32373163765097396 -0.18947026783790002 0.057985329626910234 -0.3482638488329772 0.2584030491540392 0.29903619419518196
1.0 -0.07648162105019882 0.3584513702682763 -0.22104578127104427 0.11627298848598681 0.03086180095773683 0.20954695140841895 0.3143779098071009 0.14754500326681882 -0.09891244466437854 -0.21837421013362987 -0.19363429544576613 0.24529357949040315 -0.2256118645354971 0.2872228071330318 -0.3109987934301991 0.03018765491870492 -0.23003356088154014 -0.32632168910616344 0.02420394938762012 0.3027650845549729
1.0 -0.16141717445107295 0.0295291501545824 0.09153712360697827 -0.31710406721134043 -0.06843509120559352 -0.10132278904460999 0.1440276450565198 0.40128708322524687 -0.035756585861024086 0.30849928750659333 0.3821860105367229 -0.32429600577746326 -0.3023419567340456 0.2183480350624313 0.04929589532226828 -0.014258192845853095 -0.026889766464509128 0.07174181426846261 -0.15813495170548486 0.3835787153000271
1.0 0.21171810576842948 0.38901143751967404 0.07774723245057957 0.1487017680677255 -0.2420075899029286 0.02120849487694956 0.039179699537555436 -0.11723768998451237 -0.2050971953739449 -0.039557242733876036 0.14311924399371215 -0.3984686728428953 -0.16964218588999663 -0.0718422697112107 0.009573085019333058 -0.35674003786218283 -0.3205416618124454 -0.3715232660320381 0.27142363967605426 -0.05252898681322134
1.0 -0.18061236792067029 0.30956405772980383 0.2500535384367734 -0.03084588128776987 0.2736261510576652 0.19776636626859861 -0.06247247452137224 -0.16781797139198035 -0.19095157343090316 0.15859260204566164 0.13193846614741825 -0.33207910304110333 0.10172054895837412 -0.3593319391042635 -0.23819374823570547 0.153878951394865 -0.35996110061154507 -0.17973877096608132 0.2772741194884695 -0.11867463556753889
