20 10
0.2941143824357266 -0.46425275992567216 0.20527198725170379 -0.3140231070205957 -0.1297856694280588 0.09186476383683632 0.4721079239899522 -0.510748753927689 -0.011810603621497197 0.21919369913009454 1.0
0.24106237609496003 -0.4400774344324734 -0.10081318864903413 0.47735628497200455 0.23037924772750787 0.23164476075620227 -0.42594738274979715 -0.05786205834153624 0.17189897390912734 -0.4348863298147018 1.0
0.33614320594099784 0.4155909214493146 0.36497429192703107 -0.38553629544358664 -0.07150409708888227 -0.18620910738717952 -0.4039784032894585 -0.3956571455785822 0.15317463647490903 -0.22238524733281267 1.0
0.20633673196659824 0.18478365034405497 -0.3734122399097551 0.4009292767607107 0.43633087703861506 0.23538524938602362 -0.3301924184666232 0.45906810931356873 -0.2087652859714081 -0.11813049146803457 1.0
0.029519027658312776 0.3294843245192326 0.1646598251594073 -0.32567132393915316 -0.3117593211493397 0.4794042881758264 0.023440314799270397 0.5265903166567125 -0.13824380770046457 -0.3652581709934889 1.0
-0.31573133556775773 0.47427489240764226 0.43555158977307207 0.13626681569065224 0.25908355285373935 0.029079229174736303 -0.468157153610988 0.2623809561611751 -0.1941330793987136 -0.27098116111874576 1.0
0.2741036877969431 -0.2536278359534862 -0.5058854594734091 0.44522585500479084 0.2133723800944766 -0.38129578281117477 0.26425125972479474 0.19549276255174053 -0.28025372750887684 0.16997465181213936 1.0
0.3174818482790905 0.31854533031544047 0.004290495762544049 0.27748864820880437 0.4783542945680427 0.2516464605749108 0.12353978265337044 -0.07092906568098326 0.41002402695514983 0.49005541025518223 1.0
-0.22624408087624054 -0.1679651979417637 0.4597411852305504 0.566221248021579 -0.34387104886247366 0.28236143860069146 -0.19402037463260202 0.14740140820058997 0.016577481885029118 0.36195534941256663 1.0
-0.08764512451121353 0.3193323088707807 -0.21364519892631012 0.21337666562906 0.5235759016550573 0.47240206785554933 0.10855690199329524 0.20317901740728705 0.25170770530374653 -0.430642328039263 1.0
0.040255231683661484 0.324376071331806 -0.05237480657470361 0.17775122069895494 -0.15747432862086577 -0.48533492274902945 0.502630557762008 -0.5049970157630886 0.2999737121374356 -0.02879619648576916 1.0
-0.3663117435978259 -0.37814309593478024 0.39662002487359377 0.04395784391660126 -0.39790865616997473 0.14786599123751065 -0.33167778985932433 0.35203155219243615 0.1274937733159645 -0.3649617610759824 1.0
0.25199477500234513 -0.371121745548613 0.13911860733378795 0.2420125878247564 -0.20962701742061107 -0.42266695684438116 0.16637777366824014 0.3305660817605038 0.4515784800106691 0.3967035912990329 1.0
0.0431798884671972 -0.14737750173055847 -0.45485229238756353 -0.42546671232653344 -0.3374380356766692 -0.3133557670013639 0.3045453797132166 -0.4473372374522075 0.1026139359932183 -0.270293287406562 1.0
-0.579506369226569 0.041200831353095345 0.044931848128873624 -0.3330699869527853 0.03681251407320921 0.523163741994857 0.506215647479001 0.07796758266020264 0.07284592804526503 -0.08261449797076341 1.0
-0.2505625661441909 0.44181446043816824 0.17093670327142588 -0.13221642658980656 -0.493374438171594 0.3709638514768589 -0.33490968700438045 0.13664682999919725 -0.05158914894001632 -0.425190584067015 1.0
-0.1399828435653219 -0.16380936171528815 0.2684756793142312 -0.41376205836669494 -0.3178975542539664 0.4358557214268111 0.24201423911572856 -0.36005841739992683 -0.3385337745376924 -0.34124174409871455 1.0
0.24453295080567983 -0.45335005605475803 -0.4422629885985856 -0.3261742520927186 0.43482250787448073 -0.16061938611155002 0.09101098256367723 -0.33359912687600063 0.31328798844874456 -0.010061221497277919 1.0
-0.3231436222245865 0.4923138992956211 -0.05176939394815693 0.3060558155845755 0.12120786073304664 -0.10383421777596773 0.10797348158293311 0.5054640681366706 0.271536615585912 -0.4364605031181207 1.0
0.42071419415677774 0.23942608930097178 -0.03777209954675912 -0.13660310471485887 0.10710610876985076 0.5008282080651323 0.22194722562313035 -0.11806645037796855 -0.47221473241944595 0.4439594026090333 1.0
