30 10
0.3663322270971301 -0.4102298408551912 -0.33170558999450833 0.2743562454869107 -0.42163471500671973 -0.3979047752029589 -0.06501455387164093 0.40462016421374936 -0.08745331168883654 0.022709798188283246 1.0
-0.17918209833744972 0.019566751764401424 -0.0035954301512567447 0.17738978466282446 -0.5811982755512844 -0.6204888825683758 -0.27250909629541015 0.14390324431299603 0.12770042875405613 -0.31930583357312414 1.0
-0.19442806798834858 0.1768381180178972 0.45371330117348735 0.3417647447947843 -0.3483822996807232 0.17903859919056425 0.07858587311110614 -0.2840669903887853 0.38786218733392464 -0.4664066770236428 1.0
0.26278675127675594 0.48701701234526934 0.36724498803402794 0.27885962048966617 0.312998798326118 0.2784863920065855 0.1943677075753937 -0.33080241773653507 0.08764521113456954 -0.3882168687914384 1.0
0.38828030641264566 -0.2917013780248786 0.2590696374288152 -0.22651167897033078 -0.09248487610329428 0.10261514916972321 -0.10524306497320379 0.48870443197858054 -0.46399621569632504 -0.4017961648337315 1.0
-0.27816709685500685 0.15647820438857624 0.13455328610972653 -0.34100131010706936 0.19074198502344136 -0.1363964083459028 -0.18699499254984786 0.5213712336030366 -0.34267474187970837 -0.5334262865952345 1.0
-0.37348068172165544 -0.051410077637256704 -0.3485649894735983 0.23085124354147019 0.41113559408103156 -0.15274114098180552 -0.3245765921336724 0.5197249323617305 -0.33140877874318614 0.07362917078397509 1.0
0.2514861726412917 0.2005469090274694 0.31411328415469963 0.43675791309998624 0.2556740522988031 0.22813147658866414 -0.4877747090681817 0.35893787674215777 -0.24345798093604903 -0.252320165730497 1.0
-0.054030754659108754 -0.1798089381279385 0.34901185836290666 0.0308766946649946 0.46572146199754705 0.35370297181660865 0.03080404283254818 0.17437434079112973 0.6762664619622759 0.10626794425285306 1.0
0.3358886385009626 0.14865106417328894 0.21928860481143952 -0.4412090064026433 -0.38565400130619726 -0.11083677216249996 -0.39955499715701726 0.43818191467402495 0.31594189982433407 0.09923777084927182 1.0
-0.473921528451962 0.21455281209630908 -0.32131876251438485 -0.10355334663813952 0.4523176098151529 -0.38261015611471044 -0.3230925786811773 -0.36254864941778575 -0.1224505650061371 -0.11657702506384525 1.0
0.10000493166917698 0.10344703024209775 0.5655864367220266 -0.14637002357080767 -0.5396740318762457 0.09444409466873524 0.5397945973114261 0.09071483213886064 -0.13875353836406384 -0.13768748747581255 1.0
0.23401807220652546 -0.21242779030581646 -0.5496143598962283 0.030394100848853408 -0.17206758963915725 -0.4875432429207927 -0.030863859463956957 0.5707518773391049 0.04235829078882341 -0.03605624201649561 1.0
0.20348843599143002 0.23436399989855722 0.1513520583780039 0.5416253262314985 -0.25635612997470386 0.24118223106497613 0.578644328581256 0.3398372159577881 0.0879736624928255 -0.07385960181312543 1.0
0.48844521743010283 -0.5570675243497076 0.0956762467532585 0.23617972602089018 0.2176217413329467 -0.17007308510895774 0.44112911966502416 -0.20791929534097048 -0.19888338732819882 -0.18027263736498755 1.0
-0.020183194927628965 0.49151110505282053 -0.08049315404782692 -0.5027027899382405 0.07236654986697305 -0.06922952556802242 -0.6228962849114956 0.19403640236441413 0.11068701170201287 -0.2255860431928328 1.0
-0.5379632662303958 -0.19784625321048627 -0.28096707001159454 -0.004102052577319998 -0.12144891507076569 -0.43969158367414096 0.16230321175608114 0.310542527699612 -0.2753437509509699 -0.43107001756229296 1.0
-0.1538796161785848 -0.14853549200890775 0.429885910694655 0.024130822895122233 0.035912225925375955 0.5461054636606795 -0.48121344062111326 -0.16435122780497877 -0.11861438715066956 0.44351565783580965 1.0
0.21301005400950151 -0.3242946047136847 -0.13660123986043626 -0.06287393338574128 -0.18692203608284638 -0.44940484201995423 -0.4424982154100095 -0.5849644635594218 0.22423943939816834 0.04087439246416091 1.0
0.28941856554283735 0.11911411884858768 -0.03910586807649735 0.5657348809599517 0.12377848897037642 0.19581634682335555 -0.5421478109821705 -0.4212079877572182 0.08852125042252297 0.21822444973608793 1.0
0.4024976486698746 0.07508664065457357 -0.024435230804693397 -0.3382527935517419 -0.016140397111889717 -0.1719109047807343 -0.48451509577281 0.19848465674718402 0.4549461285614303 -0.4543178599506305 1.0
0.05332949036189077 0.1667048656102147 0.4030996782351813 -0.2545585435778573 -0.43618878650944437 -0.352035109099708 0.36012477091703016 -0.4316307158971072 -0.3283069134434924 0.06408057485481976 1.0
-0.31606711740371435 -0.08365580393220463 -0.1860260760546505 -0.17769950260159403 -0.5563796155602498 -0.07624632588149177 -0.02701614926343385 0.30084348573508424 -0.34376760415299634 0.54966885472134 1.0
-0.38440041641918926 0.2675082924840841 0.47373976351918023 0.31966767116038686 0.40365843249749334 0.435367039636738 -0.0638551852747389 -0.1470536963521649 -0.2537066136229145 0.10726108503547029 1.0
0.4322375110876897 0.3240507271139671 0.45933219082673704 0.07568141947827493 -0.3223856143757075 -0.058623529980124565 0.43334408345222736 -0.10930896672222962 -0.14576972160479207 0.403849677791487 1.0
-0.0858139076569676 -0.4953273929193322 -0.07443743285126504 -0.09928795106641623 0.48998832006207865 0.5323634728892856 -0.15991159860441226 -0.3578324412034406 0.21795797576223117 0.0852457789671974 1.0
-0.592352753200573 -0.1859328165347547 -0.16269106463149804 0.36915099830827397 0.14452892820977747 0.18386019325931427 0.3440823880196001 0.2977869856604529 -0.3530920145330034 -0.2556744617524893 1.0
-0.41187227094414847 -0.2215623297210564 -0.389188881751006 -0.36713021167544907 -0.01965206830860885 0.1470776901647817 0.1831376264335629 -0.24421145209860684 0.4499962705452441 0.4211003095260766 1.0
-0.11384358898422628 -0.39808665728543746 0.473441445564973 -0.48076035771036846 0.052258784550158914 -0.48178070934645767 0.05874034070171176 -0.21376839330408537 -0.23747419309055812 0.18139555718769393 1.0
0.13138119597412165 0.34741353420712484 0.32328244845361453 -0.371139947811423 -0.38198853963768814 -0.10148133425146658 0.47165634169739123 0.013168456204611037 0.44449942088839955 -0.20823030895189482 1.0
