25 10
-0.19896796052735247 0.005896217907784566 -0.1606693224968448 -0.2900101228449889 0.35632616308733484 0.4333754111623089 -0.3280636081969584 0.35941322751875066 -0.3917100169088825 0.38135752879385665 1.0
0.23173770098573018 -0.6014261527521225 0.28753457682034095 0.178422750297256 0.30124032892613833 0.18732514784712145 -0.15104555904838526 -0.42777608971666536 0.20896874187426215 0.30783418316885097 1.0
-0.15400630189432826 -0.48713265864536537 -0.23317956680246688 0.49203775689390944 -0.07243470414248329 0.31965847160278915 -0.3066015516378907 -0.39254133839039784 0.2857223349583504 0.07315173228827695 1.0
-0.10842757305031671 0.325139774539419 0.48109561745563983 0.12006878509621093 0.3731565353171008 0.305525087924346 0.035917103906234274 0.10447271836745556 0.3987137446855068 -0.4825862259608037 1.0
-0.43330653934770214 -0.25054123421886854 0.45389975235652 0.4010876812969866 0.005149721253286724 -0.35864008713006923 -0.2300269913925187 0.4277919351631013 0.1045879121619602 0.08409518405573518 1.0
0.18324897877345575 0.23151807270401095 0.1757703980626099 0.48144844270468007 -0.5055632513833381 -0.1316727003996443 0.08217514049699702 -0.4332973322980544 0.4246858047935523 -0.04839516615086824 1.0
0.09026877295274889 -0.44803114058945953 0.4921516470222498 0.29879329174168595 0.14269375311981317 -0.15495185005395085 -0.2425854700581607 0.3673677669600679 0.41624458814043197 0.21952458673197442 1.0
-0.4646199368231153 0.28458322063276587 0.4463400061895164 0.1402904719698698 0.13805400337061202 0.3075979772056565 0.1333530630844184 -0.5830923970728769 0.006254436925742027 0.11289624804601547 1.0
0.17011192622723215 -0.2367147006067176 -0.40972423854759465 0.209236492606451 0.28377185131338023 0.49727890300696725 -0.15767888084228432 -0.28462713413090135 0.46278652097145245 0.23561589858609946 1.0
0.10085362662292661 0.23222755242529877 -0.0353429064278814 0.4852931720978386 -0.507463556220066 -0.5139868640353279 -0.33700425197121653 -0.23293104200881945 -0.09690733110153459 -0.014791946471079905 1.0
-0.1449934908256913 0.17568334185793028 -0.1828971687590606 -0.10510188756819777 0.45049267232277607 0.41411932991064926 -0.43250438251651907 0.42695921887509464 0.18367316193711325 -0.35508584424722833 1.0
0.37247483404392157 -0.1035620354396001 0.3041216153310892 -0.5010332796124767 -0.1588105139681687 0.2777538969838957 0.327806098814917 -0.057790319512864716 0.17304259358157933 -0.5137166469456355 1.0
-0.16323947218161095 -0.09610380463985815 0.30391052718140266 0.36925417313208664 -0.025666038656675053 0.07860883572266054 -0.11042070523978076 0.4499897297697737 0.556536080831318 -0.45183258807158616 1.0
0.21194408952919602 0.33521565209610454 -0.45572687076696783 -0.15918592822607114 -0.0994451865953266 -0.326729950425745 -0.3398704941162281 -0.40792359349612317 0.24619412399043525 0.3879640006340396 1.0
-0.3193658229580616 -0.023797395513416402 -0.1704239897641145 -0.4065858843252766 0.4977387429665438 0.0691525190507356 -0.4402817006158205 0.2959692354181348 0.4075891855086368 -0.054608625487977604 1.0
-0.4923032147089415 -0.14334857851159244 -0.08170060496380731 -0.06813925882798443 -0.2806226172544217 0.5077202267136061 0.4104663676749477 -0.14141384119911088 -0.3513938708940554 0.27799952243694676 1.0
0.4441132697346384 0.4882923694828068 0.19845368921377457 -0.1929338836067106 0.3504087912180092 -0.06515085752695583 -0.23379497198946883 0.5361686523471644 0.08943669090226229 0.10276101292857931 1.0
0.1885298115367533 0.1951530475278678 0.4358986035711338 -0.23958507249632163 0.4344101448685623 0.054936599100397665 0.05301348272762319 0.3852667817510164 0.3747339892648297 0.4422290238967767 1.0
0.04735870752920358 -0.1514348691228674 -0.5364328921337621 -0.14259429329754106 -0.027833427917546078 0.6823068172092018 -0.029459411060206626 -0.12010536407407295 0.26174532637378317 -0.34148234099759106 1.0
-0.40085334863005556 -0.1679031887840403 -0.31121528590743797 -0.3402153421963956 -0.012685799969046948 0.12913628500282573 0.47187699776453307 0.0434335691320123 0.5927274490917129 0.07619950368075876 1.0
-0.3933187571276537 0.21544422600543303 0.41577337803850223 -0.19750103452253776 -0.3305324427389579 0.13589437542537927 0.00332437715177774 0.3815265990193986 -0.41309729196328493 0.3782433520950042 1.0
0.3294213329148195 -0.40479970246202673 -0.249646995071985 0.46868933581826844 0.1470097546924044 -0.2948797375873362 -0.0793439374569008 -0.3912379587375018 0.014555946419889595 0.42128976570800936 1.0
-0.3801297104072262 -0.2563538532399409 -0.3828250885444532 -0.34988314697618905 0.13423257255567675 0.3238016667253484 -0.3800229222909803 -0.29011252843026347 0.38017989616214765 -0.1575610461505513 1.0
-0.5699168131679121 0.062319121116621204 0.30957645002520207 -0.0313115391522879 0.3104284456628625 -0.024930389324680075 -0.2579247253431054 -0.5075826210292732 0.1875442152427582 -0.3437552971863348 1.0
0.19973207701390444 0.18696902171946012 0.1938083903776974 -0.36282286977205475 0.4464818681445651 0.14366286425563818 0.4419422417019692 0.42699459105826004 -0.26341872560185414 -0.2982209371913454 1.0
