26 13
0.06965422912776496 0.22912568561636706 -0.36914401973551164 -0.19938996161566425 -0.01820586503033793 0.3383317779031611 0.058656717925134695 0.3157478491551214 0.47755768796002956 0.49123033987774833 -0.2314054196986645 0.13615682619810526 0.08504788333059637 1.0
-0.27517984352330793 0.02966447358393887 -0.27586161999425834 0.46596896134630017 0.01348355312399654 -0.02134912073729967 0.30216338864161396 -0.2013383483675272 0.27762609665729343 0.35117895937297017 0.3066492047042462 -0.23480577926023755 -0.384865601879952 1.0
0.24036272157625105 -0.4036433144399548 0.2299108670079165 0.4711507709145856 0.05558017651406126 -0.05830303374583448 0.3387526037729885 0.13607976246567002 0.23128880574323507 0.47926473996946706 -0.21336917231026972 0.019399807624765914 0.18869126671171105 1.0
0.036202999728442486 -0.2336850820671611 -0.21447239998150097 -0.18979311449179817 -0.260191206108437 0.35928226210549863 -0.4213497269497768 -0.3838637032711372 -0.39892660732182267 -0.05820184005265894 0.21552560950600225 0.12945180685785304 0.3386025620275231 1.0
-0.18838544886646422 0.26425846405539033 0.40987093087994597 0.40000306327938695 0.14401284162170766 0.14386402876062981 -0.19404634846663005 -0.013826158566682997 0.06963426039547235 0.37983813138204037 0.3961721585235695 -0.21247578180304325 -0.3690200232580539 1.0
-0.1147361900853587 -0.37550627361077005 -0.47140079820155806 -0.10510856225060103 0.28816291276097405 0.053020857942025074 0.12106227234183484 -0.41306683844198 -0.071730195112371 0.4900484592531263 0.13485118476426494 0.044195847761030235 -0.2756881063602729 1.0
-0.2547102403270417 0.3833326167962594 0.006305679346896563 -0.1142149500412026 -0.19601472305549777 -0.16062690026924226 0.37275023448533223 -0.2086664395524138 -0.35500682244221576 -0.24450630962774728 -0.38345640921670404 0.3051243793751367 -0.32005297191562393 1.0
0.5088676742882052 0.32571203063815346 -0.425862449886718 0.013166472568307535 0.1937823383815655 -0.38290779484864557 0.014918215353495046 0.07128209315355194 0.20309785252470536 0.2947879346240438 -0.30538048183916766 -0.08286332588701369 -0.1889107815744592 1.0
0.346416536399034 0.16495691954273897 0.43675356324759007 0.18579631816375863 0.2845774134407699 -0.4736690499261708 -0.14293550000910232 -0.09639180418694444 0.13198700404830407 0.1444056179189015 -0.02524305583877279 -0.23105587958727086 -0.4473752987052499 1.0
0.4036756324116732 0.4487476964826771 0.21695921021515324 0.42975706379159134 0.07379901976188286 -0.20664462347084056 -0.11614920956590971 -0.13001266539181233 0.0077026653664053835 -0.3832658316105911 -0.17024092711823732 0.3821524924692672 0.058243442977121175 1.0
-0.11164080348198482 0.28924375671787295 -0.43584563475234755 -0.21226220053928152 -0.10165621188242338 -0.2388252797634917 0.06058779712784481 0.20910407059279712 0.4638949930069134 -0.3571253573849653 0.21719843108102335 0.1580136330327999 0.37310893289626745 1.0
0.20681637923783502 -0.22578691801092043 0.32419429161849433 -0.4226508809356321 -0.15543643319488062 0.3238939858101363 0.25700862013651943 0.338995964564474 0.16240472308684611 -0.4862129611026333 0.18497730695681724 -0.06232750259135147 -0.10766798104925196 1.0
-0.03707741485096531 0.3374738213710488 -0.23029295721438783 -0.19753088632856042 0.34276757600815333 -0.3074919864462832 0.1283626082785894 0.20056813920350286 0.473877186688648 -0.020621344761274613 -0.13569992499853112 0.3510753530079767 0.39659137204946593 1.0
-0.0821224527316682 0.2615154902920198 0.011878024502817735 0.3856946939549311 -0.5498250829558461 0.1681208222881953 0.22752950793851537 0.13963548922418956 -0.33748220521395084 -0.017085645571973698 0.3050593015046664 -0.40592355987936196 -0.04585646187144349 1.0
-0.36311887326674497 0.28694848692897434 0.31056815400630927 0.2572053860686328 0.23874543309834428 0.19274104417937357 -0.014706537560421803 -0.34271734708230506 -0.24782539331893327 0.35550951766581806 -0.21003972355017872 -0.3878654801226311 -0.1703447908853664 1.0
-0.23325108115358797 -0.1897469616449113 -0.2932715561632146 0.3290397763400139 0.048358464060078044 0.3166521705752564 -0.05195917848770433 -0.39614125976086695 -0.3663306461111488 -0.24089479923710758 0.028440243416954385 0.2632694080364642 -0.4367284926535345 1.0
0.38088556605755614 -0.031221260637456543 0.4338065503922452 -0.11721105144628578 -0.2749599250089814 -0.2805282896951545 0.17171256659171155 -0.37099607300126963 -0.20201590867548386 -0.03287273482519817 0.01158228945259792 -0.22192150296534505 0.4892117581993707 1.0
-0.4145678602757162 0.21585844983727318 -0.4322293711102991 -0.07512469792357614 0.16077183981316848 -0.11210694525505811 -0.40740844643965535 -0.17758404290692054 -0.32397991385415015 0.3100147869840683 0.3845018817328643 -0.06333559242341676 0.014633391316429378 1.0
0.33989772419460895 -0.08991718075245589 0.2997670117849853 -0.3895630859016929 -0.24093566477964945 0.06741333798395101 -0.2694118429238185 0.4397135630570221 0.0669826646008356 0.1710449815690665 -0.2963398311243819 -0.38767218844989615 -0.1854437456774886 1.0
-0.011372808297944839 -0.384216574081362 -0.3491757957739071 0.25692483870608346 -0.299914920935751 0.3856743619161373 0.378216324414816 -0.17173545772850987 -0.08295917562097735 0.11250035841273502 -0.3908477911452684 0.2266290249681012 -0.17151845188167378 1.0
-0.10543048651447225 -0.18908343467564698 -0.05151981413983363 -0.2084927561022127 0.08411417311138265 0.1571418873481792 -0.47272969002528153 0.04807286897981371 -0.44781104127851507 -0.48309220187254204 -0.2390619275376771 -0.39642734543703056 0.0351734217596804 1.0
0.5356204591746423 -0.47062309219305454 -0.09095523985458066 0.28804352876452094 -0.06854946085021897 -0.22636007046887127 0.10385982113900402 0.4271026808598662 0.01420920556152235 0.1033561931062105 0.17685079328215378 -0.21831894856562903 0.24782545388721833 1.0
0.022419403365301606 0.07937379775221994 -0.44561596263313896 0.019386742497223896 -0.3060304319435538 0.45534192996864475 -0.35337935961843386 -0.28004615172115765 -0.10153889795699511 -0.06769077163080434 -0.4298317625383631 -0.21809830215245218 -0.20673562690744832 1.0
-0.38956860280132277 0.31065903864786343 -0.018038787878989094 0.3583475753854173 -0.24876546892240492 -0.40633982833933857 -0.03098000106160167 0.27034632175151396 0.310198894105155 -0.36002376315774015 0.2519038550700903 -0.16705159712626014 -0.06887250356821606 1.0
-0.34361080693003365 -0.5635801543804466 0.39858469717053596 -0.18567517590663862 0.02786890403035433 0.2575631149532009 -0.18055021741302424 -0.2964333648631738 -0.039891673745189656 0.056379591961467815 0.01793837358698818 -0.23940976379974788 0.3478054227598237 1.0
0.25651363176743 0.40145700739955814 0.1115492360295262 0.05842053924450715 -0.24528777779198305 -0.11680495197537225 0.22208391349185957 0.4919484387136145 0.3035464101412608 -0.31378391838578196 0.3371695990611036 0.22565123828697678 -0.1919120223422975 1.0
