39 13
0.17739780126859211 -0.042351854111268045 0.1280892686885 -0.4033038995063782 0.3632568945434241 -0.3349840632693809 -0.41181754296701073 -0.02056725853885897 -0.39261022209031354 -0.2269051378473141 -0.18364001075073738 0.36613460023637784 0.009051101652161143 1.0
0.3177365222618703 0.48664634873137447 0.14643676610918077 0.34870092510637446 0.20607951425105192 0.4328708691850129 -0.1815841571576093 -0.09948038215489002 0.13821631729589298 -0.21650062460802397 -0.31131661146738343 -0.09982376108285174 -0.27130900690314913 1.0
0.3061804816620193 -0.26055975977436713 -0.2526598649821979 0.07647283495853298 -0.2256838013737705 -0.2658649068018764 -0.2820666675768369 0.07100376069879288 -0.21752895729322957 -0.26886409408187856 0.6008498390365123 -0.25830343449814364 -0.12291710549094746 1.0
0.3597936253495598 0.1301845303352839 -0.19250553176242483 -0.1894434701005817 -0.016175041206410376 0.19755793215152587 0.2705318228140861 0.37482905450065546 -0.221878616283536 -0.3657725629903721 0.4059231865954651 0.28342948052225453 -0.3155196971410195 1.0
-0.2116590757288311 0.0007497458241641526 0.41556563595234286 0.08010432668780715 -0.023860331626623092 -0.20466414888086845 0.5312799010446884 0.18178164501893387 -0.4970500430614246 0.25187677263561403 -0.23216414147335596 -0.06806649000872292 0.22202444476467684 1.0
0.020134003167727392 -0.20946388451099937 0.311808453827632 0.3414188188708309 -0.23184306537748367 0.4114653913489882 0.3581785738507556 0.35125537564473736 0.11835252508294154 0.25897677321217344 0.4131999707301321 0.01150061552171292 -0.12352411542740863 1.0
0.16348847277665016 -0.45109444708795515 0.2612669484292222 -0.2438793064367179 -0.12542146129894619 0.09124934146251919 -0.45628275104179505 -0.12400294903743807 -0.15807389691642762 0.4782382194814599 0.12386675077575057 0.34720325619450026 -0.06948305237317409 1.0
0.27398007916160244 -0.21167415156538735 0.4624275392383374 0.2630720726102024 0.25410718229584306 0.05288694056091797 -0.33791726190379234 0.09785094681637471 -0.1642639876068354 0.2320436308095261 -0.1747828291827237 -0.4431273261956913 -0.3133922211292963 1.0
0.17625568916279244 -0.04012902117572192 0.39686990108604364 -0.05143651091672166 -0.023714658985381824 -0.25973542735487604 0.006532592978414581 -0.39473557848351853 -0.11840335668361154 -0.3981985062262421 0.3542343611815226 0.40816906009612086 0.3444169888259778 1.0
0.19280905088290493 0.051236042963843965 0.14760635334698805 -0.06973069102343156 0.019797698975566776 0.4580712928781634 0.00017221969526722691 -0.42973304005100554 0.2835443654955227 0.2594165902441792 -0.4078451099572218 -0.1264097599861961 -0.4567781997109501 1.0
-0.43242447950119717 -0.03916082025904041 -0.4608749976891129 0.18414270731628335 -0.05860123828954714 0.3145452655030439 0.25368063735572827 0.29139047694028436 -0.43548723015590185 0.18229213833020175 -0.23654047361721492 0.1858016742065178 0.013148589621942564 1.0
0.2715576281794248 -0.31207133018444555 -0.43801657413418493 -0.4300603532353166 -0.12862884551810433 -0.270974495356055 -0.0510344473898845 0.47536591975973796 0.13624868489036293 0.1067144801555933 0.24613884640155453 -0.14581489560811844 0.14734206253753557 1.0
0.38586657911374056 0.334007456594118 0.1522391930146875 -0.028016181160304108 -0.2700974497086922 -0.035863090992099944 -0.13637824386495997 -0.27522721853301935 -0.47714165504136186 -0.3498254240460771 0.09673177097151013 -0.36045015767587246 0.24015233694841262 1.0
0.28357919642141843 0.11206335545080517 -0.16435797944723132 0.27140184870942236 0.1644752347372328 0.33048366889648106 0.0882297253425063 -0.5403331897260966 0.1536713521396512 -0.03335505967781158 0.42180223425957397 -0.3805106284266375 -0.15133812666324215 1.0
0.2711922559260169 0.1339373506078128 -0.4313206136823845 0.18658649723121712 -0.12853310642194402 0.5049361844801163 -0.23969028924806712 -0.37533957466136086 -0.05204813163699106 -0.008337797737675878 -0.2114373817672885 -0.3773977932373183 0.1671455209209265 1.0
-0.18629260472345263 -0.04547521787024441 -0.18667010002585313 -0.09981856625731908 -0.11339896431337931 0.2803584833970962 -0.19803320516473677 0.16305963843727653 0.036249392943737725 -0.03806753063093907 0.6489756765235931 0.47294707860040786 -0.3369573770723131 1.0
0.07430189268841361 0.3166834009747466 0.19548822071848215 -0.1329207567871425 0.4875604187134797 0.32689009930055685 -0.19562233956460257 0.2940840584076488 -0.19845054786923066 -0.2080875309616841 0.0719915965409336 -0.5298299465194808 -0.019895866649456737 1.0
0.31886542654920824 0.30129135441046906 -0.10054324633864849 -0.1719191373980558 -0.14582015557654554 -0.09468641495069187 0.3258720472694214 0.31254200169335383 0.2174121060763925 0.1887902040589995 0.44813478904312337 0.31058778933945336 -0.39189254560880765 1.0
0.4486217892173961 -0.0639478081446168 -0.24240198906091245 0.12072040502704137 -0.17863687952177082 0.23163060154137816 -0.24279620343178399 0.21478047691788218 0.03622809967890505 0.36603542745700524 -0.4389230885149499 -0.14915535984603898 -0.4248261988841594 1.0
-0.27524704793958926 -0.36755914297182485 0.341507833090285 -0.3441568806360326 0.11262999718350182 0.03648591622114035 -0.3119175743126684 -0.1736916725573694 0.3361819568820235 0.20889867033857298 0.3529950769354393 0.35251647140652626 0.0840197731636423 1.0
0.24602989085579194 -0.10902616455700151 -0.4063020311841925 -0.41066279295603847 -0.3029637190380926 0.04659502828170891 -0.0534957228369248 0.40892670460918124 0.03967745403190697 0.2508229440029246 -0.10115232640041098 0.3559240583921591 0.35835204239822344 1.0
-0.400210871507825 -0.12812581876069482 0.3876115050484712 0.436141210161765 -0.0629144036865423 0.20061688471981393 0.3074304482222108 -0.0640593683193434 0.2410096829348912 -0.030809995279007716 0.35858987615481663 0.02085145568118477 -0.3899671184790065 1.0
-0.04185733152307671 -0.06955765299134141 0.026415327811744847 0.2508596377225085 -0.10598310246750117 0.3107144832523931 0.2930100793302667 0.21403119289584938 -0.49408303260333414 -0.10429331326220843 0.49535655458635025 -0.41892645582981786 -0.1202853824449859 1.0
-0.2427173369673379 0.17587135467991705 0.10398065665004934 0.21794216802646602 0.2184864617547575 0.029992096277486238 -0.3749943469575351 0.14176262097339729 0.16601251892468435 -0.06998701721048951 -0.6006020799888699 0.3537243961346596 -0.35240798612825125 1.0
-0.0030123625039099097 0.4909197275922664 0.35225215756338824 -0.05803866508456005 0.1289527286846718 -0.4505910669785734 0.046854956773010145 0.08239230198901648 -0.2985436389117679 -0.43827212041292346 0.31163807453429543 0.1297096688028643 -0.08797749573809505 1.0
0.06100345800403734 -0.4232988753914102 0.4553848240143399 -0.09845269616412344 0.3578514643125867 -0.05576314030268806 -0.43055727075530487 0.3923066028117839 -0.1987682109008531 0.18903508625475138 -0.09595987969907431 0.18752670664148247 0.09979732875469212 1.0
0.025368287550851073 -0.07011090424866015 -0.046800298323813404 0.4613080628349448 -0.3818737379897889 -0.3031425758147668 0.35972260571839165 0.17269811324991594 -0.405179784917078 0.2412399234400077 -0.08333745847739579 0.358607598525801 0.15679811681562128 1.0
-0.4143830613699362 -0.2032785429319219 0.4051261577287203 -0.13498199931293464 -0.38189438756486943 0.4065710705361841 0.23797418236665774 -0.017043089768830122 -0.08107493846166587 -0.010313567146246715 -0.21241843815406827 -0.029638579949998026 0.4288030759953329 1.0
-0.2444268356980453 0.1438917388109499 -0.047094457009986705 0.3814377210006933 0.030290955877347998 0.07152454643839552 -0.29998505990754637 0.28986497710467074 0.46633871618445843 0.2582958531282454 0.23027643551838506 0.48867265545563815 -0.12559966495812006 1.0
-0.13471563660161628 0.2870349438040805 -0.40336791580305337 0.31342539265389596 -0.1601302319687356 -0.058741694272334194 0.0937045264505092 -0.29535493572749355 -0.4704274635669888 0.28460942663801453 0.006180682225509008 -0.4457761166510045 0.11115332041867954 1.0
0.45326117083037537 0.4592256091989588 -0.024726591220976014 0.19361929494793353 -0.1905336968973129 0.04044141989310754 0.3278057783428427 0.2792292144253869 -0.26326164219415876 -0.2954859258651408 -0.23222725079972295 -0.2513127446090559 -0.22021788831018305 1.0
-0.3019356199622746 0.060778060996779494 -0.17076947499869374 -0.2227784424707843 0.11581457900211738 -0.04616092818187248 -0.4907661820939719 -0.40377178528003027 -0.2328507333872964 0.2526858856259828 0.27489421225723437 -0.03145358758931021 0.460755613817902 1.0
-0.25889046190315773 -0.5385369240687885 -0.05796715235395977 -0.0007875572397370276 -0.28822162558937425 -0.1870101543971353 -0.002546231853010067 0.524345039388205 -0.2711264015162778 0.02682799050834138 -0.1412241049022877 0.08532919123728093 -0.3809850480825105 1.0
0.07181564685799464 -0.05053084159391734 0.1293188819902826 0.04267475047833108 0.4154039407872007 0.5819440599210441 -0.14077494127050627 0.14686608123260816 -0.31503669814507484 0.14243129091555579 0.1865154804594177 -0.43737495825705863 -0.2748061392507781 1.0
-0.33064167486675006 -0.42409403807310164 -0.018031726761182688 -0.1463239042177304 0.4279787445622923 0.3683907837000528 -0.04224799608023578 0.14192770053254175 -0.38747851383563736 -0.05292175563198609 -0.32567979200720554 0.29686760641211285 -0.03377199092423235 1.0
0.32214734769051984 -0.11599219072447207 0.10260765885914659 -0.3616664260763313 -0.28628595457002404 -0.2545119881212922 0.20411927853373235 -0.41424886942562544 -0.08998947785362357 0.4118850221391644 0.39925306602178445 0.20044425082878953 -0.06406926785440167 1.0
0.3293651205071789 -0.18627427935697455 0.08840235266119828 -0.39865639016612847 0.18114113696432324 -0.07729989660676603 0.39873063440138073 -0.40775743633536743 0.3315484325313401 0.24988812812723502 -0.30626509350632897 0.02820358792802139 0.24305718686878788 1.0
-0.31934488144872564 -0.24549804458590813 -0.2598088489312764 0.4161554414740148 0.3063977703426692 -0.40273805156887343 -0.08306799580652026 -0.31667434834697566 0.2959251790133649 0.10394074050626975 -0.02111783096630444 -0.026194553239149328 0.3664636327790505 1.0
0.26448275255617276 0.34931172048700315 -0.24568060263704564 -0.5315895675100081 0.12876752823403306 0.407468250745462 0.28454109851645143 -0.2656222641072899 -0.029872253128576255 0.19314743233224757 0.11439317628695211 -0.008216835400230422 -0.28213807934610613 1.0
