32 13
-0.22940223577681398 -0.12682139998895192 0.3682028018422798 0.021281294399325735 -0.3853866643171545 -0.1911849426201127 -0.09948957918750498 -0.11724039783736064 0.2549199992346026 0.47384377578826875 -0.1281650470303161 -0.4488859549801587 -0.28126444790927974 1.0
-0.5093278443891993 0.09255396137740199 -0.2652625988089133 0.04386450783423184 -0.38434122087119144 0.13851488534353654 0.32831760751619965 0.047383014534494346 0.12424367023418446 -0.372331659825604 -0.15924417113029476 -0.4164403165488995 0.17303127753878225 1.0
-0.13146120724455898 -0.30245889618419913 0.3317233361643466 -0.4343985746781932 -0.260074217166824 0.1232792004103681 -0.22537077207428274 0.0233305817034695 0.41108587596754775 0.2519245625703592 -0.3977072211768132 -0.22513436527014555 -0.13041209370915471 1.0
0.13318472842082182 -0.3108724325811706 -0.1831412183154703 -0.27739128566547083 0.36609761247974026 0.16246461128845682 -0.21606322831808972 0.3420547332960233 -0.3034442073643789 0.2751475223956873 0.3486423666546096 -0.1829765918653945 0.3580643482961016 1.0
-0.2741231723795261 0.43099667987837914 0.29512348961916335 0.397233740486969 0.014654999274631453 0.21495484507935497 0.31961984388844755 -0.10331559281364892 0.03549942258591777 -0.33577333314152313 0.12953348785163651 0.3310280337434457 -0.307558279010066 1.0
0.4436331942394985 0.404307223871385 -0.11612158393236853 0.3481831334325684 -0.33802350471322773 -0.21865254998383882 -0.2659309958377496 0.050088474107940324 -0.08531483827421359 -0.27786884536922296 0.40236690751825294 -0.13213391494548937 0.07657902645253069 1.0
0.34633352201841605 -0.21616746978001855 -0.3591568731941615 -0.32305285203302797 -0.32746214061157985 0.22160969465712466 0.29022262045910346 -0.3426182731399423 0.1557235659528951 0.3461049006650691 0.08820652789538336 -0.012975395410591126 -0.30003660983882124 1.0
0.01816614600401153 -0.28376828101820945 -0.37878939315855054 0.0783489801173858 0.46848346117649753 -0.12850533898333125 0.0954240773512748 -0.1107882704913767 0.1892251130135072 0.4305228084366205 -0.25854595163049915 -0.052621552077213536 0.47051498061790187 1.0
0.12404627547070038 -0.07284479128552174 -0.45115475256906995 -0.19978511296984147 -0.05309971228696579 -0.117869137491875 -0.31246008571285594 -0.4117079821482556 -0.36148953866109523 0.3217292227756803 -0.08675464690215155 0.41556527294933604 -0.19390392171961499 1.0
0.43122829571930654 -0.25267734053165336 0.3111319112336005 -0.11405671827927724 -0.33182222477993767 -0.49992142289139463 0.33013900511317007 -0.08615245213717046 0.23279114656201813 -0.11734563302926643 0.0014396307302621176 0.2918410405836681 -0.1039611020335992 1.0
0.39324790610318855 -0.25566950293269264 -0.23624850859309565 -0.3315727283100368 0.2878683311145836 0.3930899643436751 0.2831451566485986 -0.2776398800653733 0.1783628599187082 -0.2876733307386298 -0.037687052185083586 -0.31856757943105884 0.046016379669630667 1.0
0.017560424932321052 -0.24882215538333977 0.4224481605800915 0.3716952500950302 0.4137415051853969 -0.012391632129285299 -0.09929195737889145 -0.16841476028263275 0.5114092269949049 -0.16877336698919532 0.28204641140829495 -0.035071435466662755 0.20198346113084858 1.0
0.26185568650452407 -0.44447485775196427 -0.0242807409151127 0.39536432298793883 0.179007732446144 -0.009655072284678793 0.12272705423247353 0.048227748899208896 -0.3445631076792677 0.26126792377112595 -0.377382227924369 0.43569931629275116 -0.09061159066763196 1.0
-0.3870169870413511 -0.36171784350306546 -0.23074948448259489 -0.10117241117815465 0.09491004861964487 -0.326608737771263 0.14010948336020737 0.007494479605546515 0.3804552342582738 -0.22404870106332375 -0.2782574028593869 0.15163283424269053 -0.4745156985828765 1.0
-0.16012101782129237 0.1418099546106073 -0.38311516033063986 -0.042873384436989306 0.41103548596385253 0.34250654807263853 -0.1874314073777176 -0.4195633000465844 -0.44317671508170753 0.10578725584820202 -0.0896930124500847 0.10333443809245306 -0.28616718011758396 1.0
0.3588148484390959 -0.29242467358402197 0.3556509567358511 -0.3064136752487015 0.17278037289789938 -0.18398843072586188 0.22885675042650652 0.10294280083568272 0.33853417818917575 -0.01881759198132251 -0.17676528190280894 0.3205514553180753 0.43557622420200426 1.0
0.159558356207511 0.2038892155668456 -0.42502527657623435 0.2799078313348596 -0.30476281416123574 -0.40222497235586174 0.06543347988681146 0.00011110233633684975 -0.14211036524153356 0.028046475204859936 0.4788399507873523 0.3759551625352812 -0.15302497072427595 1.0
0.20827494752496495 -0.3393106839456395 -0.34524002094551265 0.20554846091774914 -0.45451321352080054 -0.4018438930886156 -0.10030390194918759 0.02076935650518419 -0.016975863463336665 0.10387604346603843 -0.3163259884419961 -0.2926287074127779 -0.3236106392562633 1.0
-0.25962977550037486 0.04843296871203417 -0.1861549922894794 -0.33746073290076617 0.05094907407413879 0.25171625170191453 -0.3855229578797962 0.32447789745508204 0.31971317144337685 0.422618944645838 -0.19527731158936915 -0.007833362072318082 0.377921405785836 1.0
-0.2823483491698494 -0.36212443564238844 0.24907961841856918 0.14400642739450223 0.21450078440219777 -0.28242842315032896 -0.43204290898982634 -0.08178396673930499 0.11754743039973432 -0.2938411564422468 0.24074072251088963 0.3394422575611641 -0.33749598063791164 1.0
0.36734325460811196 -0.0992407528749026 0.21297678723585756 0.04702940164064965 0.3458537498098928 -0.0012243557095136372 -0.3696109546026645 -0.44467160182841675 0.12083757948573014 0.2679720580039466 -0.16058493369865542 -0.27636344595213647 -0.40632856597458816 1.0
0.315057817960483 -0.11471838073440524 0.33332786713847545 0.22995157281107595 0.1446622507285972 0.1529129265328924 0.5178289267862901 -0.34833378182354024 0.1280527003597934 -0.05641599843325346 0.010271502227498142 0.0050864289654096355 -0.5197005736817584 1.0
0.19240711884129869 -0.09353983231863812 -0.21247179117662962 0.3147537886971792 -0.1726635532500649 0.40239527985085355 -0.4105375897462432 -0.06199527205549349 -0.058093511367795184 0.2894726636920364 -0.3896869950967355 -0.40758590797057803 -0.20185364751016233 1.0
0.37810069573524707 0.41615753749369366 0.06291326695091316 0.16128040728545312 0.40995866493597233 0.3790252153597005 -0.02016825603664336 -0.34591618734634966 0.27316909255735106 -0.09107935488118918 0.24208973859645694 0.28286516089937785 0.02356667321133246 1.0
0.12664842592921732 0.0307477044205297 -0.3771604135354107 -0.2507843868810322 -0.37945148379579924 -0.38162944899939205 0.38865148294795354 0.09562126085774734 -0.16138414382743263 0.1128086223599295 -0.4465845137489324 0.0033627451759714144 0.29972393945728226 1.0
-0.008165386561207827 0.11325206101892202 -0.2847670101590023 -0.158278664417274 0.3865776178970623 0.4559431098638523 -0.032393247593950555 -0.23091063952702956 0.3418979027597892 0.368074658313077 -1.0907044095740374e-05 0.2968776379439643 0.3588286908692285 1.0
0.04361565813924755 -0.4361899011887414 -0.4449124224249227 0.15823580281867639 -0.11153409756495195 -0.11097184690865551 -0.30478088425017313 -0.24070994780287547 0.44981731759770827 0.2819747656986772 -0.35087666167090925 0.026317696967083082 -0.060089091041811996 1.0
0.15893087219034416 -0.22716794812218752 0.3903635223094648 -0.10753789682109163 0.29370738399644397 0.2931327419357748 0.42714463370504235 -0.23548994520280112 -0.43771275523933917 -0.2763461223677816 -0.24218075839326753 -0.1269214286481886 -0.07980309500141376 1.0
0.26118637479463125 0.15982145793634508 0.4004588463668087 -0.23230385160914924 0.39728496703336486 -0.4070435511929978 -0.32721134712499556 0.24442136794917949 -0.05323783231977693 0.38422982692310836 0.14336995850588968 -0.03965786371399485 0.17024401857051769 1.0
0.2771857681462536 -0.5275745194049273 -0.13727088339926338 0.10467296857499425 -0.4004880806411203 -0.4672314194600366 -0.09941446854284361 -0.1974687591256468 0.3286523311803532 0.0948419564273638 0.18136067434891998 0.03187309168709501 -0.19116867294760384 1.0
0.10332737077866416 0.22671634582774977 0.38568946004778076 0.35885204854405117 0.3477668826395806 -0.21041788387446148 0.3488082164711315 -0.1730053663157079 -0.08554081377215629 0.2081154713222818 0.3362420257672867 -0.009392686771169853 -0.4240286296914859 1.0
0.3343724650273988 0.39805166633309946 -0.28699306617214054 -0.37825656400948204 -0.2978355775023738 0.18860387691013777 -0.10009827020331753 -0.44488829091287857 0.15308898571209237 -0.005109032947877456 -0.2785406252961374 0.25957541562523384 -0.06047770259869806 1.0
