20 10
0.17826370649342044 0.4068162338513052 0.013487177414494048 0.3101531876601344 0.20284376196873613 0.2988965151284691 -0.18190619181358475 0.6255327196050872 0.38892147449504294 -0.01483311451742383 1.0
-0.49143321198612294 -0.4137543071871044 -0.15041732687455758 0.3365382971256589 0.2543828050423568 -0.16279030041108491 -0.4327695850890121 -0.08100847130949075 -0.3527020503059175 -0.20483031485508355 1.0
0.3315171849893043 0.1100127586527553 -0.024944261498285495 0.2788925032591071 -0.18004933439126591 0.4794479998792807 0.43094798785019944 -0.21721459767502063 0.11733395853044863 -0.5391071781491037 1.0
0.465437467560512 0.03784148872793223 0.06536211076820102 0.2238202610507369 -0.2104206898436565 0.4854671764810378 -0.11815623470429759 -0.350775488052893 0.10646244311646218 -0.5470598084062627 1.0
-0.4460242468293556 0.22605064518265408 -0.5216185064688442 -0.19124168581872103 0.3083829809270057 -0.19438424029466425 0.31345914606151604 -0.1431696826055932 -0.3781285214464095 -0.21606378587960853 1.0
-0.4507112106150361 -0.4589841113603535 -0.1149395382311772 0.11199289023223762 0.3782971282641535 -0.08418241067138373 -0.17931969924362598 0.48657867354468387 -0.25772330647477537 0.27369403889807026 1.0
0.21222001369752833 0.14082016277613277 0.1723626071189101 0.49382504383682757 -0.2521486995105578 -0.046989943632020956 0.22205149475619868 -0.4962506826086358 0.24902302392955666 -0.4880463206102737 1.0
-0.4568249081272876 -0.327006608038958 0.2539990174700269 0.36494104768176466 -0.12251477764046036 -0.15833437687462332 -0.42764904847216584 0.45833515295644706 -0.2071122226152062 0.1036835231008835 1.0
0.5071111643396732 0.18245170358361218 0.19826700760122626 -0.13290014425781774 0.0032658989826307564 -0.41252074893707436 -0.024384784782549674 0.45594338521635236 0.49573704750236675 0.16780686904007716 1.0
0.44224662751296084 0.3394685052774168 -0.1709038863985058 -0.011389576092336123 -0.16240826607671252 -0.09032160523357428 -0.5040536272025026 0.3595885587988488 0.37899559186762466 -0.3135205047781006 1.0
0.09866696488757529 0.3784194531699343 -0.11477108079122143 0.41812366861868117 -0.03710153443511581 -0.5318344520335466 -0.4637014371493483 0.29021276121182893 -0.230395632235099 -0.15004905562006463 1.0
-0.5883821585757488 0.5834027451376106 -0.18024916635838983 -0.04052948212375587 0.26819322120092953 0.10792297422170806 -0.16758863022351558 -0.23928784858779895 0.32933368627530224 0.043988622402701 1.0
-0.356999038091938 -0.2620701250334663 0.051564436027012765 0.4840943895143771 -0.20191347518678907 0.4479086768610999 -0.24120596423553062 -0.3963912363429268 -0.07831971162168323 -0.32254166616742075 1.0
-0.04453173641061745 0.5255172474479941 -0.41127066335957124 0.2117237620349075 0.2766078838248162 0.2918067389202882 0.3018160166646864 0.410727328049369 -0.17099828240549478 -0.2391331937553323 1.0
-0.2721796173603453 -0.030568541227259435 0.030543398123480392 0.15028193453577335 -0.152626009201112 0.1548585606878557 -0.5652786922453752 0.6497166182164105 0.32030752833586806 -0.0996081927315904 1.0
-0.24698634679156356 0.416844363312229 0.42396866840606234 0.18004470882355578 -0.3660199344141195 0.40184019761610446 -0.1716715452976919 -0.2594674569151602 0.13392701278610028 -0.37801578020318 1.0
0.07443276614489794 -0.09257392112423808 0.4443634180332801 0.574890297052074 -0.17987769217389815 0.45469781239741924 -0.24719931912487508 -0.22179081422812752 0.24718285843379245 0.21777973419208754 1.0
0.13492785783364072 0.1566798678310101 0.5860880074289613 -0.4312274202747642 0.15359830490764595 0.4140448033879477 0.241727459622508 -0.3552293162209733 0.024328279531199874 0.21806470654743232 1.0
0.46388919902544207 -0.21875769686527452 -0.13049158079388468 0.42722974857573875 -0.40258688596152165 0.3018572229648062 -0.2261132467990555 -0.1800181010052348 -0.44556723582934643 -0.04626778411803338 1.0
0.18244933374493294 -0.14123445835133222 -0.24683562851464888 0.29450196470482487 -0.4595456043997556 0.07941233234480355 0.40174107671005344 0.4221784269201786 0.10969222102573946 0.47953566331705166 1.0
