30 10
0.27452346213146095 -0.06613251917483479 -0.1007707529154709 0.012208712833179586 0.470035610749424 -0.3808647142580459 0.5058359216514974 -0.3923290463249916 0.3237651279523281 -0.17132494591862932 1.0
-0.46063968693124674 0.19966992348889404 -0.18305279035088637 -0.1960612053515269 0.19510127999549218 -0.36662878179558817 -0.3995572101914286 0.2503215689073087 0.5130224248932661 0.1342186520657457 1.0
0.30487782140635117 -0.015730029518557183 -0.4026989321539947 0.39490049007675854 0.1575042734403719 -0.37383011235347685 -0.37311229888404934 0.1468133566371955 0.364568645274244 -0.36118618152985854 1.0
-0.026891337413364177 0.052579212516707594 0.41741526623753683 -0.32413390325399527 0.36316760459977565 0.5194870469639726 0.14436206867798312 0.42322004513241734 -0.1076194752492459 -0.32236458356112346 1.0
0.042546726024115154 -0.18755609954836105 0.23279148436836783 0.37718564857744974 -0.4459950885050271 0.09235283431569333 0.5466853529638699 0.268256072111764 0.2391363762028464 0.36207531007978627 1.0
0.3577223795907055 0.3436570110559276 -0.05301674863707967 0.28408753804463277 -0.31739649940692144 0.27228587284111416 -0.530138650271314 -0.3568531976827299 0.1683661943510613 -0.24248618515496229 1.0
0.4343701403246836 -0.20917625167419893 0.4349302560202425 0.2541965363467424 -0.3965395497638201 0.4160196925876202 0.06918128301042194 0.4121980373199952 0.016829380735493466 0.09216925270596901 1.0
-0.09219342977654875 -0.44994239868164937 -0.3929270589329772 -0.06368286185213977 0.1323976288593033 -0.22007431986332696 0.2985233157695686 0.45711421086075166 -0.3336739193214128 0.3939991550551249 1.0
-0.12699648908102443 -0.17214716903028185 -0.40221187887850157 -0.2951798484210288 0.09031628846892456 -0.5063125211134338 0.2082804336086955 0.19161806789690483 -0.5966188916582004 0.06906503949064902 1.0
0.10311793408585242 -0.0007071030996263625 -0.06610747105502959 -0.23011756643303552 -0.2426634855196071 0.7109940277521271 0.0520761422969827 0.18651458866040227 -0.040922282526049354 0.5731226529061336 1.0
0.437697406498397 0.4422331870958836 -0.3473587349326999 0.4460410155235955 0.056077465678910796 0.32042658726495765 -0.38195159203267354 0.02675376690255372 0.1990482511643822 0.034630064071875175 1.0
-0.31131373938367085 -0.2938931371027433 0.128882476553249 0.48227628618288976 -0.4149130405739939 0.21191501017143893 -0.16123364563478804 0.1223030360369279 0.3483211846194108 -0.43378185660592433 1.0
-0.44335113714108465 -0.44316745157497706 0.33577858615994116 -0.4165163245454675 -0.199456418154959 0.04608299378354258 -0.30541595850589975 -0.19773576108225233 -0.33063234655321294 0.19289032883069693 1.0
0.07373038290107518 -0.13537882388995062 -0.15989133093088242 0.36785634243118803 0.19875115515297986 -0.030781682467061255 -0.6697384356070782 0.5073727201805951 -0.049002394189185415 -0.25792530063264874 1.0
0.2485197860080658 -0.21981758584895267 -0.49633254615248895 -0.17703465988908404 -0.3014852251168588 0.5275360613754462 -0.3457129615166007 0.14231332437708144 0.04523885026275383 -0.31816057753526766 1.0
0.40139351391579076 -0.05828687942864349 0.5042161855509519 0.22618579372107392 0.5080757876491697 -0.23186861964870226 -0.17966384606468294 -0.05270055225896015 0.24313427631448217 -0.35216065472562597 1.0
0.16568473759424174 0.16276188908975522 -0.2903046309717546 -0.31776351859845897 -0.31415785544803804 0.24426843786423894 0.5122990688649378 -0.26129435810814927 0.5175111070254399 0.0624632000658597 1.0
0.10957319075419569 -0.31277041691770024 0.3778822504687144 0.19895994929944255 0.4211159882389607 -0.4085912403395811 -0.06846031129929211 0.2635464996691368 -0.29349224258526285 0.4508010427262174 1.0
0.1896170182105032 -0.35040990165643077 0.4690992116674329 -0.14721424202128408 -0.14352518332681805 -0.1903722690783625 -0.0646475836115261 -0.4543347587793714 0.41675534052222923 0.3980034016769467 1.0
-0.46085532731214757 -0.09754093442130934 0.27065912677507675 -0.3156808611105603 0.5424774784060808 0.0014712220269559818 0.13542650943968867 0.37028493197883516 -0.390326775214324 -0.0556518067200393 1.0
0.5411437330200165 -0.17909573124695 -0.4578079059236772 0.4178046970656874 0.10867780701849188 -0.03565391323377856 0.17967413887387837 0.42692899614603147 0.1774087672709043 0.17841590103958796 1.0
0.4479921858713019 -0.16864599627947846 0.5313172679678814 -0.3826901777457815 0.4103394644126589 -0.047904859826803065 -0.19307746632145462 -0.1373281389028962 -0.07711524599153025 -0.3306866786003491 1.0
0.018457100491868203 0.22516269237218392 -0.4570813906173686 0.2699963679971181 0.2139302372334036 0.32079032657630047 0.5253772483461205 -0.3413030793843366 0.17679030449385866 0.30773888957544276 1.0
0.23340350030761753 -0.012356149113975146 -0.42136495624241255 0.23114028167579642 0.1955764956572688 0.23177047022796401 -0.2529910212398521 -0.6115679248252319 0.1892509484734417 -0.3854769175145224 1.0
-0.08731980322896404 -0.08169649722132499 -0.5424487522852983 0.37959243194458947 -0.37718285493082276 -0.16885445244120048 0.21210653705380747 -0.1178817676841116 -0.19810606602191275 0.5276834574717922 1.0
0.18615596376371163 -0.4339390509741597 0.40681451643563427 0.4209975873917776 -0.2950271886591519 -0.23185542622177222 0.3231643593007217 -0.315573697589967 -0.22644566274266012 0.19546932546560392 1.0
0.004965240123510978 -0.36235995470569976 -0.3098230144320821 -0.3681951655162053 -0.1368314565867744 -0.03885095598222614 0.1101618485184238 0.24291312351408717 -0.5577371966877823 -0.4844245928201909 1.0
0.010004282284513067 0.483873102207878 -0.5271806190201567 -0.11652461270278952 -0.17182491841930367 -0.1767729266660868 0.43739854365506425 0.4040957732527217 -0.0765373589246397 0.23027815225145887 1.0
0.10563450728647394 -0.2445934015629862 0.43276109700504517 0.09537246386909042 -0.45634312469194027 0.2189449343379269 0.23867263089175295 0.41850163516136923 -0.43647611443963324 -0.23201674781150416 1.0
-0.40687232362328973 -0.03841186911856777 -0.5858289784356727 0.16686158863433567 -0.1320029466894452 0.13581017203019316 0.4407586570375598 0.12432254480638313 0.30286345124644326 0.35301744869125457 1.0
