60 30
-0.0010454331540379412 -0.11946507777702818 -0.18966729389126316 -0.17911842990246216 -0.33439565928317244 -0.05780887290624024 0.10784623852666973 -0.09977378759326501 -0.11502218034772747 0.2827642051953033 0.025940707268818072 -0.24642437099207853 0.20321288980238245 -0.07467429979185725 -0.18566543941669006 0.12794122415558362 -0.171773351926058 -0.06379759255895448 -0.015897354181392157 -0.29760510413012803 0.03729173219081669 -0.1625448667668474 0.05376159176187455 0.06757160298610561 0.2766251106288303 -0.16762796904986735 -0.2742974967247437 -0.3114122659573992 -0.3026755412720693 -0.05010757684802853 1.0
0.1224592240357054 -0.22407119353286462 0.11472680438785626 0.29293048859751464 -0.0625235437694024 -0.2971984690579099 -0.25050494188455136 0.2675919189924231 0.02844148317503855 0.26624132122216554 0.09888012528648243 0.07420056479591418 -0.2595388765271733 -0.29752236409834787 0.13223585537590027 -0.09360317805055657 -0.13419807656766888 -0.21738130038041728 0.23702413947018555 -0.09518561849035792 0.04760672437898954 0.046633249089285324 -0.20455608841992834 0.23611217826122194 -0.2313028953486934 -0.016388137170406526 -0.13683614928946872 -0.1158031890872328 -0.08712806543377455 0.11871687488240097 1.0
-0.14443003770939164 -0.13018847727847285 -0.08626913177507643 -0.015918196333866624 0.1014956046751417 0.028837114751704862 0.10746712172936272 -0.1582315900382305 0.28052546099188475 0.3241919523062086 -0.024120874801520368 0.05570001554918553 0.05925131743208706 0.15598412448591029 -0.09543981048746704 -0.21234533227452587 -0.24576543008863752 0.2945511245421041 0.2614486075658428 0.2507541158101053 0.13214955159166344 0.01911154555226097 -0.021492539029395512 0.20741421407260835 -0.3098009031602008 -0.024190878901159948 0.3404063067313321 -0.005021977833015749 -0.1427265353834907 0.2543930034096121 1.0
0.317191403177451 -0.0019431672647947766 0.2824355457157411 -0.3098510235905754 0.027561459812040674 -0.1646475056972432 -0.018597545458147992 -0.24500273107985912 0.09196633445629379 0.3343813371619305 -0.034856741413741454 -0.15049713057052158 -0.14193465558015872 -0.2264851887202507 -0.1687853387885407 -0.24011760599543852 -0.1091231362717356 -0.037063248566829854 0.09404479733814626 0.06124371238879563 -0.015098570453887473 0.021155398487637617 -0.2338081891501962 -0.33568931004003283 -0.010882048339458602 -0.0577311475937928 -0.030359771169951782 0.2808826100971656 0.0053193109459505694 0.23758467903961086 1.0
0.20981109476406487 0.09416750663391799 -0.1488240297790671 -0.08058232191417326 -0.07860111002992133 -0.27798519576950875 0.05184327178219101 -0.26028599543860903 0.04061643837966733 0.2522381255206666 -0.32289323462087216 0.23521035853685246 -0.18362805645228017 -0.23461838507372376 0.20721540169281372 0.13124979157154057 -0.06174311450740348 0.02858394445588177 0.23785153391316807 0.12689349995399968 -0.21488046222270077 0.25009671480245316 -0.08296869539995098 0.18187322548582885 -0.05696560470708122 0.04379134484484289 0.08631214744487845 0.30095386685171116 -0.2159064290382409 0.12248333824711699 1.0
0.14826823031374292 0.22770760303964221 -0.05769875294357387 -0.15417089609831203 -0.061435299409929735 0.18558647424686933 0.2007880172277571 0.1445561360278504 -0.24429149082820914 0.14653797934044022 0.15698512284519117 -0.23161734024240058 0.2420602979650951 -0.21676985056925321 -0.162390850387713 -0.274099180976264 -0.04571377200273916 -0.17289504633096625 -0.26139624961433605 -0.0552674688765554 -0.2721565251818795 -0.030204855966909708 0.006891733063212044 0.05151536007395092 0.15673972215939322 -0.2992072622626818 0.17633131565726712 0.26461521546876166 0.12529765537020773 0.14546251051748116 1.0
0.08126078034924696 0.15397710381091473 -0.2700651109403255 0.1490337505126884 0.11862738005119201 -0.20424908489398066 -0.19702517597096875 0.04308191396495877 0.03765069659629639 -0.08144502310715329 -0.023167241471928376 -0.3110509576245913 -0.27373717742250564 -0.1303017203514635 -0.09115393928849756 -0.1177109065203475 0.27015251102840493 0.0861954308058267 0.024121463724363832 -0.3213198712104703 -0.28655530783396793 0.09984843421722345 0.005344254164393324 0.009958496722345639 0.12828574934497955 -0.3261310270036964 -0.055857745670837976 -0.09715139548996293 0.2911991266975489 0.2490678980941459 1.0
0.17917514041000912 -0.2916252039853482 -0.09476398132286593 -0.12585779789775758 -0.26862343825488516 -0.03805258670198828 0.08381323452126929 -0.15090719530956404 -0.2481223092641792 -0.13674943803499964 -0.1013358124369051 -0.12794580233027317 -0.26494447921917613 0.2133490213637639 -0.27154957767928717 -0.019789441564735135 -0.2595567185044806 0.14813168390025994 0.005859608451764673 -0.3035963710621895 -0.07134352430353431 -0.028474761570469805 -0.19290545463574285 0.1977415308617027 0.2556189920280748 -0.26685705090011413 -0.06950414716719515 -0.01378177517648014 -0.22926589702919534 -0.002827414425095816 1.0
-0.06832790905378855 0.3038365614127084 0.10037425633503826 -0.3053397182022814 0.2730554465851102 -0.10455337368134772 0.17153444817814825 0.21458426728072372 -0.1257197331846475 0.10746544862529757 -0.21648428993895108 0.04968715685641508 0.06606147787829554 0.047377575851303685 -0.12479840418027673 0.11446535349785207 0.19611190517232327 0.16618277014123137 -0.11120174683679988 -0.273531301483824 -0.006348085663086708 0.25296182183574717 -0.13056273913159314 -0.11376552993896942 -0.1406671741313903 -0.26997936580089005 0.24067242374512682 0.21464321490520158 -0.005339280876411953 0.287734867055005 1.0
0.18236066621175415 -0.32780194637663274 -0.2351770885539696 0.14454226540466883 -0.014078275624621025 -0.202728207866406 -0.3289013650036834 0.23231917970236415 0.3047129479423174 -0.12130986917236698 0.18451335608749364 -0.2871703510148175 -0.024859844328804535 -0.07296951576346909 0.17746640865397487 0.004517855344292844 -0.07911512713238815 0.27908069446946066 0.21871844994884274 0.11596456085980861 -0.11693084184660182 0.015599929806641316 -0.11789858881846602 0.0904279024355254 0.04624744063708836 -0.06815613273704269 0.1140140385753894 -0.19645919570590342 0.2083317215323163 -0.18682427258061565 1.0
0.2156590954756727 -0.09099827901054507 0.1546860592953311 -0.10552428548596389 -0.25253261563468204 -0.2544307435457849 -0.029021453214064376 -0.14585997451634058 -0.2812349112905855 -0.014696858641963267 0.17849973704673455 -0.2700938492639 -0.2225922934771712 -0.2742688077634301 0.25440551218740654 -0.14494956059222447 -0.11615752998454369 0.20149958062501383 -0.08309567527474426 -0.03606728213325689 0.11780028618099458 -0.07118928382049691 -0.13799132211375995 0.07210503059755526 0.24744546565122194 -0.19202096858454018 -0.07679906862042173 0.20591666031391914 0.1819728448958264 0.2826586274531178 1.0
0.049118489635563506 0.17413432600885936 -0.08634847169774952 -0.1419460831971663 0.03312669264521253 -0.33488530184877574 -0.2517921984061408 -0.1221414512836499 -0.069130381104151 0.2570711395100443 -0.17205700623669645 -0.13118805286420332 -0.005672791118235437 -0.17323044262598003 -0.20898152220567515 -0.1908389472558834 0.21330433450209055 -0.18262244629319296 0.12070231384107773 -0.2620517521867233 -0.035316109293672834 0.24059002048203224 0.01629223545551398 -0.29925512225168055 0.21146132737351514 0.23013974458488606 -0.20767958338887446 -0.18220844890347337 -0.09447502489905268 0.16219758357544037 1.0
-0.22820397034968637 0.20582382921175751 -0.06626322585485424 -0.23068942400626288 0.2442601988911913 -0.11444423653174327 -0.24520955285939408 -0.20048747124130403 -0.20110508078998138 0.2648736302233902 0.1496936005905341 0.20195417682121922 -0.24562672170179078 0.15333003429210218 -0.10851009717602042 -0.04428750448811001 -0.16531417474688603 -0.038858259253862874 -0.2267886092222156 0.15571446777438772 -0.042732803453082564 -0.236224724287293 -0.003358675018599774 -0.19649245446065822 -0.060172788815261585 0.2460569000530535 -0.19084592222722277 0.026036308750666495 -0.2236824964054696 -0.22677734194990518 1.0
0.04020817328065877 -0.011157036641107735 -0.21574235870562952 -0.11946296655100695 -0.0030837933895115402 0.32015853983573056 0.1754577724600152 0.23258141583545475 -0.1300691478317397 -0.18588936546489804 0.16303774775698096 -0.02233264624208898 -0.3266967986835271 -0.1866786957026629 0.13546492505674002 -0.19678712804787907 -0.004816565238416003 -0.002491410742625092 -0.05889082433641374 -0.306348677627808 -0.19318028101370918 -0.28874553604617814 0.18621312417949096 0.03692006592856397 -0.2928126573103018 -0.14061506844766455 -0.09729184643599254 0.013565766955134053 0.27060284617852914 0.17429288379303665 1.0
-0.26782375997775804 0.17993053824597385 -0.04760506161135534 0.179826657325814 0.0858141396856784 -0.08113184251253208 -0.20759802986357992 0.23427577073859676 -0.24531743027767397 0.06276698582286848 0.05575547354280102 0.12195220159629998 0.26477961614880563 -0.11480119989223168 -0.2532436564728069 -0.11356141069170002 0.1358165866945539 0.2908206417874979 0.28588105033998584 0.023896463881483285 -0.25692653334589516 -0.22974299617390423 -0.18507073292109627 -0.0332797475682039 0.14992962797779855 0.17427962862143465 0.18518184176244118 0.04888562947828923 0.27346455444831347 0.056166859173816454 1.0
-0.02472468582223503 -0.2716231856947142 -0.21770468433152193 0.1157925436939902 0.0016813490709242556 0.2808039849044094 -0.19212532291252993 0.15784685148445718 0.20456340518660018 -0.21019435988640278 -0.19009288428089838 -0.13395276958343766 -0.2049725516324412 -0.1358111101510219 -0.06002467046894022 -0.12139598764388858 0.2700756267110493 -0.21398734053933963 -0.22306773594472384 -0.07693341302098756 0.008688027224842135 -0.20889253396817167 0.26688355806765995 -0.27777492619009553 -0.2218301425243025 -0.0038025474908150265 0.1375720107810633 0.11507533011408465 -0.17527684633304424 0.1630945186859385 1.0
-0.001737886953867116 0.26551833416078147 0.20123347050973003 -0.2339398313959806 -0.22193334121355773 0.2476227574789622 -0.05379765075265172 0.03273252597096846 0.19811882504411885 -0.21594924843513677 0.2597831289438938 0.2515490693448683 0.2443289592508363 -0.1465838772604382 0.23129896017940915 -0.005592525791865923 0.23088498362639756 0.10608302000659342 0.07558646896792985 -0.23595225692463892 0.024275884235419428 -0.15973027412165877 0.20599206770587966 -0.14654073027836856 -0.1877605671819544 -0.15833955633567617 0.2166627535295534 0.07095046107559742 -0.0744945412216518 -0.18591401781157021 1.0
0.2153745404890624 0.01565111998910671 -0.010648809741184373 0.02596614603273073 0.0811594658882247 0.08130069674172935 -0.20918968570370713 0.25165940769464007 0.1969397972782454 0.2147899450634459 -0.07116590535567922 -0.14572330229795324 0.14506784422300076 -0.18492470114454096 -0.13353212457571256 0.08655125086420108 -0.2741870647618815 -0.08359525525932164 0.2507118636414519 -0.2609321217255385 -0.2760190202014541 0.1733281698825178 -0.2697803659475406 -0.23872524209670445 -0.2116271936721697 0.23953474342593417 0.03387046951382725 0.17289437149757314 0.12064613805398328 -0.20890412676382517 1.0
-0.21994483785906704 -0.2033796368074393 -0.040343872877483575 -0.298887686073375 0.27773930875001757 -0.08187169929050017 0.1284033717200955 -0.2711234405899378 0.1514452894484561 0.015539683806814046 0.1675176321505747 -0.009091978135130617 -0.19638108402126064 0.1827422408632542 0.24364194988752666 -0.026260540218295436 0.10527760095663818 -0.27169189034453073 -0.08222966995490492 0.07981698266332048 -0.30011998455943284 -0.2319700668817737 -0.2755699542502382 0.10300422901269879 -0.26229216015497203 -0.09788780880165009 -0.19094517643035427 0.07099535350729436 0.09181588225085328 0.0731843414076571 1.0
0.10306688148881867 -0.07379005458793109 -0.3121306510056005 -0.029049592487672176 0.021405428195405748 -0.22167408126077756 0.03565207308903369 0.0592935992282648 -0.24652786757342549 -0.18936685110279655 -0.17410154968907962 -0.2798847412525896 -0.0496489698141529 -0.005032315928840942 0.013386853046499215 -0.1387619295462495 0.2926421693809955 -0.16704260404980156 -0.12446728909753285 0.015439651666531424 -0.2813246968851094 0.16391997376795361 0.20216810854126857 -0.24178988032821508 -0.018361591930437154 0.30868391217683117 -0.2938277743326941 0.22049156616583493 -0.19716998607804606 -0.0006331349926755722 1.0
0.26948420503718656 0.0752733292977157 0.17143497210415914 -0.08418915771851304 -0.269032629079914 0.20170156457428282 0.27834535515276365 0.2230097785289357 0.000313123116629013 0.17764738206655342 -0.2535738789794186 0.17765647395427037 -0.021252568520916292 -0.07146473428833124 -0.1917944873244333 -0.22925114986391928 0.28831057997881904 0.20684362913270848 0.08192514281519922 -0.24218365580374046 0.2054456675489017 -0.13742264398787193 -0.16554615441675352 0.26295724700061684 -0.027910618485269635 0.1501181033064619 -0.03566450740162511 -0.07419274596055121 -0.15303949210163692 -0.14217453323432663 1.0
0.2184747294364336 -0.27749318443738935 -0.17241178133889606 0.11380533931289985 -0.11774151793114279 0.26276441216503715 0.21154760203101436 0.1462227936349286 0.09515690635422666 0.21811650420992792 -0.1762760071949738 0.20421094459530761 -0.16916406776655293 0.2551067485892434 -0.17579209983302702 0.01797219330325387 0.08640576487945711 0.0400096306878448 -0.18402607855398606 0.18955025765838446 -0.028755558178918526 0.15369370435482 -0.1788307593394544 0.11269564616823115 -0.046066257422142765 -0.0731629661374745 -0.2090233222037582 0.22591098568137954 -0.27527681659222747 -0.32132629885002917 1.0
0.24783797547561617 0.05616840742949806 -0.22076403193956284 0.20341760336636533 -0.13219855862038907 -0.25838539791273885 -0.1390604234935704 -0.3005702046697655 -0.09579203870639692 -0.1322344928299185 -0.17175057397261356 -0.22043208336690065 0.2791746865714318 -0.3137553195011259 -0.02371448960765959 0.05759972813258756 0.1867644023385152 -0.11919789315202396 0.17225687955601085 0.10011380700490263 0.09042466872005572 0.005351624343881876 -0.17677319165492647 -0.19602593424670192 0.3053308079260077 -0.08214047495662655 0.21809830656155305 0.15613809191603042 0.13366066870435056 -0.0996243510111008 1.0
0.24636652568454945 -0.06675632456386763 -0.03882310590819393 -0.16951822389374688 -0.06419869854487638 0.20270269617830744 -0.07746545646024401 -0.1990909941367739 -0.2701904800537898 0.2962258701219755 -0.2646443499335365 -0.31336047852012655 -0.13440846948935617 0.29412368152800944 -0.2664936728971602 -0.06167293012676195 -0.09639639849740546 0.14791192227216612 -0.22132664204728353 0.10593931023864597 -0.20221261410950744 0.18653579341415574 -0.020575082220685176 -0.16563257737194903 0.1240354199086699 -0.0027663584774591174 0.13209847293857754 -0.16509194713139072 -0.09501508504427751 -0.2032906518090472 1.0
0.12153251071383098 -0.11341652099963219 0.214034817203619 -0.22905647218843883 0.08473209427465195 -0.28532037002838206 -0.278058946837767 0.31051429631186894 -0.006408787518336344 0.24976410519486217 0.07968572212137036 -0.11016122996797674 0.11126577507129759 0.15310124891903068 0.14881658072434367 -0.30169339182513405 -0.009180628186381072 0.2650686769691203 0.24079240829681794 0.042020531868599456 0.28524066145216104 0.17372549582373564 0.005248110591043073 0.12605679675349488 -0.13371231935174152 -0.24248352694652842 0.09405515374716211 0.025575194709405585 -0.13717342817823827 -0.13901256933283967 1.0
0.0073925850641623735 0.06677984194943792 -0.2995906264311581 -0.04562519896344669 0.14529808198891836 -0.04245925572643204 0.181886050873066 -0.1647399924348791 -0.1069989849463403 0.12284727911615344 -0.20112624685878774 -0.22075628208317027 -0.26679029906819846 0.2250136609573403 0.09628797878210418 -0.2619746033327166 -0.06064944143164168 -0.00769822606778516 0.2602381931668186 0.18263850203240733 -0.21888605482080167 -0.2372479522039734 -0.22806853585895445 0.024120602442478795 0.17391808732356986 0.01185431829858468 -0.24294511579034558 0.2886615350911754 0.016870867554505717 0.26541341891470654 1.0
-0.06673119140324602 -0.20142883958384547 -0.2530918099148887 -0.23380557761320997 0.16707926379131793 -0.1301801942539138 -0.08555660958883121 0.14961001629839477 0.22393148724325948 0.29595203055416763 -0.27719441824731456 -0.13540480813254765 -0.1811377633962654 -0.10220431269861598 0.026988285216579273 -0.29565716089518956 0.048785169611808836 -0.08054101780036776 0.2811189305705986 -0.04125215316640215 0.18366238294724385 -0.19899355724296067 -0.01662863420315593 -0.21914444047602627 0.1780119219425053 0.24346546711950845 0.19633397758456914 -0.21810275586138392 0.034664263137484885 0.08874947189382439 1.0
0.30773066162153884 -0.30235192346652107 -0.05743263803411182 -0.0716927915275997 -0.01083300754280928 -0.21298473059226553 -0.1472682218890802 -0.1087903207257969 -0.2040229236015837 0.06552157528299574 -0.06528840029728275 -0.09208477821372589 -0.23306461567783207 -0.28300223846825473 -0.09336401264038004 -0.22234717422171002 0.03304724935702145 -0.2904294423800549 0.24560966741530305 -0.24043933979528137 0.21822899193470685 -0.22299434857114048 -0.0781651897132197 0.06568482521226457 0.14916101463422202 0.09356296787281256 0.09925898800629322 -0.2174058710130714 0.2363088765345629 -0.1410842476164502 1.0
0.2041468219641713 0.2458582716968277 -0.06581748711909595 0.008060287345699453 0.007962451809960401 -0.24416095425546916 0.2675159826643943 0.2840173903085486 0.27617663052339647 0.0022821684915799506 -0.02113227953897545 -0.043759146531196794 -0.11733821337734268 -0.17346298172794197 -0.2113920347725546 -0.12966580105586625 0.2422927728610857 -0.18143613392330096 -0.10171237305468812 -0.1836060637164095 0.33414458970507555 -0.01322783135354253 0.17907557913420133 -0.2467369354032418 -0.031033081773017984 -0.038470024292821266 -0.1693373154901478 0.1811643817615705 0.20208779708669225 -0.22877987015710632 1.0
0.20826561632071636 0.17892924733774557 -0.3255082593112863 -0.2797289961038334 -0.0894638138978653 0.148209955896099 -0.04593983551180478 -0.07117132486514574 -0.17987101463883548 -0.0019444405108703085 0.034978601097740245 0.039199601982276455 -0.128951372265392 -0.09720567536470714 -0.22871623091326937 0.05846889873068253 0.13219602469799746 0.27157946785738696 -0.0546210717855018 -0.2910521150589151 -0.16646973127444414 -0.3127483347705214 0.07979663370520762 -0.0964660427995599 0.2924778845311047 0.06479099623464125 0.3145672879300244 0.23761843114370726 -0.1450188357482146 -0.005079160694765141 1.0
0.04240316832952451 0.20650342679335082 -0.0782152887691579 0.017334413310304525 0.13473204202468203 -0.2614720868120935 -0.17877000804259688 0.27596389605372074 -0.16697185284498786 -0.25819367548496425 0.21123735130419144 0.15177719435905326 -0.22747532332092119 -0.261758131723017 -0.17482614516039352 -0.011929651987316974 -0.09861870683351652 0.0860909511908431 -0.23551088140963136 -0.0599424490228286 -0.17837484705075546 0.20393450830181234 0.14815421366404008 0.03240880637016945 0.27532691590128033 -0.2815961010573869 0.023424125245008847 -0.2045199422307372 -0.2585060493130946 -0.06654838072568703 1.0
-0.2046799622338931 0.23556295082622222 0.021807972788164952 -0.15603844163149228 -0.00521237551130319 -0.060988163849827526 -0.2974637128536122 -0.04963673744825721 0.12982563628344945 0.3107462051472913 0.07438561152711053 -0.02524790742155044 0.13161859884376634 0.20121065492073364 0.19863267142486446 -0.14402434184628482 -0.2174449382250344 0.006430860970877575 -0.2691819038248043 0.10488114841725361 0.2556559075595562 -0.22516171899045317 -0.25678013914740155 -0.24630409345056484 -0.11065354717453674 -0.025410312615394146 0.19978909960436783 -0.019131932814418242 0.21543240613618334 -0.2692153408127968 1.0
-0.010220621416291941 -0.16756934677868537 -0.17512572302027193 0.24631357318900327 -0.2250392202255769 -0.2008678478920783 0.17603718940769536 0.1413368559988985 0.09879991251654476 0.1018571103155434 0.20382223988294362 -0.013551205344423318 0.051033137871234126 -0.30693590622021855 0.20608011856758726 -0.04496930703734888 -0.20751014892218653 0.23549843751209634 -0.2676590004593653 0.2718837807862616 0.16463895884862922 -0.04968026433597606 0.26664391260600984 -0.2312779685663954 -0.016305503515233206 0.09860091192303898 0.2948854479242943 0.17571502777932713 -0.09592409826358711 0.009211877182058001 1.0
-0.11473609949444695 -0.3164364570070196 0.06052780540187967 0.22908655460652158 -0.18099978063717465 -0.05531463294454746 0.29172014546781566 -0.18901463863902576 0.10794557202468216 -0.21563423592342418 0.2130884231788464 0.010334296535662906 0.25017092753744885 -0.3117719052382979 -0.27122299624325297 -0.055146150767599746 -0.03650339142917035 -0.308566654044786 0.18044925297794748 -0.020012395377881624 0.3049804305565836 0.062029177631333546 0.17423918589329002 0.10235934332428272 -0.1426300637470685 0.04016236068810554 -0.025039504338142313 -0.08126056464263715 0.17782395539993134 0.07644457362661138 1.0
-0.003951041239253459 0.2211293579056986 0.1407478643403868 -0.24016364729813355 0.18489235380892088 0.0038035227007473344 -0.29604550826261367 0.2679596186826754 -0.21071591154834907 0.005788915079008666 -0.015301167026125313 0.2346359358979652 -0.08701783556645197 0.08514763541686939 0.21386638647194595 -0.02019643099946579 0.15215421418940733 -0.003665521543644998 0.318402601378091 0.08059983901865166 -0.05487631426617877 -0.2699451959279727 0.0939093902469099 0.2554566017568813 -0.21403844232054964 0.2871970852887911 0.05255149052076483 -0.05010436798761815 0.31536220749720856 0.07239539942907093 1.0
-0.29455879985201866 -0.18989929076743026 -0.012541242853607068 -0.15172379888154242 -0.17028574377909625 -0.24718385203532017 0.13176146131702515 0.19497033983771278 0.19781013091971844 -0.2862614365516328 0.14525658171581518 -0.3043051441367203 -0.04373914310344776 -0.02006790540733904 -0.08285498564826556 0.0822095519475686 -0.00798207698218323 0.24683028080164898 0.060343187356696554 0.2667710280596452 -0.20929687875800534 0.28600794501646876 -0.047993820910938505 -0.25813185343010053 0.18352410480206113 -0.09624718109898277 0.22456228629152372 -0.16526186801786422 0.0794761825304058 0.021694893160319743 1.0
-0.2552738099300803 0.12488549675878673 0.17215185996993268 0.19401211255797798 0.2692539121630156 0.18281701640704856 -0.31146342978364633 0.3100087923985206 0.05631009928034891 -0.10944383071202222 0.159673599288172 0.05079184231172815 -0.025882907999450314 0.04510836384419089 -0.24625150994752235 -0.1533998660553483 0.10778256508870161 0.2960454645867801 -0.135479569858001 -0.05762132572135385 0.07760307210736553 0.22429434560761713 0.15578202411205225 0.2254304883752523 0.28400516646553087 -0.16153102819094678 0.1500300502089924 0.15423543493003092 0.1265697225998546 0.03750022478777149 1.0
0.10359695208148491 -0.19649624902384427 -0.10843685005296562 0.2860923277506308 0.25706440827613886 0.2782033786283311 -0.17460888921168127 -0.12373610259561922 0.020677420699277107 0.09531044750771124 0.25263284457598234 0.24065732244519325 -0.028754847901781653 -0.0442308120862759 -0.14478733442791128 -0.07816100108581493 -0.23801721563562353 -0.16450924324657856 -0.19262920895881458 -0.24199452539076652 0.0040615202501966 -0.22195587785575355 -0.23185841657996684 -0.01140360852336995 -0.23595599149992938 0.16492741800653468 -0.06614358467876652 -0.2827830500132635 -0.22901327457986684 0.0666935944270327 1.0
-0.05993571649671123 0.0029650132426835315 -0.20522826500900354 0.2326297269455926 -0.013701894200882 0.2942323527674193 0.2758618332344575 -0.11936751272545615 -0.23995206717303835 -0.1052767696199451 -0.179934470514987 -0.18368377888776286 0.1815959877800925 0.011812010063325534 0.21102570931811668 -0.0745262750040092 -0.013063311684181983 0.10339912740672083 0.2959044318768078 -0.2161216085153644 -0.1702340496462972 0.003090654557662677 0.25644775946767945 0.24181013206787264 0.30413821273995145 -0.01930185022622482 -0.15486516735136172 0.2773636964233062 -0.03310450061681074 0.10879698618487676 1.0
0.1459529890345474 -0.031697637783874605 0.005084930773784687 -0.1805666835313566 -0.018651227819155274 0.250668529443636 -0.2945249250427487 0.2105837321599234 0.1723961927444701 0.2888711577139996 -0.19265824895079475 0.024920434482898327 -0.0001926711613750072 0.13009710008576328 -0.27995010702699313 -0.043034756799232354 -0.14501080240320666 -0.25157339060344036 -0.2947668217712493 -0.19321614668199671 0.12809732579765482 0.1317419282074048 -0.11880296695227933 -0.24877989534437062 -0.18766957786635508 -0.2332853398153016 -0.02288713618649552 0.1032074205646845 0.08452116728256778 -0.27652516963237933 1.0
0.1934558343068376 -0.003660061132256495 -0.33087626295352146 0.16875524261975153 0.24551045250898454 -0.3424061125418691 -0.26822948388642315 0.26406900129431904 0.07956434183899938 -0.048500061720879485 0.02408374904424372 -0.05087613832972561 0.20501639300445887 0.1278174177720061 -0.2798775669733964 -0.2738613361673836 0.16685773130417764 0.09095193419986856 0.27622347213890813 0.133671461773912 -0.18042801433813271 -0.08444142291312588 -0.06612339141599978 -0.002826181126654584 -0.015247025007748119 0.05397695419837601 -0.23447291506577966 0.1721376424888377 -0.1062788335660763 -0.09197454763852221 1.0
-0.19959110402638777 0.2521738393126829 -0.21638459902881443 0.07763589155988687 0.13251713344815516 -0.07152811989403998 0.08635923735797091 -0.19029857354992272 -0.07976115486057554 -0.23326896697677973 -0.2265933057703504 0.2595146783393302 0.18216893984978585 0.017367411435534122 -0.008356335888958325 -0.007440568776093615 0.2917842948176263 0.04759490396608494 0.28135782720464875 -0.11061109700443048 -0.25094834539942995 -0.24795602547961437 0.05189805915361118 0.3047442964721569 -0.26425061025684043 0.0917640182962587 -0.2051623918284424 -0.004319504048475648 -0.16783556625806603 -0.1301706323003949 1.0
0.0190266465364198 0.21637640789350598 0.31556034217238016 0.13181393128029478 0.20085305974862364 0.05133675448851291 0.1293809655853184 0.06066462695737183 -0.1176395412632586 0.28099495524201606 -0.1276386986809263 -0.057399288522989554 -0.10042674178755781 -0.03835065762432628 -0.029463829643173307 -0.3177888696963202 -0.17418288575019245 0.15294210672125427 0.14912352789978864 0.025434457349991533 -0.18027031305629337 0.07792629857186907 -0.19577532807397566 0.28022595975310033 -0.2620924949437609 -0.19034978057417737 -0.049192964551706415 0.2127401220161577 0.3127284672442805 -0.25343271164536973 1.0
0.027983615318304733 -0.050913009200096636 -0.05759154768166225 -0.19318754819301825 0.12124890383610334 0.13352240527956605 0.08617755205105766 0.20404843945171516 -0.1973176837835539 -0.11566144929942568 0.03647663449261604 0.22546743614709608 -0.22127659505777755 0.16772700842102423 0.1335256711005173 -0.276377902354953 -0.24284156307106564 0.2329270234470204 0.04638554409263266 -0.20244665386551003 -0.2688831304630617 0.07672585404703641 -0.19587178990411255 0.25707389897082716 -0.28553950234569486 -0.24731859342446388 0.10856040981943858 0.15190443081569166 0.21820871372166076 -0.18555736494385086 1.0
0.05186390774140554 -0.07428118132364937 -0.116065439378248 -0.1528840647275517 -0.23578642273648945 -0.14116212069720505 -0.1486765344618838 0.15220357139354557 -0.11921351502705763 -0.09875473754289979 0.034886628127840436 0.014052152483102818 -0.12966075523626894 -0.044401291402052706 -0.300518065211111 -0.08788570565915849 0.24497476679025612 -0.1459131731126093 0.2868544908329729 -0.0540338223015313 -0.2132186429508538 -0.18516120860384158 0.1877347032030675 0.24750615587282093 -0.28818528596352005 -0.18292963126579964 0.2681713400670683 0.25234099767761936 0.2931395075574296 0.10565158439709621 1.0
-0.019566146176478737 -0.0529798277444413 0.1554401488981663 0.004809227879837589 -0.22619475796062635 0.31405517017216766 0.20989660807860244 0.012939841522356756 0.03633168194408295 0.23146540597243317 -0.0940234266485055 -0.2794363722618746 -0.2853555689221415 0.1708331111333189 -0.0705662635266554 -0.019248919285028084 0.08693590672233414 0.2611933356694187 0.21663678783805512 0.257361605082386 -0.08772430391527533 0.15850791009234508 -0.10182381270350004 0.2697757786803228 -0.26176077751859894 0.15506002641061103 -0.016582460009526716 0.246067692364274 0.13967241028112376 -0.20740044217793507 1.0
-0.31829269917571285 -0.05567445053930368 0.2928755627655899 -0.1822043655760787 0.2106711667232406 -0.12487127687768625 0.104209463975524 0.268672159307305 0.19081895235988097 0.16549109922106806 0.06125016989808704 -0.09061606871148302 0.03196689272568433 -0.08046031429894634 -0.051841740092678244 -0.25062280571788204 0.1943217577613434 -0.3294876679107025 -0.01917303408183608 0.07341388774715495 -0.109854461377615 -0.23868308250514061 -0.3339642656227339 -0.11835978918822988 -0.005743903260220071 -0.0061911095745808735 0.2586975219903255 0.0977383631219821 0.23935957539726954 0.06586616962077321 1.0
0.2715025635409269 -0.06919200088161508 0.05021636771477291 -0.1632887186052308 -0.09270964943596416 0.07142734569088843 0.34731706762838077 0.18760427564175594 -0.06255820104853738 0.1446413796619447 -0.06385430123834292 0.26539139800031813 -0.09299457649238087 -0.34665531950352446 0.07457199955842121 0.16276170300209777 -0.1142473796850277 -0.2714242937550324 0.011618524786582813 0.20853751293526662 -0.16403416685718106 0.07096751149953492 0.3647510090406991 -0.10969053460295757 0.10203134943155694 0.2818716725398774 -0.0014901020198115165 -0.07658740033927693 -0.13131392047792576 0.2055212062300413 1.0
0.15865131385240816 0.2298986661395125 -0.2786799686632184 -0.04228938556934184 -0.021436134554642914 0.12417530544954322 -0.3170831144779655 0.1280277941983156 -0.27611185628835466 0.23760545763352256 -0.2333772060214349 -0.07244290950303534 -0.08953892494419954 0.21901129258388555 -0.10519550327872125 0.03960619442003278 -0.2534910204237335 0.2532483710888697 -0.006532507265495796 0.20049693356522005 -0.2187375645370869 -0.1452257496911928 0.00508414130589244 -0.22673506029367066 0.190125098502077 0.006830951509099469 0.11912645982199445 -0.17962816891122288 -0.016061596315493688 -0.2770806941662317 1.0
0.13210472687493943 -0.2573716563346032 0.01773544004685136 0.26401227870540794 -0.22583900446807062 -0.09657870687409519 -0.1525124330535706 0.08114201309122525 -0.16237375997086645 0.3042623858189162 0.07500599467284096 0.22318581905398985 -0.09490349921699832 0.16792906803820412 0.09956564183549209 0.13523831330145786 0.0031848613161204312 -0.22413954630311814 -0.2397813680102849 -0.15269431510775802 0.16622925642267383 -0.269354863854047 -0.24590005515143604 -0.2389976892790563 0.242392103217961 0.032268625917618365 -0.18045794370359566 -0.201135543355413 0.12637275295897152 -0.13679194725146923 1.0
0.057973091977082086 -0.18469780129073166 0.2975305244202966 0.2374929126821816 0.055927905112611566 -0.21669092787153854 -0.055304867966252516 -0.14043747510355417 0.02386211838146638 -0.2366890249848217 0.09409012446320525 -0.29914663422361815 -0.06062508928906455 0.10832155007599058 0.231744525554503 -0.06551863014535043 -0.2686256557286161 0.2733553713569555 -0.10589040000236244 -0.04516826381582618 -0.23358492136375497 -0.30089160611147087 0.18262136960094896 -0.16154567681585832 0.2315705857101575 0.023169438419126925 -0.26120711937202407 -0.15596623550511068 -0.036581117914503386 0.06048764407966219 1.0
-0.16633433111725549 0.051611911449785615 -0.05937310653524116 -0.15279007082202606 -0.27871546770771455 0.04330383204034857 0.17940148940154174 -0.05898951797273471 0.2487347880594881 0.28331472784157846 -0.20604880746068763 0.2048544127906801 0.0655204061507373 -0.09177978367074345 -0.2677787267745774 0.19735528596892052 -0.12044704658232662 0.1906446869485327 0.21463306483038602 0.1657282139209763 -0.23759703813975508 -0.28314279007676263 0.1605407004613016 -0.033995549257199734 -0.24340605233725504 0.18914287229567597 -0.2744314742643306 -0.059748142947136915 0.012961727181698022 0.12505582091790798 1.0
-0.02283560715376739 0.248703872617988 -0.15286351712894994 0.08983807967752719 -0.14551291577456388 -0.2998627921909126 -0.1550082005605772 0.3317764829911062 -0.2671302019692757 0.2539280040219789 -0.012659606818350589 0.04227301269014192 0.09255481384733567 0.1588423534667817 0.13232358854587095 -0.21547753023391295 -0.13554675614657916 -0.15206038421466206 -0.10644003419968862 0.05572826248722516 -0.24718001851558408 0.27604718152934593 0.16184241962083581 -0.28588338657333673 0.0576576633834747 -0.15703267624601416 0.1577577089773833 -0.15795234309863107 0.1341468514348737 0.168822674834661 1.0
-0.08125866446928826 -0.26640821389183655 0.18777878515531057 -0.16300756562358001 -0.1345973944553547 -0.24051414973013974 0.07514547476290384 0.2774762749919092 0.03699354202692843 0.10189417261841414 0.32439095797897494 0.16555628904998002 0.12916628167120495 0.3004192434430268 -0.23406443740735916 -0.23818308708713576 0.08019288914230428 0.015386112010764424 0.25660833801912336 -0.10980983232169685 0.16303952297815114 0.24495046834632442 0.2491092452096399 0.010375814338563877 -0.15780052130959596 0.2221700053296366 0.1454295826349671 0.0934868280312829 -0.034621995574837534 0.0218514585166074 1.0
-0.2283640126444501 0.11917791952811414 0.22275570070751483 0.22615465285069417 -0.011331755296950578 -0.28130632869987093 0.1513779751769107 0.17305419990087642 0.12252676402921785 0.0657972797529816 0.279392685287831 0.2991585196764027 -0.21002442650113534 0.12446849996272902 0.2446149675226702 0.04249262985205872 -0.19446727148051088 -0.07709348138014849 -0.26047561738290714 0.15845629108712128 -0.028653996978083924 0.2064050195748352 -0.05479952715129036 -0.18471788764509064 0.1504746988869275 -0.10288657696547023 0.13928350166494446 -0.18007724520679147 -0.021500913631499 0.29971635230608423 1.0
-0.3141046192034405 0.1999067210641526 0.135518486768281 -0.09807033549026271 0.02600750030699996 -0.13420711280585804 -0.10776051074864954 -0.15557086370388215 -0.2743880660115123 -0.024349619363318968 0.10447823520308805 -0.053139607307504555 -0.05054630244906529 -0.27427282823655397 -0.29682740460847207 -0.16896670065988617 -0.3345423769184966 -0.30263280237552537 -0.2015017809632993 0.11973596016360258 -0.1911851043694704 -0.0123493418612456 -0.24129055406163658 -0.08419815949136907 -0.12117223425044224 0.23756631321106347 -0.07500479133686547 -0.042688751070080584 0.06231957836829746 -0.2278599173011828 1.0
0.01891053232923942 0.3434784085854667 0.01970973786695155 -0.2780596310997888 -0.05059138199426758 0.01727759374550615 -0.09063623664530066 0.13492668715009373 -0.15495351320476564 -0.14794271210004825 -0.1758972211178154 0.32665875610884054 0.2752488862268684 0.09908596692630192 0.35935858857938247 0.07477680673333124 0.11510099093548995 0.15205732941697367 0.005974441132774105 -0.2394195150583106 -0.16150164318238314 -0.2826916760733409 0.13287435111123555 -0.009499815129336779 -0.1660447416243398 0.0002539117415600083 -0.02060297188338661 0.3263511355060404 0.12868782509844223 0.04792023676521825 1.0
-0.13979225653139093 -0.24149017502168232 0.10169945911620538 0.13158527764980024 0.00931781024860166 0.2825703327304401 -0.009268306282403209 -0.2786665365469051 0.22075168364771988 0.29162027268183927 0.2629040286535178 0.25894281958474585 -0.17304843913829335 0.21237536658612524 0.28436073263993383 0.122238300602967 0.10990417163688143 -0.07261609893853598 -0.1840540885084726 0.017095852951021222 0.28338772782743143 -0.24613420710041187 -0.009310495276982383 -0.0028937442867294776 0.2458306351255371 0.04889686364968749 -0.050306682286464476 0.026311649230204407 0.09863534824875586 -0.1665292732204172 1.0
0.23706567117291946 -0.01239339740172826 -0.18133644247990385 -0.0829176397463704 -0.004069254212393372 -0.2909316045142891 -0.20531671684947134 -0.08842360103267226 -0.3063874240738729 -0.2555987095389231 0.19111503793531773 0.01693560406057064 -0.078740141699284 -0.0550830882066552 0.2812754464602545 0.20252301420705132 -0.2643796999347324 0.15841854349379808 -0.0423665845201298 -0.1488373057775421 0.2208151392337795 0.19003801271417103 0.0647691055956437 0.23891861532202235 -0.27364610625951974 0.03328604618097712 -0.09525763238645027 0.05726081565110035 -0.20055158061149342 -0.22409797702137854 1.0
0.22874483975071253 0.15152975091870655 -0.15256011737945824 -0.1796539899510744 0.06579715691568892 0.23185679085367197 0.1946798991019348 0.23369739956610514 0.19419911784958024 -0.051747651357543854 -0.16331811289761822 0.13553242888391245 -0.09020657117105313 -0.24894667480833405 -0.1810794004881606 0.27082145175965694 -0.2095917829126656 0.25680647924398126 0.05249487510119808 0.2732244123047133 0.1415611487188072 -0.1571656361248166 -0.27009735196112006 -0.19834609086137023 -0.15590422028861725 0.021200190542338567 0.10444381334764846 0.163032811891551 0.11355142295522758 -0.19345940247631732 1.0
