100 40
-0.226775665316229 -0.2608407547857351 -0.1765716805294901 0.2129364429125731 -0.1047133459304653 0.1412641449781169 0.06977077185505154 -0.06543395261194086 -0.11436417515394859 0.004228345394674561 -0.21432907768917475 -0.2633724508245989 0.02653661010976142 0.0010838263418854268 0.10580602568436362 -0.07049104951211117 0.24004926394671816 -0.10612282052050001 0.05947711902227041 0.17499663421412529 0.2527047072431359 0.17563103088628335 -0.2872094055094571 0.1691470879823525 0.2469616853270755 -0.16768774747472448 0.10337956427047237 -0.08557093732383073 0.23141460712538434 -0.03451794168935479 -0.07456688950988935 0.23457778230422063 0.0819458415830429 0.12110907963428424 -0.17021106768841832 -0.13118242837530997 0.07692762402909228 0.07936709990542333 -0.08689200579075758 -0.006603559971069422 1.0
0.21278611017281449 0.04459433099156847 0.15641456988335176 0.09902896384382534 -0.2235101622246372 0.050502203211823284 0.21701721118851044 -0.023190283064892084 -0.12364909119900869 -0.2394539040106032 -0.11285562906025803 -0.24473642901576306 -0.08681215001512621 0.16969478717795147 0.05238973465726581 0.23278444698629003 0.14257790336466492 -0.20213384532317624 -0.0011089558414254617 0.14925328308269947 0.1227085569939752 -0.020471875521065275 0.13727073860136008 0.2430246414762153 0.16875358628678827 0.14501798401107466 0.07436292768890433 -0.18303550513981112 -0.1584492784424897 0.13186777138942468 0.20571781484578813 -0.18121500883836034 -0.234751205123602 -0.09327887429373555 0.22394985969173067 -0.09798639854136593 0.0934535482624268 0.15342575967335503 0.16842899170141842 0.1120265358056811 1.0
0.11347114110680243 -0.17271127987615215 -0.02254492068853911 0.1738082453138372 -0.13913077591877487 0.1920930349893772 0.20894750346139104 -0.15528210095778083 -0.20700539433449022 -0.15919146212085383 0.04799952190677222 0.18239248912844044 0.024761937203596315 -0.1643421569471029 -0.05959873903428778 -0.00024493603755476915 0.15606703321898782 -0.24033480018860442 -0.26476106102615693 -0.17284245398832337 0.22067529501991834 0.022472148990733562 0.2261899167823591 -0.26244229583425843 0.27011515196720104 -0.2031886717670232 -0.08416732724611102 0.14067874900968966 0.1468010781077865 -0.038978987776160656 -0.08330724153152354 0.030560983444883717 -0.036673702584830374 -0.13593356213462301 -0.11923437747914738 -0.08591347648864488 0.23239003860498514 -0.08549731650874084 -0.1692736207259573 0.11324419017945898 1.0
-0.0010740633709043488 -0.18791587015137654 0.1811801516336399 -0.2493192269533135 0.19432559842296462 0.17116502574663284 -0.06714139399771485 -0.10347068666538542 0.053660581238495667 0.18641853641645578 -0.10595926967347911 0.128077449853661 -0.070546249971275 -0.1322792285566953 0.09815453377121461 -0.2654733824480229 0.0561256658399453 0.07422777742324413 0.09607299745889117 -0.2734290121211267 0.21702327746810338 -0.17150814798705524 -0.13235785052603807 0.16772349033749254 0.18817785353669117 0.2748101934603175 0.15519079238386851 0.1682931019750624 -0.17138911975050705 0.20563129198260313 -0.11994456467221286 0.0492893554634253 0.21140125078998193 -0.14766339927948968 0.15003645098217436 0.013654619221888752 -0.16975042476077543 -0.11966930189491275 0.1412904564078407 0.025635163518128015 1.0
0.21933996560819266 -0.25962896270519187 -0.14820904786691622 -0.07983117620868473 -0.03252202648261366 -0.16727935045920508 0.11449126230229024 0.08746681369996198 0.18316310148027837 0.26979316416070404 0.056271258377426116 0.058618013356442254 -0.28726713053535025 -0.09325107454131021 0.07620861670529515 0.2220680563218832 -0.18852334812462285 -0.0961847981286635 0.05268162903973749 0.02328406035906546 -0.14216543078153407 0.09897980663329685 -0.060149767420997084 0.18711533562225527 -0.03768413340481763 -0.20468389288590222 -0.1301101677797115 0.13169798848815137 0.10783884357864852 -0.16336958516566333 -0.16238779490412628 -0.22638088076918336 0.16071697686630376 0.07551695706844805 0.17768347745147 0.20162812256083434 -0.06619638916897956 -0.14525184226409818 -0.27682090809529375 0.17585115260722167 1.0
0.0950232596522179 0.13635757365486223 -0.18398006185050564 -0.12334892897152865 0.17865765332211792 0.16990903904320953 -0.08147768314090398 0.07103490108078223 -0.14232704295470328 -0.17634584760824834 -0.25679482238242446 0.06772029224268938 -0.1677878474879297 -0.18331287774390165 0.2508900356196482 -0.23036506567071113 0.21687451460970542 -0.10853618835150247 0.09371893810822261 -0.07967157828025764 0.18821906812442762 0.1678324337190536 -0.036307179157796604 -0.17104336138396287 -0.0446696445587127 0.1831609410684288 -0.18318055765275987 0.20761671644469942 -0.09456779027786597 -0.0078231444208487 0.2351671648854454 -0.06490407759878435 0.07861248725056981 -0.2591015543560576 0.19304330644734616 0.23446966420283777 0.12860288385859367 0.1391682303760474 0.028722354397681563 0.007919997095353865 1.0
-0.11432681162796679 -0.07519024109244585 -0.13363622964945576 0.038985378845888694 -0.07141030753248578 0.2626975341906842 -0.19338302646430144 -0.24946459149645409 0.1642536369121183 -0.042563279466156616 -0.14958231110975853 0.13646590094894448 -0.23109046734706057 0.1452568169789853 0.229852945713786 0.06652638221958758 -0.16332483475568424 0.20718459517154567 -0.004366320323790761 0.232254783376577 -0.2598922180390994 0.19196566997652834 0.021554196215189596 0.15228933230220995 0.1109699228686187 -0.15973865946089508 -0.21837555492023808 -0.15141036234201388 -0.16399191995770993 0.024310422913557762 -0.1668252787115925 -0.17393851611430622 -0.09524885813958063 0.01359855300021402 -0.1995906504130407 0.15557241666291255 0.20873116282930865 0.06099130494153506 0.11863885296337284 -0.0795125636990791 1.0
-0.21872183570351525 -0.06580690224066307 -0.2210904917939943 0.2215494259128918 0.23350640905558323 0.010832999924971127 -0.2244456102530089 -0.10043258229327683 -0.2117347801138458 -0.13825457680217365 0.005266032791681301 0.21632594816359868 0.01165879145301558 -0.04424677201744104 0.19254287791213862 0.1159357493685052 -0.12304316470661439 0.2084741277692736 0.07763133364087334 -0.05603534178767997 0.22723933562858523 0.08723941317115114 0.1908676001897473 0.14798767440154106 0.18319018245315738 -0.22000501969327954 -0.18251473793229217 0.10155880700936434 0.1285923402026651 -0.09454847188658277 -0.14008909816930035 0.18834025537533608 -0.1378933060331999 0.2064222704276748 0.036226082870125666 -0.10226447062922163 0.009036688253459229 -0.16841167689715522 0.2047198088314586 -0.19006939266372488 1.0
-0.2538258719772504 -0.1311432146594411 0.14449621348878106 -0.19794869149063166 -0.24922755929301746 0.05556890856488806 -0.08821551996156655 -0.19675080208519594 -0.20787725773806856 0.179921800858851 -0.001273196578165679 -0.11056769491970883 -0.1856476073676855 -0.1568994185426344 0.15404425262692517 -0.20934297241787983 0.19138103508917004 -0.2612466032737752 0.05367555933266592 0.04656895005919156 -0.026546706431253914 0.16287809480717316 0.01687955998236908 -0.09847423401804822 0.026597163402134645 0.09824192648264236 0.01848512335947248 -0.24219271777201026 0.16149233783758554 -0.06446496937166692 0.060667417630915085 -0.251013434575488 -0.2303366453427733 -0.06421697838410026 -0.14990796215785152 0.1465690840014153 0.18943836154308605 0.09073221132051515 0.20596553555490402 -0.17626393515132927 1.0
-0.013936235975276885 0.16694464681826385 -0.2616590462782968 -0.24543141906621338 -0.22064982221642057 0.11639395878303066 -0.008557832372216634 -0.05189883531507249 0.20830943261310028 0.07700387914760105 -0.2193454006696594 -0.005166628034856634 -0.0885365129325448 0.07940236554558397 0.08992223405006695 -0.0700652064983019 -0.23189869712982264 -0.13774902897067515 -0.2304622040389632 -0.1889822998218209 -0.18588618688578643 0.045428374556841775 -0.20546765197016906 -0.19156991002297077 -0.17242175553222688 0.06670331342279509 -0.21325060292277115 -0.19546892570127083 0.06029998906627792 -0.1660296702564832 0.007254094947251044 -0.23295186859244 0.1908455401420683 -0.017317257528033002 0.18815771971863646 -0.09318507666428999 0.24591154228840678 -0.06943988416943259 0.1463406549631949 0.07495230123868711 1.0
-0.1608455816781439 0.13854789751229057 -0.11588418066782366 0.1333067080153281 0.21566559784353256 0.061042643057075206 -0.12282603952459434 -0.01932732516509122 0.18389601755532675 0.23134328853276084 -0.1802585122334493 -0.0030791320142672892 -0.14195385803273153 -0.04701701503961415 0.18316237942540137 0.18417304505150445 0.12072987246706632 -0.09825962846384548 -0.23787748135942777 0.018348547314690166 0.10088190002266409 0.18441358531627716 0.01853959841985477 0.24833802646126402 -0.16316767692947484 0.06958646023291411 0.05998716345009712 -0.27320947751869545 -0.2448961679106635 0.0010085951204850114 -0.22582127471528676 0.10453325174235259 0.17434450691157957 0.14365458034654444 -0.2043198505084455 0.2359917147147467 -0.11066657135791057 -0.0497955351424773 0.18489373385144947 -0.17894910132670444 1.0
-0.16258658088594766 -0.13327550808456787 0.021333455407161663 0.042578688368897326 -0.0784468826543875 -0.19838489756446034 -0.05890950909363715 -0.25713479621636526 0.17899017053109925 0.022446530537846184 0.04247871784132126 -0.045993594056669924 -0.10665005616229961 -0.16259347467115481 -0.3195980915947812 0.14478163284359477 -0.2543433074395112 0.11257715455117358 -0.14782475282029078 -0.10644129548010686 0.23669010056989023 0.13332727224838517 0.24222842630970665 -0.14173372545229948 0.002168134713887358 0.009360252955388412 0.2221842710293062 0.13891020160053447 0.07923220480285625 -0.24042844055134305 -0.11615055028492914 0.10401679661125728 0.013157568433588365 0.01210341884290121 0.3054760385145811 0.29548717759357185 -0.0020481289870543976 -0.09496242643008138 -0.13133639399166655 0.1165523672717976 1.0
-0.20570319393705067 -0.16142047527884096 0.07249563798506173 0.04964385574420335 -0.10883506281279881 0.15635836078076418 0.16583449480340176 -0.04012992010651703 -0.10487643047438781 0.24844790432321331 -0.019618545931738698 -0.031011765786801145 -0.12839810979969293 0.1731023667614407 0.040331182804300786 0.2674133052418985 0.059894593470981194 0.09357382743634447 -0.27295114368288365 0.1583238238006567 0.19130254565261307 0.20907561394592325 0.172688201536733 -0.1685172492663551 -0.19087608992469873 -0.14541113643271605 0.15068206302271597 -0.01714142853039912 -0.17191929395882047 -0.01448216146869449 0.21580089477183095 0.27254855551659235 -0.16712662986324867 -0.08776372470235401 0.10925761833514301 0.1708069976439406 -0.2386810981808034 -0.05603619144978426 0.08845819413707806 0.19629036751597678 1.0
-0.036650095487459254 -0.016263619823864123 0.1347281716295354 -0.033815069515131344 0.2526710917506145 0.2067544896519503 -0.18005342347867062 -0.015671094364009163 -0.15465381939901882 -0.2536500547964871 0.0684552711248546 -0.036463723412287805 0.08652367231816499 -0.1913218764533848 0.050439685210114195 0.09027175016192208 -0.13219035765915216 -0.26082325098247466 0.12352490996556022 -0.11199000698834681 0.2361442954496201 -0.23637385833361896 0.008101320144215766 0.015595684025523892 0.016582165066031017 -0.07930299612107969 0.16357008523530364 -0.17808928544226657 -0.23767696738688024 0.011519506701485736 0.036571509872042024 -0.28007613246278995 -0.0857598775734086 -0.13102775231245223 0.23551737220083852 0.2513608739286245 -0.1809005980701806 0.13648062337176964 -0.24782832974101637 -0.09030662588315852 1.0
0.1398524541300709 0.15849112382469688 0.23811344601758266 0.16583547482139924 0.1557064378243898 -0.09440618479361021 0.02555221456461815 -0.1134349254434426 -0.04590534270568547 -0.14654985315359692 0.20488246229351095 -0.13328908536378437 0.19160622014553522 0.20121643396699032 0.2324859697050188 0.1664674477375413 0.2345920506442017 -0.18552965376970523 0.12675146194034387 -0.15263142367117866 0.14263345381554166 -0.06516157782321945 0.07080971140404284 0.2003913108482186 0.0664370510939401 0.22154433496734247 -0.17062777674730717 0.22890468181426749 0.20953981317864623 0.13283467876476876 -0.15535803187190678 0.16187793478529225 -0.14946007683807025 0.141829185582317 0.20284436560505478 -0.04828940330998433 0.08985615891644037 -0.11012757374993698 0.17385771679443288 0.017836410912981496 1.0
-0.22197086831945123 -0.13963211033509648 -0.02694585879538367 0.21632987208928792 0.027247848129582787 0.12185400865925969 -0.18591927938595376 -0.1969117701344955 -0.21196626155807785 -0.17047419429420219 -0.18578102516747885 -0.06483437358911684 -0.04655923348883644 0.17308772170252731 0.19380544634826605 -0.06437513630092465 -0.1946644663440378 0.21510022184954006 0.006958547197217374 -0.0654880156406645 -0.19572854985058746 -0.21283414718860327 -0.17480796242685287 -0.11932623161592082 -0.21042424578316593 -0.14219129205253922 0.006528999438311188 -0.15508557575311627 0.20766951529819316 0.14829997233589468 0.11732977662834966 0.19733506185813512 -0.14276624748634825 -0.2123596208915222 0.06920560268660958 -0.01817761426423727 -0.010783079329545876 0.18813893896379624 -0.15948651710045086 0.2310107586596124 1.0
-0.08280520303185342 0.24318022988549004 0.0005969272077874231 0.2744229263947173 0.1689284265830985 0.12909499394301316 -0.12909309721162004 -0.22496550787468228 0.09714628233433037 -0.15198820761152262 0.048552319165581954 0.2080211773993848 -0.15367351050883443 -0.017772423046693554 -0.1398103230244195 -0.22825898634697506 -0.06935097159668094 0.16674886608168218 0.003763114913968791 0.013757912440075022 -0.010062872856070543 -0.1968333821402 0.25539884303146854 0.07159833782190822 0.1505118952411339 0.007082399717161949 -0.14961044291913295 0.25096098989312476 0.1684142690540186 -0.08591156052296173 -0.2642562089146426 -0.06543087683083229 0.019036722233913842 0.19400812196554656 -0.030991566237898126 -0.2565127073351258 0.19554623325326836 -0.17156812104713798 -0.19292519732382313 -0.05361990729377491 1.0
-0.19766822641086546 0.1196956204186614 -0.2725043151005521 -0.23101488610095602 -0.16004937128502936 -0.09250097951552395 0.23055201647867016 -0.07961260157509165 -0.0853970293225015 0.18951405553544515 -0.07368215067442317 0.07450067980948194 -0.05445231370342811 0.12918569878302572 0.13843565921150605 -0.08989895049623114 -0.11416491534597242 -0.11583661369245929 -0.03301374506246678 0.09359497446845377 -0.024563884454801763 -0.012581864568905601 0.2630881076424775 -0.23451120036461923 0.052609737941502636 0.22872075447433704 0.24135347938664883 0.0008831055467133817 -0.13103650869116243 0.1926321451427124 -0.21768834511753724 0.19883151075638705 -0.20311680151308525 -0.18853674368245862 0.04151915661342919 0.08294166390959783 -0.18874682300547996 0.2686083262464266 0.10043835719069379 0.07172520541006047 1.0
0.06539547502429609 -0.2532737217340594 -0.039393568039267246 0.184531090565533 -0.007846699657065812 0.24272990607132439 0.15735813831798295 -0.24391210451691814 0.04224655533770962 0.26642715943869405 0.21061739860920292 -0.15801371581062526 -0.2060338627686711 -0.1534415911783005 -0.16896815152193115 -0.02830576012511857 0.10842359923917419 -0.01403274756371926 -0.1626091329718628 -0.25761422509380677 -0.08363822757423287 -0.09172843188373984 0.24987839301746353 0.06153519845275864 0.19464775643787013 0.09065361712124517 0.15280936199175152 0.23960647038579042 0.0838694421073071 -0.18212916335332258 0.05052026039362248 -0.2600011076172533 0.0787631370355011 0.03599867992041824 0.06752679354909574 0.06872628790477116 0.14667150747170468 0.18728388958202213 -0.1351931337285885 0.005303741115632165 1.0
0.20138345778994815 0.2041320370280745 0.06694262678901479 0.03260172230436215 -0.11731734145183018 0.03749150897053623 -0.12504434130662345 0.1399792717448077 0.02311975826209009 -0.27822287054900774 0.11831432174881355 -0.05748838388275423 0.12436550024978622 -0.08640472965499632 0.20973244240539188 0.2128747349458732 0.1552892685337769 -0.02234995047553941 0.2824595502939972 -0.007430983798006254 -0.22077601968689442 -0.08623665656206662 -0.20781289161675198 0.12387990268464359 -0.0019927700540846925 -0.1548471546406531 -0.20223822648078157 -0.10149841175169669 -0.11768378502735023 0.21547336709674667 -0.11839210139181074 -0.14131782619641162 0.26613750815775444 0.21914827439922535 -0.14689746113938038 -0.16314021912935844 -0.25561826402134447 0.06179093910301751 -0.09053265671131064 0.1460562667635691 1.0
-0.1343824959975389 0.17551346227917183 -0.06481880568409924 0.22232465625995512 0.2049196904575082 0.19821397595811843 -0.052285214582446275 0.22546769341772088 -0.2386795352931965 0.19440305789908938 -0.23959335324756587 -0.003791896385906284 -0.18382718829245512 -0.02000601145468524 0.18075027027808266 0.04827021951549864 0.05117441036743422 -0.18549163535232582 -0.1087330253338233 -0.0028288202940069257 -0.05335743472926686 -0.08548685616242106 -0.21970589365009446 -0.015325554076310477 -0.19022900305154528 0.06964045994561216 -0.16099667959179872 -0.2026093773315333 -0.2215988940041955 0.21306715282531685 0.21847789392058273 0.08345809125739329 -0.21983161455439373 0.010935233353566396 0.014435850784802601 -0.11404904180490744 0.22629712518974635 -0.009400842704523727 -0.11656609240722392 0.22362775814583394 1.0
0.05785585137333826 0.25010886952238676 0.16540591631501328 -0.13398276987331156 -0.23107782117465372 0.10466520657518638 0.05182918966595147 -0.011416166227098856 -0.04857334256438824 0.04678475430509827 0.049411488607506264 -0.19109348562537448 -0.02040995975077598 -0.0863925557137497 0.08201194698296219 -0.06366877550677184 0.19888075330721497 0.2537301314906508 0.16100209753275915 -0.06937667828329117 -0.10319201157140957 0.12534306628534042 -0.19334168256363332 0.23433007711050957 0.2149810242465167 -0.27586012456672515 0.15826893698540506 -0.0735372798840963 -0.20942782605550941 -0.165449265431102 -0.16215117625170233 -0.17971188608416575 0.02284745805165508 -0.15487119114369974 0.010201382599729292 0.24889833762319896 0.12010001433745729 -0.08936097361852201 0.20452111307698823 0.2697027675670669 1.0
-0.03043720006612422 0.06013174363257529 -0.21457287780104065 -0.1921490739591013 -0.251231294892902 0.11759026259337302 0.25632843849916986 0.2798387419468965 -0.02515580479091693 -0.07135123689474467 0.17143585572754363 0.1519964884735645 0.21242903888754164 0.004701815826031488 0.07778323239378364 0.258194323434769 -0.15863667908830503 -0.13735159653166187 0.2358566612514905 -0.10261882565851305 -0.11303591923723003 -0.011799768423962138 -0.2006843619327563 -0.2450166748938904 0.1068699966760197 0.020352953918448474 0.2045799021777582 0.10908446893708738 -0.22176261152144436 0.005338607163456914 -0.05904686148803578 0.10725562017338686 0.12859390547506602 0.2203894131392904 0.04607351442046385 -0.05582760160715995 0.06791859093238965 -0.2820922061217549 -0.06401026256549848 0.060199046086508425 1.0
-0.2631116815508084 -0.04279532039300854 -0.27238671747555376 -0.013703700174153547 -0.0708049224840428 -0.07807530189013462 0.1279095894279275 -0.16389097178270676 0.05667359541248165 0.2398953617155922 0.2231876889592302 0.20440406800034935 0.1458835145273622 0.19786874947325322 -0.013612934238547262 -0.17054455551228145 -0.2574847667466016 0.26621492820474457 0.0740557930133425 0.19439049611691805 -0.0014921095166398363 -0.21835863325218327 -0.028342670102160565 -0.1830399439456028 0.08465045487935859 0.020807203258304166 0.23425427756429545 0.10949684641479433 0.19225396682985327 -0.15077058505928287 -0.033211792029693536 -0.17331609578749085 0.04625713784580331 0.026333126685044086 -0.2005801910294987 -0.0414217886234552 -0.22911530798205548 -0.08517826463445201 -0.03435507567976003 -0.15725390505071132 1.0
-0.09976589027008138 0.0489871880421919 -0.2302552308549449 0.18957851559385094 -0.14633692647029287 -0.20322137553220274 -0.07326922813222586 -0.0173662789913611 0.2442366505912111 0.08890170351522872 0.23795804651101116 -0.04855173020266875 -0.25746488039188403 0.19286288664359388 0.09744775053479107 0.10779129750827154 0.23826630845587118 -0.13004502966638487 0.1495894221566389 0.24975294959209063 0.23677666387647786 0.015635982651412465 0.2591958478433442 -0.13354777297924464 -0.005059078856939055 -0.15666333180543274 0.23645770989610132 0.13422429524520377 0.12630405339651002 -0.27281080151229037 0.0941137617060613 0.049626114481630325 -0.005711147090287681 -0.17574909618423276 0.02373723449411002 -0.045346957810109216 0.024000763633595497 -0.0028898670693004906 -0.1266212965100372 0.17045748420580237 1.0
-0.12235871198352563 -0.2632823668830686 0.014085411346457211 0.06729094861049088 -0.18547422814928638 -0.14989139248994457 -0.060203223379227594 -0.11679927257092731 -0.22167874031544027 -0.23242852282947288 0.025675808028052527 0.19505013993797354 0.11533945779446957 0.22220638497845283 -0.017083540182934166 -0.16248251332656363 0.11692595117254105 -0.1394272763997322 0.20743858274203175 0.19373282709397055 -0.029378143421040896 -0.1169881181439844 0.11653358152938269 0.05605506036766812 0.22943896320476853 0.13731463390225138 -0.20635879430300882 -0.10751485913653291 -0.18560758663679797 -0.11766811485107509 -0.15456713872699385 -0.2431092838745268 -0.1538498316938654 -0.24725193228287606 -0.1607671335063599 0.22625655633465241 0.006369658854685555 -0.11602638641651775 -0.16835908635370697 0.006695614499791854 1.0
0.24600905148465702 0.0007949114807190907 -0.12535056742372247 -0.1736856814284156 -0.1792451914150076 0.2522460059386483 -0.17512854115417678 0.24196848753876257 0.16851030511523896 0.0787873992609023 -0.22132695511481265 0.21491865348918912 0.03626560399862438 0.15684398748632736 0.20387233926049203 -0.012150169789589674 -0.23464583486506063 0.11251223309462623 -0.16036078571957624 0.18267330109183333 0.06401976083953265 -0.02881907706326488 -0.23323316319319062 0.11295483038069123 -0.06814878270910957 0.108454250818109 -0.04569896661836195 0.16370154511098556 -0.1851660284537001 -0.204274215866498 -0.18500221401640676 0.021207779413825983 0.09145325450904744 0.03592903174659854 -0.22524601527438357 0.20619267594093246 0.10297237182243464 0.10518396732433209 -0.17821565556053134 0.003615237913768033 1.0
-0.0774530923201137 -0.10997414329115354 0.011713375362239067 -0.008367760025588162 -0.19347332664749045 0.19528256504527994 0.14668596457131192 0.2518738185985409 0.13402251292040282 -0.19647390452328625 -0.027741192742771023 -0.2552741160799841 -0.03454382506379121 -0.14909045065284932 0.179302783130742 -0.037439999818844744 0.12431493437048508 0.04903973696258193 0.07267181227799162 -0.15303296353872536 0.10991294578232008 -0.22274509628806585 -0.006466847137354628 0.07176978833910959 -0.2648843832281856 -0.19839071118591992 0.16001276801747674 0.09625696326797994 0.21055338012727923 -0.2549358418930577 -0.14858599792542748 -0.24478782665623444 -0.131473140817941 0.04021652615055703 -0.1964519651499253 0.10746563151519424 0.24246399561886062 0.13349936275679447 0.19066890770774506 0.1026133947117454 1.0
0.12271809391032128 0.1970079111069665 0.20518091308241596 0.09350843856643494 -0.04575590301908783 0.1431530311103539 -0.15410351608726458 -0.25201714968689976 -0.19705723034013561 -0.06542262224722098 0.2592642824233311 -0.21514310008656562 -0.186050638502865 -0.22422304258284242 0.028927338917696603 0.0333571243949177 0.02508366917071861 -0.03146685520409789 -0.07567364542649398 0.19356154796901442 0.04033427487567855 0.023060064799094504 0.26920387524627415 0.0132084747043239 -0.16386871770644074 -0.1297814327380291 -0.14353738460626794 0.15549952893229887 0.029022602554327415 0.24312695240467813 -0.027303054920842215 0.04227038696894571 0.2720407887330509 0.2259581460527793 0.06808657408289875 -0.116596444440789 -0.10628742728792573 -0.26515062380889964 0.14035100351576404 0.16372954187046956 1.0
-0.10421521928447539 -0.14671052821061847 -0.12989716683704858 0.003257011724197889 0.17032678893189043 -0.2304204607069819 0.08640468620481821 -0.10346626938091691 -0.22660746789690933 0.050077745988366194 -0.04535450369446026 -0.10385789351188611 -0.018135468981530692 -0.11575609120078277 -0.2010081980599133 0.2153414430511565 -0.05578507459111553 0.08109625937265026 0.2454059379528688 -0.03180479894293265 -0.11713471506410975 -0.047865659670913975 0.12039342709107573 0.2319678690953374 0.20151853611150392 0.24960350527018832 0.2335680291315044 -0.05849514727833061 -0.162544446982724 -0.13361875421462552 0.2226085663705324 0.04997687897393017 -0.2339768200836523 0.09159685891049389 0.19505936743077965 0.17722301626972173 -0.23793679812470947 -0.22844897803509967 0.15387193462177648 0.0756581064279851 1.0
0.2599851609910815 -0.048450389625992914 0.2645059575604367 -0.29614515472556613 -0.06903087964834856 0.11930548838309721 -0.10231277606203251 0.14594675055567172 -0.0625242681263575 -0.2271455926783753 -0.033156805399408795 0.08042583985390575 -0.18860629250835703 0.05873958510412453 -0.054750226291289075 0.030226092167081678 0.03233280062867233 -0.008124975639770837 0.22098342150472702 -0.006994117104982015 -0.292024996076232 -0.0059148615826212034 -0.05546464031909147 0.09626947425368573 0.200045709190256 -0.08375841649476097 0.18187137376245321 0.28753914265273883 -0.11897559101436418 -0.20846521737906157 0.07788482551407354 0.09327626355115773 0.23779420764225642 -0.035366927976724215 0.006395800199158692 0.23643098774860377 0.2732167817726653 0.19365777715473642 0.08262634611312007 0.009238754479045612 1.0
-0.22392162521257863 -0.06600708875574708 -0.1147127709521036 -0.08195738131869716 0.18244646405085202 -0.0804372911656776 -0.09895560229791413 -0.047325942876327236 -0.23690420413417645 -0.23761414677273743 -0.04896871851222817 0.0072051040747923975 0.039575930247625846 0.22224158455622262 -0.21153252871178632 0.21326271569039038 0.23268132365471822 0.17654893505090263 0.1847330318943289 0.11825681637879117 0.11123842836360942 -0.15965309392457117 0.01886905868176783 -0.1380561465671156 0.20034452431796612 0.025418270015489665 -0.11187794885472936 -0.19415715903383404 0.09541369669199834 0.1640194681390652 0.217645100168979 -0.22350133317966034 0.23427143108358667 -0.1196553787744126 -0.12477058087138253 0.1124401507151118 -0.13326205353365844 -0.13053248732720046 0.17896842055494078 -0.19584377592045962 1.0
-0.1814450425835405 0.22822802899017466 0.179552433169368 -0.22363555452703013 0.04219894594878056 0.22729282337646528 -0.17114264422270636 -0.14900731532789155 -0.028198852360444764 0.2706300373536751 -0.023673921444913704 -0.10692928691366445 -0.21103813181924752 -0.22535385908724148 0.13476960456100778 -0.20295170255234457 -0.13294805743258412 -0.20353763963892035 0.20724408546095668 -0.06742200532174808 -0.04894560184222218 -0.013954617190870345 -0.06266760638413978 -0.1895717519040681 0.1361965754162107 0.056552816823151816 -0.014245272367117522 -0.019876985157812114 -0.22951343486329498 -0.047436657276773146 0.10826409015559456 0.2591511582555604 -0.04486787218865152 0.02355534996331909 -0.01849758553269869 -0.18989094334109738 0.23560874868103435 0.25924636634783016 -0.024251835691567258 -0.14005216461173856 1.0
0.10623473811997464 0.20034195793554616 -0.13588203426684126 -0.00914517872340527 -0.16327070417370113 0.07699263352264137 0.0078038327799395514 -0.19731443416374558 0.023934766234424473 -0.13042596463739667 0.23433542817575323 0.09165011264525762 -0.24116517013343702 0.1955778177017053 -0.1202872514183783 0.07201092609555851 0.156259111471546 0.006389838171098162 -0.12730977111962619 -0.21341372054948243 -0.08986615698596963 -0.18953761396687507 -0.08432728094673198 -0.07788149399117926 0.06818284594989416 -0.08358305134320151 -0.23139321727499157 0.18389568004841098 -0.05791380844606718 -0.23230278025343187 -0.14035011144020199 0.08109994775907242 -0.24351327581968382 -0.25517468381173103 -0.0329422947747941 0.1078542132165583 -0.24520809599079207 -0.20155707556717337 -0.1842457243148981 -0.2523516833945393 1.0
-0.10815427954470806 0.23023381932480846 0.18676636463998103 0.11662397308733102 -0.08240253550610067 0.18855146795292443 0.25110256339382625 0.13478634344983373 0.16053791367075745 0.08774793687203153 0.16707388681676058 -0.003955224292086541 -0.09730167810099881 -0.1925585248188779 -0.22481817845024787 0.13400179200355225 -0.22261523652031032 -0.22889746742531317 0.12763038857406403 -0.10562772165153685 -0.09606277141258472 -0.07369420861356263 -0.015990274590918226 0.11850677861510046 0.04795373257313593 0.14474706962134118 -0.05586240267134967 0.24770985110436816 -0.039165149039413726 0.21592122895568305 -0.18508348877794814 -0.040119995459995936 0.1221763165845638 -0.16781757336542685 -0.1186344049933959 -0.21512595639922164 0.18189479343923126 -0.17054832259371427 0.19039522068860681 -0.2341514232602296 1.0
0.03576724243478516 0.055110618392139404 0.09157539042256027 0.011658514887129616 -0.0520256724498019 0.14098627730900534 0.27821722868380266 -0.12761519797638626 0.28971732881196355 -0.2932527952321953 -0.21970077814338002 -0.18621245129807001 -0.13552140655790246 0.22976766166184584 0.008744055920877498 0.24345747285909766 0.23046553164781225 0.21480490577945308 -0.1819740160548362 -0.04515580550090317 0.1327350950224581 0.19274430301539283 -0.027048566868852396 0.24756431508703375 -0.11930485089167289 -0.13207807448882633 0.1349073738193439 0.1145614064980772 0.10400620625745219 -0.11089444716233866 -0.12887096689584626 0.1156833135492064 -0.10031863071706382 0.0969677136509022 -0.03876797430024384 0.03960220156505788 -0.15381049228354932 -0.009030858252057123 0.006336554935188506 0.27180947850994175 1.0
-0.25669872518582243 0.08788556395920766 -0.0801220433366387 0.1282798459524401 -0.1668507153493598 0.12846841410551219 -0.12218183926921966 -0.012259221799538535 0.02057325998924455 -0.16357938960481824 -0.08333863908384836 0.05437538887615299 0.24137062772019277 0.18220855060272614 0.056491464327571836 0.21586694863697986 -0.012321826592653016 0.12374503401306203 0.2535182803959196 0.22435269889564965 -0.15719898390567305 0.2414293717923115 -0.06736692548178325 -0.14934709081306102 -0.18484072491035777 0.1445138498914704 0.0911034735002493 0.1514373273787989 0.024138673141515177 -0.06677359853084361 0.15253624431592078 0.15496124691614158 -0.2221378595489773 -0.15028354817171388 0.0969557871952607 0.06753706255126031 -0.28040087128193764 0.07679126518782876 -0.22095423573070505 0.2607666704302656 1.0
-0.11457205010409105 0.1688121522681682 0.08313793335027882 -0.29111189181387676 0.1112339981522674 -0.18799616013813034 0.08379769432745776 0.15340807218724017 -0.04942254547416252 0.09451649274117778 -0.23934687115339973 -0.09705251525287126 -0.15098002005960814 -0.2916313185544925 0.09530039420649482 0.11260621152355121 0.03643567904314649 -0.17343931533075505 0.14452210947499664 0.1417624060328105 -0.2194800004745043 0.13783585809434068 0.18772216947561535 0.18317029927846248 -0.1458092215360162 0.013455102209013201 -0.17992983440841168 -0.2416088510965398 -0.04380256879403716 -0.20910321624904693 0.07110083829156104 -0.22683737597129927 -0.07076930781135575 -0.14505749743296972 -0.11286000139604734 0.17513179741110638 -0.05181634561253689 -0.026530198753235285 -0.2895924300456191 0.03673311099888783 1.0
0.10383619730066475 0.02678303291649081 -0.22340765244196287 0.25525352496848774 0.0934174263441533 0.17693502833453614 0.057696391340927126 -0.06620725513116886 -0.23807829850807863 0.019307359519001643 0.20035053550907145 -0.13264606374628812 -0.026395072886974718 -0.30326563134805196 0.03485321708185835 0.2510261405614889 -0.12241059541174173 0.27375837597679653 0.001770574583863902 0.0020023055791513434 0.037081565729147885 -0.22799615261460415 -0.1811053491612116 0.11183442633499596 0.12237185615453651 0.0978986267697867 0.2220544444654261 0.0002746123438727085 -0.1384217867965441 -0.0898980046638809 -0.1997954082388143 -0.05291763019202197 -0.14762897741716957 -0.16293702307760152 0.18613602152320136 0.12881190480839302 -0.1676775094287404 -0.16008270167568353 0.002087339692796124 0.2612475876593531 1.0
-0.14534560277853387 0.11612434345422355 0.11164581374438122 -0.24161603203270457 -0.2204012000051265 -0.0691158654621092 0.12182450712588819 -0.24642560629032276 0.2536479662805513 -0.13010587090016767 -0.2133364758500538 0.17685527563960524 0.1833679613362405 0.18269042348532716 -0.0005589736166127085 0.12137731286214143 -0.0036038637196536246 0.03646264410604838 -0.210583338872449 0.09315570207134265 -0.020354510970324615 -0.12100878775334997 -0.25739164898665085 -0.22506002195883673 0.19741229295520266 0.23057582481192315 0.03578337163455331 -0.051682674794968166 0.09674757345496998 0.2604952274639946 -0.05684765459839344 -0.1779242253874463 0.08484261747407083 -0.07686856430280857 0.13872681221037714 0.06935884821345507 -0.254712390636409 0.04079762522574379 -0.044505857553065575 0.16009895915093322 1.0
-0.17659141062411576 -0.12214837561644357 0.22996975391160931 -0.061495469100667506 -0.0021282031087334016 -0.026733426783905043 0.030233637940822445 0.16054407631887924 0.18070838060508762 -0.24535988256420763 0.24428784895795674 -0.023753253498192833 -0.1995622597930594 0.1885746136590887 -0.10930644858419802 0.12794624743510918 0.052868444410987245 0.2103324653424178 -0.13953403103439613 -0.226198364405869 0.1406090628476797 0.058916571331432716 0.13784524320076605 0.1711467507567711 0.16764503249664903 -0.23930384920355235 0.013825585537884696 -0.12340376129404286 0.052751649201633354 -0.24242658488415442 0.11647765677485189 0.08005051565020356 -0.2388531500833713 -0.052018419898133064 -0.21596555896403405 -0.11731717395793845 0.12272596100173917 0.21512437791634276 0.21216889937530198 0.12238146490691947 1.0
-0.17126469465645186 -0.09008312680137083 -0.26457912645443166 0.22537396785747046 0.18921441404448555 -0.0553555585967534 0.10138367897436759 0.10730295535384336 0.13194182276992555 0.15543460373719348 -0.05373744609333951 0.16195218003124953 -0.01524500472183777 0.16197127366732905 0.25687283541697653 -0.06341968122119138 -0.08474697627059247 -0.03864521956624854 -0.04937909459522279 0.0900337024706576 0.18097553227523344 0.05578755227230724 -0.03549500895956809 -0.059245213056207 0.2055911582232649 0.14885606574323912 0.2065146826927094 -0.11337879116324509 0.12881638301230397 -0.2610182393004992 -0.12229102131626302 -0.24737407171098533 -0.23848874698032757 0.15725889917104155 -0.17777177236574349 -0.11370270138125091 0.259371049439755 -0.2654672025195414 -0.09159942806144497 0.031782611940537234 1.0
0.02023228839860907 0.19394005537681297 -0.09550628037067455 -0.04467782784481216 -0.14306993324225586 -0.10808556868824999 0.23333802467449236 0.08931441927922089 0.20537580215731155 0.17883467000559483 -0.00045989273330380336 -0.1711384428557353 -0.009952523302767458 0.2549758189312747 -0.2550905149134718 0.06783203910582443 0.125288355140737 0.044961540939528664 -0.0868635011828845 -0.23860505077334138 -0.13432386109256494 0.23848851507412225 0.021297610921762234 0.156905467985698 -0.10297247363967073 -0.18348431804581233 -0.1634475927893102 0.22338361803920936 -0.09222924053278919 -0.1638467079042289 0.1569994278967453 0.24567260938378482 -0.21806883339466512 0.15908520595263678 -0.053681479063206 0.14528899449809454 0.1526281779840674 0.16861345376170478 0.06912565661972467 -0.20313682677713024 1.0
0.062236691403994404 -0.15637185175966628 -0.012326886742406402 0.22482112399442766 -0.13504922217434573 -0.1259500149695919 -0.08441466966159578 0.07170581812469236 -0.11688297175054042 -0.11299070735613227 -0.05036523359633883 0.09276269468373458 -0.10875301420824088 -0.23691970652792285 0.045932380314638525 0.16057339611494076 0.11945143802622896 -0.1770464957430174 0.18621328423034406 -0.18394174140869077 0.16434745058176034 0.076543991045981 0.1748061133041271 0.023975595833099907 -0.1392619421091958 0.2231846290136949 0.08556128288783912 -0.2342506913911139 -0.25254459091892484 0.2075617474535602 0.09829071076206201 -0.24622747548804882 0.09949192316185841 -0.22696660497871232 0.254388776053621 0.19724526234290268 0.18664156016441757 0.20561387413833057 0.08009564821782951 0.0771579103166471 1.0
-0.11052931343347148 7.233195994179906e-05 0.08278902429100213 0.10684575405787976 -0.15922661871573543 -0.0940666520320949 -0.0341969742958756 0.29044232545299964 -0.15568326361940246 0.1861968177881404 0.1768336182014691 -0.1149973068141766 0.10200464709449333 -0.08819655471268428 0.22768577102100598 0.05226071616972385 -0.006898947338528694 -0.05316022564779745 -0.19392771022501545 -0.09303058863035367 -0.007113550626157835 -0.2855177401398648 0.2537635458383323 0.02685967095174238 0.04906820896871063 -0.1876237492743153 -0.22269922938461184 -0.15359067730938883 -0.17626640999464646 0.26383781472438333 -0.0519362731468838 0.14888917226981277 0.10650661224315147 -0.27849445638484654 0.14669056979899223 -0.29487862374631824 -0.01320162680025339 -0.07678596209740357 -0.12048747937284157 0.1533010704056344 1.0
-0.094470470287541 0.010343765061930164 -0.2807947968887104 0.17789855861048942 0.25636448523526073 0.06585883403560125 -0.1794183341634369 0.08453317990861085 0.07267986253295791 0.25725343178223053 -0.13462475047968644 0.07732502174926878 -0.10391229234685 -0.19228586746400067 0.17384079755511392 -0.159950070749008 0.12417918963073288 -0.08422567328819892 0.20971002423589116 0.09789515192874074 -0.05835960974274219 0.12228065207253262 -0.07487778692501437 0.03468880242007627 -0.17710017348109436 -0.04180901525695673 0.24212595713139365 -0.11356103353999562 -0.11000880769470837 0.0842251306972067 -0.2249440814497551 -0.21412773112167363 0.08839556747084608 -0.21008075532750217 -0.2511303584166341 0.2239568657560411 -0.009980711712997564 -0.2550313403478756 0.06411803975714912 0.126450842997217 1.0
-0.20664664544252195 0.13620182017470808 -0.101341816415735 0.09869747772426399 0.008660410272394394 0.01899261286035408 0.08366562265751189 -0.204975130353528 -0.019459759150502097 -0.1292192660382556 -0.17218484799275197 -0.15924134347816876 -0.18376242387121872 -0.23707825984844905 0.21980450582867334 -0.25905487912329417 -0.20143108980157093 -0.11285204594453695 0.0699301957448153 0.13735376370525926 -0.15043078467638724 0.16209292049866939 0.02861374744270312 0.11847704735294774 -0.027420514145125176 0.0019707686885914893 0.24429676195285085 -0.21012651499940446 0.10957572993497114 -0.009873389050510942 -0.20343929059475743 0.09782187364652896 -0.19172492932594726 -0.06475122767251593 -0.23073293974967946 0.2558821050883284 -0.08737679553298469 0.11806397338310198 -0.2333155518403332 0.21829743308280936 1.0
-0.19344976007763917 -0.08309159383020812 0.28058077303783313 -0.09997213730553263 -0.10950374658799937 0.06805713430981451 -0.14072875841123947 0.19798093887353221 -0.19382199314816467 0.043761685647495725 0.06001761074095974 -0.03967544672150185 -0.26687072501684217 -0.08391746210277183 0.23142563688744602 0.08783895924222507 0.18554209440772454 0.19220988136611833 -0.07558957370369164 -0.13607636829464873 0.2323275490036603 0.2012932763662583 -0.11562651997167678 0.07126815300776404 0.02172627066149482 -0.10287139516355795 0.2132405189072572 -0.041270662854355405 0.28134568080872036 0.2095778790221572 -0.0019569937435355506 0.14677206122157052 0.18063473629581725 -0.10100167420385277 0.1583894947754261 -0.023956813716077066 -0.052323089289059356 -0.19017091018600774 0.1715170444850602 0.24274411450272318 1.0
0.010932822018373697 -0.159840963435278 -0.2130936263630401 0.14489136648109974 -0.17060570245359 0.03739930881952094 0.15536564521411514 -0.206670289378549 -0.11820700842752241 0.11737437968437166 0.1620779764893118 0.04376287075876552 0.0616836421791257 0.18049348663925074 -0.014508410355549554 -0.11067932175419423 -0.14316152171321647 -0.11718026613990142 -0.2239771591310587 -0.14570034730550235 0.23965410475724644 -0.14663208237577754 0.1480466727167852 -0.04821188171383327 -0.043888100440484294 0.2060791593282289 -0.2384865363382648 -0.17094432406285526 -0.24184675206810027 -0.2363204642140866 -0.22514637115455932 -0.1681860591126264 -0.05086953287098269 0.21077167428724655 0.05902774790528567 0.13499949369994724 0.08527676128493472 0.10489033709035545 0.16000820572609425 -0.24615440294199864 1.0
-0.07550509664362653 0.024884567716532396 -0.28148953124050197 -0.02741842844283437 -0.11882841792246099 0.2770225939325851 0.0006745283821263217 -0.057094483230079006 -0.11187138192125404 -0.12337776900658308 -0.2183956355193033 -0.03929099475788896 0.04732722396394152 0.08310014549863765 -0.02311457161737184 -0.12123166410437182 0.21020531351547053 0.26172551356003837 -0.2774778950528962 -0.2494141587605655 0.1757450844015247 0.17734407425939144 0.2292039990769193 -0.12135298231185056 0.22123855569547632 -0.14419541341032832 -0.23735311679449464 -0.20471024584015013 0.04921969588968486 0.05472419070403286 -0.016402929531748333 0.06614623845228536 -0.17754548795795846 -0.03364509589112954 0.19576674241363803 -0.20797859225899645 -0.058845462744578296 -0.09112505921176088 -0.09688379933752221 0.15263817761223114 1.0
-0.10928496652747065 -0.1475325164166864 0.20219895541683852 0.208930517747545 -0.22965324845842525 0.21884707829782984 -0.15593499893059437 -0.1887834556250087 -0.05053732938797292 -0.1069788407944749 -0.09496074668148483 -0.15372252499545935 0.1811554811814066 -0.08229180397692352 0.21968232558325934 0.1139335073946456 0.13029028194548137 0.19128747530291698 -0.15885877930168585 -0.056461188579877454 -0.023179753944827595 -0.09709363199322532 -0.2130538251547752 -0.010734279227218922 0.230826425172561 0.09624925513835607 -0.06885818416846806 -0.07089521958619129 -0.22189921376866287 0.19372714946665257 0.19039143855657656 -0.24088658271899085 0.09361157576448588 -0.06278951094354188 0.1805160010556308 -0.19434728033007545 -0.20508553556196105 0.20869563892680718 -0.05382184802607975 -0.10628042983794111 1.0
0.012526840604859445 0.2261311728768028 -0.17767274521717977 -0.1415422755936579 -0.22714211556298092 -0.22910475195548133 0.1723295495900064 0.1244237205106457 -0.19747048340881576 0.226375933640144 -0.004770352671763256 0.0369118955718001 0.22024497471459578 -0.14141704072847347 -0.19230564836485653 -0.027773606227057157 0.005579983421158131 0.20608496894263048 0.1044206311826276 -0.025532495182667894 -0.20053886703672055 -0.07870663898286358 0.12502971642603525 -0.16352454867640293 -0.006454794782029956 0.0003205280203915372 0.20174898584476805 0.04512886513335828 -0.1025689079432178 -0.08571844296280581 -0.1742812217008854 -0.18385169791967984 0.07599804497326904 -0.2299828461006503 0.23664091553416894 -0.08334512889275396 -0.17539710525993912 -0.1956495812173027 -0.19560271988778996 -0.231035462373215 1.0
0.141130777331453 -0.2474356833426501 0.0036040429108495377 -0.2240268468569194 0.008405324468586526 -0.06995729815011686 -0.041400618883663906 -0.07263179764793432 -0.11062540219508867 0.1290751033003494 0.26207282296601825 0.16905034562120927 -0.19126400737022284 0.006182069222259524 0.23998044297935298 -0.18990799816598092 0.044650787621204634 0.049162933117246795 0.2212340726231322 0.1336612679382913 0.24741388200774617 -0.25778187472537956 0.21429727019286485 -0.16609107815645402 -0.047416645980924425 0.24414742400538844 0.03629356480390161 -0.009294144719249152 0.014047522327545124 -0.22201671912042423 -0.0752251595549732 0.17791395788568493 0.12339993714886821 -0.22996598813508304 -0.23415891846390371 -0.10921655709162685 -0.09211005817617221 -0.12940299871432678 0.08164955482455255 0.1050978898635482 1.0
0.19206412960843713 -0.15530365999665338 0.2713214459134324 -0.05252593453885189 0.022399557541341722 -0.05483627419934137 -0.07165563781695834 0.14138688310817463 0.1272553113162858 -0.22293135168098108 -0.09085476112734625 0.24787973263723095 -0.22160509838070744 0.27869411916600034 0.08385453360507564 0.009754028690936663 -0.056096411328033204 0.08893586210182297 0.13605826344432037 -0.007955228276854616 -0.07249372649300358 0.18434794127369536 -0.17898717649179152 -0.19762639521682618 0.2477437228795311 0.26725095321638515 0.23450329561423053 -0.07420048905386785 -0.22851093769858566 0.017302958022038357 -0.09514491584266895 0.23780435033879566 0.2163660897781389 0.08364258072673436 -0.0518863055010485 0.04998057856819967 0.1894547840971208 0.10210497660403076 0.07810153327398245 -0.041070901113115905 1.0
-0.11762281661791867 0.14813954211020436 -0.193020337262552 -0.10609113199488193 0.14439842178612916 -0.24953235092562637 0.10030750927036047 -0.251201211595221 -0.056544509774006456 -0.2656213367572088 -0.22604312634349122 -0.0997065300295908 -0.11556350351902356 0.09513281737039926 -0.04918946386300589 0.18765467210027895 0.166197394959984 -0.11276167028889945 0.16167448816900046 -0.25944098372351315 -0.23664267887089824 -0.11032034918367291 0.021660226818730654 -0.10137918425789506 0.10233223752365891 0.2662031086565337 0.07953599019708239 -0.06424829118048785 -0.23762106215822165 0.013817474561238312 0.1911785688519602 -0.11837495529371579 -0.043303094855130043 -0.17411260014444005 -0.16559419078997092 -0.11809084541723035 -0.10665492959432551 -0.19112711434627305 -0.15385334866460024 -0.08807342585728568 1.0
-0.20424928806176723 -0.24160384142463426 0.14141779500549317 0.038244131009073944 -0.06764891217045467 0.22063858919827678 0.09844512794963647 -0.24473093021211192 -0.21800625276372296 -0.245348427435011 -0.23786678145245288 0.1213856195922895 0.213519208474478 -0.17857252437118526 -0.08769340346378264 0.04749069974082429 -0.15447855928760032 0.143087697204329 -0.2206571075533694 -0.0697083772652875 0.2248142553580822 -0.11483054764945538 0.1716990783567072 0.0701124728691608 0.15242572447800987 -0.10050294416819909 -0.2010324557521529 0.18923523942144801 -0.011480420648325152 0.04471804875351454 0.169974484827136 0.1292118706751683 0.08577795383749348 0.08414305271180168 0.09020657648337348 0.014382990922535508 0.12530151654800173 0.20247615853754278 0.10052228156602182 0.21511124700560652 1.0
-0.169623704273975 0.26221064751751566 -0.21361503758211586 0.04489943053918927 0.03499365738279649 -0.15244275538949792 -0.02390735192214054 0.14887482128183036 0.01129753212256498 -0.13286761142630635 0.09806096917631375 -0.010317390322271027 0.10886457391465854 -0.2507316963339876 -0.23398243812887895 0.25823949325565776 0.014016743347723237 0.25626915160795805 0.025787948421970793 0.10141311009189959 -0.20847427651258427 -0.11759773834494144 -0.23799866697921668 0.1829395561515128 0.16089547928194556 0.24458603020946054 0.27609546045947503 -0.04413110849793246 0.21134806008283996 -0.0007557300664510887 -0.013166871664639706 0.25444144192319135 -0.07558456955539923 0.04295756089922147 0.07165982642993807 0.11285732061382193 -0.21557742442924624 0.04460632292225004 -0.1112619415732879 -0.002847684559269753 1.0
-0.12863413293157916 -0.12474642279790128 -0.13017196372229514 0.10635687411754323 -0.11271442709455516 -0.04264477695342183 -0.16979934790198556 0.11928336231893637 0.1309574475215242 -0.02917231924323932 -0.26220617279899916 0.1881467853281966 0.12044763102956849 0.13839394123206678 -0.013930575749102298 0.1848266017967137 0.09799783419722445 0.25881289099206617 0.22141048739325903 -0.17927758063122828 0.29046247718339374 -0.027140003823565694 0.06741401255672251 0.08866798244991274 -0.1153801879162759 0.060848493529791485 0.24685712262676388 -0.2022058970396786 0.17777024696859797 0.280040790102727 -0.17107749906527187 0.03453217098254434 -0.14484809527165107 -0.23721545867516572 -0.15894071913207705 0.009149969544395118 0.08692889087958167 -0.010973773885444963 -0.2580481429802178 -0.02077888558196061 1.0
0.2205642342730046 -0.17106468102290365 -0.08502934842340375 0.15931674787009611 -0.19086879795427483 -0.20370990246542298 0.21570983202176156 -0.22655488088693562 -0.18540142611225133 -0.21054104812403598 0.2008570046829367 -0.05895756583157405 0.1397680916976633 -0.16101424785326085 0.1067676862141273 0.11747566827396388 0.16854098367089568 -0.2155402751625518 0.16672425393484736 -0.209578916320627 -0.003351153052530289 0.010105995488747143 -0.2181662149709089 0.14906998423066262 -0.18882962927389366 -0.07743160970035326 -0.07131972299931427 0.06891815189400227 0.08499344092570725 -0.23274967343035668 -0.02951202728464146 0.09591167124983746 0.23512655288277906 0.07735857732938264 0.07504577707495981 0.173133692000605 0.05243216935750649 -0.22298394118650094 0.11395944884224853 0.13676428255317805 1.0
-0.1290952940313211 0.19929619876225343 0.018281008584904133 0.2165545434844039 -0.26476344744261937 0.14703174733268387 0.14730745754735508 0.14566952142119344 0.12564076012031455 -0.1047013478828122 -0.16070812016639682 -0.1397632166199665 -0.0459078174242548 -0.18698492206987033 -0.23079206608839814 -0.2648854666552718 0.16472253926457212 0.06679800276946671 0.11380555208515643 0.16596346943142912 -0.18967968232796323 -0.157466289039851 0.13023378269213126 0.050757840829672336 -0.054246045098636855 -0.16452660965500826 -0.26425819188007504 0.08295288259626277 -0.1672850011468687 0.014309474763001782 -0.2647119215738645 -0.03263856248933875 -0.027393778335547677 -0.16022015326841602 0.11193907961499172 0.23238946028001628 -0.03172209081941203 0.07797848577736419 0.0020566588142991336 -0.26577762588753706 1.0
-0.25710077603395204 0.18927074549194564 -0.0269649765222015 0.1828222309293409 -0.17288194744227983 -0.2104122040044237 0.058217485776620184 0.24094777119839472 -0.22838888854706674 0.20962607492364319 0.14547061170793335 0.20672524185961955 -0.2302167360907818 -0.17274305959470562 -0.13497060797228347 0.18462961601323893 0.21204134479042003 -0.19083227296974992 -0.07816360473452243 0.03972384703902457 0.1114520897068142 -0.07173859888713156 0.09184396061852361 -0.13858897051075028 -0.06535698535183732 -0.06570038075044134 0.14132547140683116 0.023972621130602587 0.12128493685913078 0.18640581623926444 -0.14845432511272763 -0.020720528335429887 -0.22972791724691283 -0.14743707204191286 0.17284026697571025 -0.2108481222915771 -0.08409613089870671 -0.12163441484157217 0.13612944206049243 -0.09269722564326169 1.0
-0.013084855866638732 0.23407014488865355 -0.10306076355626866 -0.2786439799090828 0.09628817333696721 0.19896133550609693 -0.10383006798652476 -0.19262789638558198 0.0006660645435417339 0.21404020569825544 -0.0439620644615734 0.016455098520296463 -0.017691789371480634 -0.05114763391621501 -0.024780737104252472 0.004523024683597 0.07251829364442297 -0.1275673515960856 -0.11545760651590697 0.12099744616727519 -0.24392454898351335 -0.2514901064033017 0.07608240976188382 0.031325369027966926 0.18031445582278177 -0.270135598563735 -0.10409014345953242 -0.1846401914430463 0.21331318972678226 0.059928257179682795 -0.23877916551667344 0.23204134383735958 0.05008783964457439 -0.026630225212578188 0.1567965622212175 -0.19779211307337854 -0.27624410171028135 0.048882872248751465 0.09025987850360993 -0.25552823564804517 1.0
0.06982778235194398 0.017579519155242647 -0.22194458437243766 0.0022216609106415243 -0.15116169154493445 -0.025781425267815034 -0.19759882617600402 -0.17428477941568338 0.26761720475146833 0.2674059599135951 0.18922819728234436 -0.09075250968767862 0.05293714002304259 -0.13054196364098322 -0.06500416334062718 0.18956907510945192 0.02659276620018074 -0.229669258507645 0.04179923344904105 -0.17656988314539954 -0.07278719542750071 -0.05145354166300063 -0.2747510212936337 -0.02120387905730527 0.23308997744784857 -0.011712719041268931 -0.2709441545489109 -0.25007958131971764 -0.003701178988011197 -0.23660555667433467 0.14531802971356847 0.030027395333472463 0.045184555719750344 -0.20030500598683296 0.2156168312976429 0.011263768685502364 -0.08061288872196369 0.06693156815644274 -0.24890346850174555 0.07094751520487083 1.0
0.25401929967295833 0.04219216509682002 0.1733065415594963 -0.03144516712079023 0.11621895542832139 0.26425969387908216 0.04584947110025145 -0.09540632681578878 0.061319548903666914 0.17435645151285206 -0.012816446603972997 0.10532707145335751 -0.10830154822747935 -0.12943638503567192 0.15198236156435946 -0.27582835575441667 -0.0443756818383524 0.24233813736334542 0.0034951845283444347 0.023189816771107576 -0.2705447366759031 0.13844590046693425 -0.2588747775911057 -0.11573703579363223 -0.07092306432683443 0.002878173894629015 0.2703875869125505 0.2719484290216891 0.13447845419519086 0.20664094234109262 -0.21357145555560703 0.10252249175419674 -0.1401091814432957 0.041476267494498495 -0.21049724751633858 -0.03148180451444947 -0.10955921085663675 0.08931032855020613 -0.17584867553314248 0.12024420161517477 1.0
0.10876002432639953 -0.2563224150318207 0.059908248000355525 0.07310997620659207 -0.027948164204726043 0.09707434929472167 0.20943215931989695 0.1209620578283234 0.18906462905673915 0.004051549141864085 -0.21593108581358927 0.2463020237512016 0.13654485211361186 0.2577116446908003 0.16517853007894934 -0.14549111137699777 -0.10409986688073458 -0.08753823110634022 -0.15636356956533015 0.2278318416001662 0.17398731330415138 0.2493141547639323 0.11809640373039658 -0.12544442847011558 -0.1384561974278676 -0.12350275525438849 0.10766877573811706 0.16135489490042695 0.22768488594014605 0.15626754880102559 -0.12006824188291587 0.14222569944414787 0.1472584811264091 -0.028502043562837122 -0.11954560616297585 0.10080624402730132 0.19879767892940545 -0.15653462046327948 -0.04987994748637239 -0.23428024449483445 1.0
-0.03623120265812541 0.2572859005891504 0.23987906439080647 -0.08921697488710585 -0.10977069060234335 0.26358510230313137 0.2527748777476106 0.029544602122797328 -0.1887031415717703 0.17037589691413405 -0.08008411888691289 -0.13877262955970082 -0.021867647336397098 -0.18608494360838068 -0.16624018675977603 -0.0630855485776018 -0.10252445247559039 -0.22595713316147817 -0.22157582228870287 -0.059318740485190855 0.042771424988579755 0.04523771061797352 -0.1855284075871281 -0.11919788891438261 0.16458959354807282 0.15967054486164287 -0.09299814885940026 -0.2705970052264691 -0.24428167276800009 0.028082688155907882 -0.2201281625695999 -0.1986653144988995 -0.06977597605243172 0.15111265646817323 0.030815472819319706 0.12664025157174055 -0.1516837334640637 0.16777817251755542 0.021869819156706303 -0.1334504919271214 1.0
0.14271702805755127 -0.17205740740349917 0.17713072146850378 0.2463498792300936 0.24199150250867416 -0.026462975449026403 0.0812088841774961 0.026109869358492126 0.1964818686057633 0.14714889874301768 -0.22322560606948505 0.18693118882024845 0.20790540731807486 0.07298575111194537 0.1424898265454357 -0.13432659332304908 -0.09642396805563426 -0.07707560737709275 0.058226006531926784 -0.009652822371037052 -0.2595717675470631 -0.2563356274114537 0.14057889576352178 0.1441880192988704 -0.18171786064174414 -0.006876455157418562 -0.1279582882176411 -0.2437481916759284 -0.06257855516546178 -0.21410794579525308 -0.1416541679779235 0.03568186512947095 -0.11262637533582845 0.006648934480412037 -0.030514140087127366 0.15992723484319912 -0.16102905621167563 -0.2562660441146695 0.19636247816088506 -0.13337325226449823 1.0
-0.2035495642348396 -0.06255448966313899 -0.0027454111577539836 0.03654485498258935 -0.24813606293066442 0.040289207269335 0.23839655376825378 0.21125310858375163 -0.14186263393276505 0.045776871091229646 0.053902346053519984 0.2588249598361165 -0.10341917216136509 -0.20567831073729012 0.06180726680067048 -0.024441657040353816 -0.19947393918248965 -0.20588107435469546 -0.13787946323405495 -0.26575592817663146 -0.10803637232599445 0.020510561004062625 0.02896619434461452 -0.22838049360051962 0.23597179895889836 -0.0290761192182399 0.062419081861884745 0.20204985900386274 -0.0746592455012922 -0.1747821696924559 -0.07911745477931283 0.15537705200336266 -0.12507571453245278 -0.06700380915266627 -0.19712839915513808 -0.015827380817819623 -0.2614692962522933 -0.18903301175189588 0.024198931779621236 0.26555275612914103 1.0
-0.16410647802398384 -0.0258266137390794 0.06072997515825301 0.11327580532217635 0.17827724700470793 -0.12329914793781853 -0.21873473686837522 -0.03237440011743952 -0.17465163414981433 0.07962117077531618 0.08952773566439726 -0.09908228352401177 -0.1307821473922419 0.2269421119106635 0.07215413084591817 0.21880245144549962 0.21681964455642122 -0.22257925506429202 -0.22627248225181792 -0.1746600793611625 -0.1650883167699705 -0.02136883854742522 -0.18232826292519655 -0.18609534550203222 -0.16306746646122278 -0.045993365382910635 -0.06201419954794179 0.18748638438785103 0.16857988619245537 0.12573886833153866 0.05541910729223813 0.22061997054886856 0.20022427420551517 0.22132537461009505 -0.11757732684353273 -0.1199986411446869 -0.05881967210207356 -0.16195423286091898 0.2277571838459972 0.21739287543039604 1.0
0.21766266632545042 0.16045263086799452 -0.09758318476833462 -0.20843268257047987 0.048011688508977975 -0.15728230761336992 -0.20020916125465404 0.2394447563722897 0.16390989047718424 0.018450105729634795 0.2031438773447227 -0.05196521190706631 -0.0934136411359645 -0.07245909684510356 -0.1830992643268387 0.049739876998153965 -0.18320734882728196 0.10621377455845456 -0.04239962028141313 -0.2530307256507541 -0.24383268444784695 0.02516778710258782 0.1472522644598163 0.2209987343434203 -0.19204108888775698 0.20992691109382586 -0.128553796824671 -0.26438554260676095 -0.2656630249959569 -0.15083391081930642 0.11898923432756059 0.032744280997484033 0.008193544146625115 -0.09472859949858452 0.12676824868061798 0.07886956003040727 -0.09051448145291406 0.028875970752912358 0.024339644394658418 -0.26483353176493646 1.0
0.032453166237343754 -0.01204172573016957 0.031778504678026696 0.2713530856847108 0.033254397575753644 0.03178360447942272 0.08170068731264835 -0.06423011919678254 -0.2331041416930411 -0.1876249367749405 0.27804524802687286 0.07487750601251912 0.14483037947441224 0.07274068403486691 -0.19496077726787794 -0.22394616429718298 -0.051481647327352636 0.05356266732106992 -0.14963499357910076 -0.22876396707137941 -0.19991935981510878 0.23773295745517214 -0.03398218415847484 0.07873823049187606 -0.08089587553606524 0.10245875489036986 -0.2123217790016724 -0.14063563334484405 -0.1339633089028959 -0.2452155071982771 -0.08573507509462391 -0.06421904400895255 0.2668148011111279 -0.24621380397007958 0.09707975892102062 -0.196594593433565 0.09738168405323502 -0.0486426566210158 -0.27066476448081495 -0.06188203826323018 1.0
-0.22149313376270374 0.1565508703529805 -0.19828181895801344 -0.08505425183987475 0.1103739556245379 0.1449595771448583 -0.07183828967716409 0.2465280933084461 -0.22643989913402643 0.06382965359269473 0.22649006264506494 -0.0029833113393799944 -0.15215646959811835 0.07088432087651748 -0.2615997796322567 0.14068780957258115 -0.11737734158903555 -0.02093682852078142 -0.005816404295148441 0.02029074223746217 0.18456405382378072 0.1305322582923517 0.2460733429841497 -0.06685511681171429 0.09602705141403461 -0.2639510163045252 0.16093979330790065 0.03625258395681701 0.1869368379646741 -0.19889913446380417 0.13929846574031712 -0.09509087917097912 -0.08426468289484072 -0.22370912066318824 0.09690207833527585 0.24621886502114165 -0.1635686575727546 -0.1283704599904231 0.20113064527731167 0.0836537632849714 1.0
0.2561928253747502 0.06157818092880592 -0.06529958529037251 -0.05837665811590795 0.11651932818547119 0.1271148590609245 0.05826186083532432 -0.18283243145250563 0.16831137136683683 -0.19989306870279908 0.1269264241514513 0.0022930382321884016 -0.28605333754701945 -0.030412863554232315 0.10290190729284958 0.10579081128811933 -0.05373221612409001 -0.24014073311488557 0.20562373903517528 -0.2001161610632438 -0.1778165026477192 0.2155837224338761 0.06267482668360258 -0.08437269995358175 0.021061097822756086 -0.0706845494630094 -0.0028260073034605997 -0.023988456905293703 -0.03695943634368659 0.043628379032071715 -0.19389691357723923 -0.26919516617802086 0.26258361059658625 0.2688468155766965 -0.11199498002479125 0.08828064607994832 0.15046683972276123 0.26819393831717814 -0.2115159078625944 -0.12312402084299814 1.0
0.054230373665004696 -0.009282925422276846 0.14358933518217581 0.11707652651555499 -0.04811408712441104 0.01315799839506132 -0.1669135170900078 0.247574062598207 0.1446425336695052 -0.22216431032146566 0.1520207225414864 0.17952191812511126 0.2224066461954662 0.016763964986144596 -0.1507521332881643 0.2211517558626569 -0.018979565395575194 -0.05356667902263886 -0.03186778414873025 0.20725685000889507 0.07523965683495507 0.012174023751492976 0.07625591845117591 0.17467208421746702 0.14348287512200966 -0.12128897226012467 -0.12993194654139048 -0.23929435549690772 -0.16975657483290935 -0.22743588116220873 -0.17980003385329413 -0.2620408833287774 0.022851138340472622 0.12875651178456723 0.2096468489282034 0.20765103594472054 -0.2605749247803652 0.08909150658456783 -0.14631732336605172 -0.205616466196698 1.0
0.14789579317647575 -0.23772489328907667 0.24257677581751033 -0.10742071452945023 -0.12688729118068448 0.1318892888488381 -0.2424881062421885 -0.14749597070812448 -0.24533915404628504 -0.014636815332881114 -0.09600158690524421 -0.008938069816841525 0.13209924947895077 -0.15170719067889754 -0.237327332714488 -0.2081244689936402 -0.07647739380373865 0.01676017678373867 0.23692901190813187 0.19891678697651685 0.12559096456475843 -0.06762511991623153 -0.20920645112942773 -0.0787614268457595 -0.16357134052952996 0.12142625175892037 0.07211229767314872 0.2077462302116681 -0.1669369366963668 0.07841757537833344 -0.0981388820430636 -0.07897675589495648 -0.13455165793525076 0.11856760364769924 0.12065859070085837 0.036732126022986 -0.17262491038094488 -0.1911839535522817 0.21077015943376917 -0.23797902890290068 1.0
0.17395802008348296 -0.21982981786707212 -0.24386333468381163 -0.025043166995930795 0.138720138032967 -0.20025490644264848 0.13031404605835015 0.1589590788009544 0.27776450549215054 0.08689900591795384 -0.0004615379110554532 -0.24224562791710574 0.04296066067642345 0.012045310561698414 0.2052171129299233 0.19168301186261916 0.13641805726122014 -0.2093906437498464 -0.1762781419129195 -0.02232850532361584 -0.21031979053554303 0.2125054614131273 0.11795352691522445 0.05781423624096747 -0.25304351029050415 -0.18541921562521116 0.08391728034549821 0.07401162520456706 0.20143046240690993 -0.07902359066380597 0.10782199054712947 -0.08927120702489999 -0.10760688371162556 0.2069578097826923 -0.028008799084643363 0.11771053040462545 0.1238105271463812 -0.006962648713855809 0.267227238747976 0.04034479019136093 1.0
-0.22684778560558844 0.14530999742541464 -0.0566310236400411 -0.1595979902995072 -0.18926545517403767 0.17924792496045205 -0.13244873586909384 0.05954722639832595 -0.2288862877614987 0.18186824972002674 0.015404029485653978 0.044722278766437695 0.2744160596009758 -0.06575183962787133 -0.2237265651599564 0.14491868746035796 0.10109180669411906 -0.08172900413294416 0.18283594298419092 0.01639199368510055 -0.17959252316233457 0.18201626520008307 0.019072681389482947 -0.27220679882626164 -0.08496536123823628 -0.26990650863032867 -0.26972013237973047 0.025970584027349 0.048877166232834265 -0.0753060067584625 0.04499974921600842 0.10709275070018523 0.08959620267976692 0.05165533094333825 -0.27898515710179556 -0.09509845462443021 0.09795562347536067 0.21414199907374015 0.13242083365403 0.18781877121941404 1.0
-0.2724455842291162 -0.06365778896078413 -0.03493131087816768 0.19050734741872358 -0.07136098188166165 -0.22025829941974576 -0.18409102459823365 -0.2528887108378614 0.011024144519756605 -0.16040669915448197 0.024433034181751714 -0.0002490464669809559 -0.20088999435689975 -0.17632056749845565 0.08565577369770468 -0.07518360323928003 0.19061210917121066 -0.12483788776967876 0.018720100963823358 0.028907487528748547 -0.21304526985916372 -0.21948741377323946 -0.18280681112157196 -0.021931927614162218 0.009305273169802983 -0.08862218362199667 0.21338959319929723 0.20409373902836309 -0.24896861016835467 0.058564957617294244 -0.17104733340871978 0.25847587530365496 0.2695714199656995 0.08396773486485974 0.09006393063852809 -0.10248541298013807 -0.07666186739887274 0.0898162618087746 -0.20989541167877288 -0.16841404951531663 1.0
0.1104392411990171 -0.17710948047064765 0.22362205217297354 0.07385169606753658 0.04975168394990223 -0.13320150297630728 -0.2069795537487387 -0.16338731863572922 0.2718846338507723 0.08849682523729747 -0.12850636816472338 -0.1671819532627131 0.2099218887745576 -0.044945117603692054 -0.1804159275477382 0.09215935240972933 -0.014820189341960636 0.25659944186295414 -0.24603459045969112 0.11103659715498986 -0.16218896795619506 0.25855312679388703 0.06138287792167266 0.08028895782928075 -0.04623714126502093 -0.19567978597124128 0.13172984779732838 -0.04634182977474707 -0.19457288289326502 0.1509406921799133 0.2523658057319205 0.08513917212837283 -0.16619309893083498 0.004182000860895312 0.14650792726376816 -0.12352254332954822 0.08667696307533697 0.24201941878551783 0.14219646120556712 0.11578222166379797 1.0
-0.06457858475915043 0.02913610412573919 -0.2405326717098892 0.2597945211643966 -0.03019207236251117 0.08474884144515955 0.033294776070855576 -0.05141277178885342 -0.0711082506224453 0.18127205603948232 -0.21734161586306985 -0.03926246309797255 0.2745222810148085 0.002884789230527647 -0.1675427538091386 0.0434153750286798 -0.06366344144903742 0.13830633109034163 0.2787368279574404 -0.24452249291898268 0.1437148668707831 -0.1681997125632371 0.18223344684753934 0.26621701240319123 -0.1636121769066041 -0.16146020864365065 -0.23683633295697043 0.2528760154971999 -0.03712851624296529 0.10435663901137357 0.09160361275074771 -0.22467448629887168 -0.012097072511661767 -0.0055137273822772935 0.08332458848724243 -0.11867013628724103 0.09178845369572468 0.16662846888767066 0.21714681648333475 0.05926122071470388 1.0
0.10211900474194772 0.2532951437120782 -0.0447406644755236 -0.05241379412256034 -0.018153852024688798 -0.03655755825439377 0.23604977165163157 0.2030303974462373 0.17450501889967085 0.2117628093854079 -0.09972416838143816 -0.07738835702207404 -0.1907056985012279 -0.2509113628150525 -0.12155650372410828 0.044512226928738755 -0.09850170426554376 -0.25048515551942013 -0.08387602126400846 0.25319405373716636 -0.1430153495182352 -0.08070656112384132 -0.0383228846069831 0.23585638995904665 -0.15931337952015354 0.20459285709407166 -0.06318674356599219 -0.08613293428092339 -0.1647923239338793 -0.12619779486941926 -0.05506734234182518 -0.22813460788474266 -0.22674894559130443 -0.21216678969706695 0.15060345370186665 -0.1422388430909191 0.11419227335724308 0.05798628487650538 0.14949786701720408 -0.17941110688634157 1.0
0.23589606031632573 0.03681560590309622 0.20976119602270898 0.17906327132142638 0.01772329946953639 -0.23886707882018407 -0.05270726503024682 -0.09500936132291 -0.10178770820190149 -0.2506714563423844 -0.23595975027063212 -0.2011813298235877 -0.1738828911377353 0.23317691484388792 -0.12802289914311551 -0.13805806732199655 -0.06756285423946856 -0.012159573786184128 -0.009063083355354192 0.23465860842738528 -0.24288087755590734 0.19543819943186252 0.025279889340885136 -0.19834650839929516 -0.08545865014915102 -0.19385155291455253 0.09167641336056899 0.017101364053262232 0.17030636461429757 -0.043619160498571403 0.01074844616397519 -0.08077142806742672 0.01070763584114282 0.20087452187983898 0.18762496242495347 0.246902997237694 -0.06203670634158178 0.16547589906810767 0.22262944470553533 -0.052698341888790336 1.0
-0.12683413109268368 0.04431970366229114 0.03336444035440583 -0.17655211600249535 -0.07724512446751489 -0.08326178669666096 -0.0031248734182099513 0.19289465796944677 -0.12246973240401769 -0.16017322996016772 -0.2326166047226711 -0.0011383638206098395 -0.15646026747758124 -0.075365322578851 -0.1713640734242011 0.14195254416444372 -0.21360080028764306 -0.240156104470364 0.23439945177431978 -0.2259037623756353 0.08315194549769318 0.12440102770734981 -0.015992909516157817 -0.19479483984829832 -0.07075650353317921 0.2291289202663243 -0.28893974080652585 0.17114130840742003 0.28066232181329737 0.11250819092289631 -0.001555181670403908 0.25032255371190887 0.11749471378642137 0.05062002740307251 -0.06181413818784728 0.2668063425274066 -0.0834114441409121 0.07783780097274251 0.08981497266476439 0.13567175854534516 1.0
-0.2636561060520848 0.060700629462786176 0.20208957687396226 0.05631633450921802 -0.07669817064551843 -0.21297641446144586 0.13805338784647936 0.022779694102278012 -0.08717891539981838 0.014523877412386555 -0.12689154727779353 0.18676023569516365 -0.009377958173847555 -0.1419218334806086 0.2235659321834037 0.1575922675816245 -0.010417971210459358 0.17253902877286298 0.16909082532420766 -0.26764681174043403 -0.07106984935025394 -0.11593208276851395 -0.23681488851029694 -0.003712175232958434 0.13820005767561958 0.05346750040444944 0.07815497303174365 -0.2068975710475501 0.16033757601482623 0.12255191001448316 -0.07354910191204704 -0.20923234333929028 0.03813074964765945 0.2773978388225978 0.06821306881400072 0.16637179737533028 0.02315270201457849 -0.25591918908765 0.25394013228893436 0.2267161335559228 1.0
-0.1917350382842119 -0.17342291950128713 0.20360650312775294 0.03840127817133651 0.1818682757280136 -0.24122987097212234 -0.000596146243387247 0.20303795412444692 -0.039109473532892264 -0.16303224557181994 0.01775976027993106 0.151553165962691 -0.2607111330374512 0.02568304458616391 0.07097781616466581 0.184047626498911 0.19796317383119047 -0.21454588261441518 0.014786482727894562 -0.17303586063431814 0.01597857462048391 -0.04550868360237763 0.2693833336974282 -0.23049781832159139 -0.23342274520538323 0.16403081495532934 -0.0785291393867884 0.25070887229183153 -0.0950487588454021 -0.05210531012293271 0.10597197422228553 -0.14629704677595654 -0.008539207160045805 0.07639865446292789 -0.19523096106832502 -0.09944480705071417 -0.20858769563239643 -0.034996487404755465 -0.08059844593268466 0.23550536261951077 1.0
0.16177644095671312 -0.013799858292475365 -0.1458613957892541 0.09922940303840326 0.12546330356404464 0.13840424837345702 0.2513660238227953 -0.14290151339018398 0.18965071676214953 -0.04714373899649338 0.10859360261668782 0.16356798084963253 0.19348369565582224 0.1304089078236734 0.11058590813457396 -0.2274038473885015 -0.19216185424273188 -0.23085212282437714 -0.24460684223662532 -0.08707483679132118 -0.14517970251542092 0.05548321907804904 -0.034677344387450466 -0.0873455047804121 0.011134422614273073 0.2600883818336644 0.1566876435215741 0.2818119411260802 0.08308662772401923 -0.024098958925753023 0.23226249447223885 0.2671846828574649 -0.11889280341662477 -0.04802144645252874 -0.155971526844616 0.1534823251453895 0.17691004931002044 -0.1100473207678822 0.1331352389126953 -0.09086747964287045 1.0
-0.2221156710822523 -0.22848139357380617 -0.03204982031653746 0.12324999801294302 -0.05087731953992893 0.10481264608092523 0.06524248874058904 -0.016090278859879053 -0.15221770156775832 0.1446938994092269 -0.1209587750328032 -0.16322725476469163 0.24968358537635926 0.1897593368931966 -0.08536203766808917 0.28389552219828734 -0.2771182372107362 0.13847480402303117 -0.03779975505318046 -0.20191523131482486 -0.11240149595643777 -0.15675999089288808 -0.03771147890257337 -0.14160886179265225 0.09709517962612324 0.13809509438631887 0.010608057085020656 0.14166552020616596 0.09480273663292278 0.03646334822596324 0.06803330311979033 0.1825396605264713 -0.12619579183813617 0.18708153061647687 -0.019345644333092646 0.27601596135960854 0.16635829378661152 -0.18060408303067732 0.19201062981707573 -0.2722072698984868 1.0
-0.1867668680859573 -0.004740408631770796 -0.05768298024130443 0.2535112904169923 0.08256992156679328 -0.02255539238508341 0.22682261846621413 0.05629185568498785 -0.1045270413737998 0.10807911173007415 -0.17716850177932786 -0.026333386966240168 -0.27688048241360225 -0.17801590106383022 0.16113036670269534 -0.06088226098708357 0.15839864534318446 0.030644115789460843 -0.08132325665955623 0.14929495716385202 0.20018808700227142 0.13764022203982698 -0.023197295157683588 0.2498943899101823 0.10244652948255234 -0.11507151783155456 0.025760481027802054 -0.038122721136566444 0.2915311429982452 -0.1067383869578774 0.15969304226996292 0.20770513209383276 -0.249604878591934 -0.19545932678633773 0.25102501204262534 0.22864685918825542 0.17817679539385414 -0.05815079735657614 -0.1003584198491067 -0.11843816598651336 1.0
-0.24342686798152977 -0.022709076150138622 -0.2443036325647009 0.2053074744987934 0.1558517015605474 -0.06472439870960317 -0.09138714258663694 -0.16941533294414474 -0.09783918584458272 -0.23009279909175184 0.04350860569002829 -0.01365596181124671 -0.22636565207690693 0.18280201168029903 0.07763595090046063 0.21743161817384588 -0.08022547930825305 0.14691072627736823 -0.08404363895693769 0.12526655087427482 -0.1438756965093931 -0.23640360542797526 -0.24129553164334977 0.09855913526750817 0.18500248102121228 -0.19418897708053065 -0.034950437576371035 0.03410104486619764 -0.09779162085666179 0.16022742579127489 -0.15236694552998023 0.07915436795421935 -0.0934747979383534 -0.20606561405007695 0.17755236709520167 -0.14485630820839968 -0.1679971510157486 -0.20184084455024603 -0.20048489984944792 -0.15199587834907619 1.0
0.043924227250938155 -0.23559339243121952 -0.041627725129466296 0.077518904585881 0.16999807720571733 -0.26401253646694917 -0.12629571398558392 -0.10360032168542878 -0.06903564750952607 -0.25770853485249895 -0.18366207589372366 0.07185942567288843 -0.037376099699317065 0.018667386513035192 0.23430155768604055 0.07304187494587062 0.07757969149691389 0.20450311950864816 0.06067330584460747 0.1561115664199082 0.12655927743632817 0.0630230654670421 -0.1895865915282638 -0.22321725229587727 -0.19300336716717578 0.03864951499212776 -0.09268836140936555 -0.15559620630814086 -0.02619577086978235 0.05225400863643658 0.20963999280115167 0.24956661109093134 -0.24712031508952956 -0.1442229610184226 0.21732880054052459 -0.017706872926681532 -0.2672078210516388 0.16923858650146045 -0.212530344333863 -0.004003404128374891 1.0
0.13173438167448281 -0.17222674369491153 0.09777137460277695 -0.24143673213451375 0.13171883984443622 -0.04088612391707119 -0.17436597338079368 -0.1674667695851674 -0.11336546510559496 0.17685902880083487 0.02177568497504437 0.12677815830671016 0.18697417501533828 0.23173537770014183 -0.1944520611483951 -0.21866227575415945 -0.12190962612883761 -0.18028695904342873 0.23915907029383787 -0.2023657151017267 0.0662362997386374 0.029804375546556044 0.06525094242662559 -0.04979221296503483 -0.07476858993624896 0.08548638062236132 0.05056223414999247 -0.14165293190399436 -0.2383331612029942 -0.22835680446076811 0.09947167466373606 0.18940848581146275 -0.155140457118589 -0.05903292242149759 0.14363552723963566 0.23331223833999643 0.05731370864042642 0.2607770683414768 0.20264670430875417 -0.09979217954140951 1.0
0.18413460033011686 -0.12580770839482144 0.14396330343042085 -0.20929664233577658 0.2335899302318906 0.1555822879298452 0.2378509203075753 0.23068997632720148 -0.09032758563005444 0.22853589976224692 0.169748640531316 -0.07886885767746828 -0.23690505740794673 0.0822270861764585 0.14571800454248696 -0.2469706610933413 -0.1927816014419303 0.14301221545356457 -0.18781211045414173 0.017860487312207348 -0.18077654362389659 0.044027322454397146 0.19638099513915525 -0.14437681813671818 0.23179286220131948 0.014560919708326493 -0.16352612887377801 0.05759076475861642 0.03872663803231776 -0.05726371190555376 0.2425097182867448 0.05870834997740519 0.16194733800315508 -0.06651843743253846 -0.003920126483147642 0.08422407923826654 0.009415761641165418 0.16200531319421668 0.21359834700484243 0.09299194410453093 1.0
-0.04355373095531401 0.0725228467796117 -0.11317061956383856 -0.004354893423626213 0.04545926660790989 -0.1422989792835613 0.016222793482734258 -0.07874315731984609 0.159056096578735 -0.13656904389619381 -0.019563603982551046 -0.0002445747578320177 -0.2517275461633647 -0.014707035468351212 0.2868763823663094 -0.1486797734877689 -0.22789955885123533 0.2521833773401859 0.26911411147467 0.15672108371399043 -0.07821952174177416 0.28920747129087965 -0.057777388006322115 0.11966028573089577 0.23231831421038293 -0.2238430215166695 -0.02486158698616678 -0.18169483581033974 0.22103685991271296 0.15617790305469684 -0.08334976704446971 0.28778314638550595 0.23580381322381136 0.08032310571471152 0.12429953601477481 0.026923751384353867 -0.021855416156313288 -0.09733827419514622 0.12453585701607302 -0.12069689629825017 1.0
-0.24277421966193144 0.07640208202633648 0.20711460317547306 0.12319916360809467 -0.05589345219650889 -0.018443526375363263 0.2089385477954219 -0.07973810790247592 0.153826584312335 -0.1883535390594348 -0.18741594300443348 0.16007667265193692 0.2999718111356308 0.07276647796147818 0.3033641602174655 -0.2826453383023674 0.13230034161216273 0.1020585700715478 -0.16938313881249611 -0.17564816632460392 0.11458309946656182 -0.09490248503224749 -0.0776947029959812 0.17713527630913373 0.022747079764025808 0.04307184251382948 -0.11662142073717442 -0.19326739381488664 0.02284630872981492 -0.09561069122201712 -0.15830398577244112 -0.23193820691302128 -0.2671250614065671 0.1436064288500547 -0.05972096490598902 -0.12058658479417815 0.10036330053885172 0.1367642799466543 0.06574908149049134 0.06740743966967207 1.0
0.21613220749945983 0.026097425850145798 -0.2458438599685327 -0.006814164219853768 -0.13924526705716894 -0.13925781340018906 -0.22522739603845907 -0.1947635201881065 0.17432207369728642 0.042333716808388905 0.2589228829867065 -0.06363904838411848 0.23140943519156304 -0.16820937175532213 0.24415436666064386 -0.07213950567125747 0.1059186286827474 0.07814723781615027 0.12874031863678195 -0.19133579840060302 0.20043934491011414 -0.08434503126723815 0.06578879496145808 -0.2105997897052755 -0.0022034925490994196 0.12759405469270427 -0.0745329626978524 -0.20725015588548512 0.10603435981871494 -0.08539817605214084 0.14081218755491806 0.03350335102616906 0.23922486282483346 0.194756724984092 0.06862212851495908 0.12289720555088587 0.2271070264342521 -0.1595565957388264 -0.18984458880180002 0.1262494674109156 1.0
-0.06927975710701174 0.07579932573009 0.16340504860749808 0.07788498141059083 0.2581327225982158 0.0013223986132800583 -0.012727084337981974 -0.0937462332344265 -0.04035377827970591 0.1287556944275342 0.1264982871628132 -0.0473099813820112 -0.06529055044348177 0.2028563392239392 0.10756732908125456 -0.07611581701322849 -0.20466326326979145 -0.19927873124879164 0.2635386100780879 0.04390416566641636 0.14160508809216238 0.07852768760447805 -0.03788068573640899 0.07397049438372569 0.2732953395233148 -0.1294399575746556 0.23405195354892483 -0.2228309469349382 0.033220655371526665 0.1917566835272703 -0.22013466711039653 -0.00034255785704357804 0.2620547406558819 0.2462050807553808 -0.032994820657779464 -0.21200573388561725 0.13350193854784798 0.12327456618383846 -0.22177530370551699 -0.23671307124353727 1.0
0.1543555081685972 0.09501079896371445 -0.04051957242370065 -0.26341809456563764 -0.13269318929791007 0.17758846814096585 0.07695487569231416 -0.034642118976762885 -0.1518683947312994 -0.015492184684602912 -0.04231976702729661 0.24779156948149095 -0.022289428045743156 -0.22299395648229353 0.03014517175250206 0.045217406763497406 -0.02936258022922116 -0.15620281690365315 -0.10612318842279615 0.15162203274685399 0.18362523725014013 -0.10708106802842686 0.26378690689391554 -0.16684331885639803 -0.21037044217325487 -0.18597802193128835 0.060586143810425826 0.13102394484214144 0.12794791166208175 0.05080791830429043 -0.1971555883509808 0.1299690230486766 -0.09042454553902304 0.08506212673940168 0.19366811340712667 -0.24963850800114706 0.22789027849690702 0.2559312742242152 -0.15477880766262583 -0.2589078974763484 1.0
0.11480442768702219 -0.10677839296856707 -0.04094143204339051 0.0685630599381882 0.011446679967811867 0.02873167684392172 0.17107002573524352 0.22213381461603485 0.22416607729262827 0.09379475550589866 0.2370433382824134 -0.18673143555327026 -0.11789007088826166 -0.045416945504540805 -0.1325314457150181 -0.2830138196717579 0.16745923487491904 -0.2716976052292933 -0.12941854107410522 -0.06292907310550061 0.20131106680514552 0.12910869898048205 -0.10027762059028479 0.08881672008373868 -0.26299863654700395 0.19940144418847489 -0.24733625428966483 0.15115263087570224 0.12482894413833862 0.008887601080307788 0.07723937187030103 0.20286403276023313 0.026595846870908033 0.188759668595456 -0.16838192303532273 -0.12587096462312403 0.2728661147313144 -0.11984601245038362 -0.03542788399712473 -0.041197740335469815 1.0
0.19683430085674836 -0.01449437863000925 0.1531207670646613 -0.22912381683453745 -0.12226066408558509 0.2280766576468892 0.014424993871125252 -0.14965716387365177 0.15775400659773575 0.19197009162363035 0.057179836347533576 0.09664421249854394 -0.04423806299243622 -0.2164970841944906 0.11645890018341096 -0.06799032553873814 0.04380391933458135 -0.09976548245508869 -0.09647513922505559 -0.04449163490787556 -0.24851929492517214 0.24937836977205655 -0.20613109454497933 0.14518790368521164 -0.2511304975130396 0.15021212708767023 0.21149853637054516 0.16734102051917898 0.1693423231191208 0.23250818893628525 0.007848317539985612 -0.0900190611771747 -0.07777863589934712 0.16461276568988792 0.14197594668922425 -0.05127013089317998 0.14431472346728524 0.20318820266567703 -0.1631948259175181 0.2225862291112528 1.0
-0.23675319606797054 0.25122477334287646 -0.1685164062241948 0.03650472836069234 0.24308357317667278 -0.0028041256912959113 0.22781272352210732 0.19850306402566056 -0.10749155892478882 -0.03081766853201567 0.13104351478149004 -0.2469779062828662 0.05564947555028446 -0.10307537495096164 -0.06917533753198231 -0.12224515152234433 0.10501521745823604 -0.19548530862187327 0.1372149587812949 -0.029481735098808082 -0.031183376084987724 -0.09727768553376924 0.14335804185604462 -0.15402793505225149 -0.0030145155194831433 0.1911823356741016 -0.23213704362310403 -0.2030467090871547 0.25619901925317534 -0.1801669950093182 0.042662724527265924 -0.1524703526979321 0.0744031663184833 0.14561054098743026 0.24655722841503905 -0.12046382345027712 0.09869049944236288 -0.20450921894419238 -0.07278674936470331 0.19795166743499304 1.0
