26 13
-0.19269193858165323 -0.25412943303016167 -0.22257209648094048 -0.3420286606448745 -0.23757931563021392 -0.5040997844367145 0.1686576230316697 0.42320539221368875 0.11225801354414582 0.155048307682685 -0.0720176847800848 0.39835836355635484 0.11462814441726073 1.0
0.4383276602397269 -0.0699048607900609 -0.054635684145855075 -0.1228078904497521 -0.3400915093929209 -0.18692319657994685 -0.29267397402045797 -0.16846703177625397 -0.0392483654081024 -0.44078945356259935 0.21984487168584627 -0.2579645767307086 -0.45777762910499736 1.0
-0.3127257065533982 -0.16150921275378316 0.22480409593917935 -0.045723419711241955 -0.3519080206198932 0.4556031861582963 -0.09861133304883365 -0.43846790580093825 -0.2667013019934451 -0.12454577986376926 0.3306442734786737 -0.17874825928632504 -0.24935970967434481 1.0
0.3132438912021976 -0.47479883707012893 0.1832370605599028 -0.3790842099684371 0.19537736009917922 0.05196199280307076 0.01635854865122657 -0.4367374256566734 0.12684982117579746 -0.28619603138424565 -0.007514140693322501 -0.37823503807870396 0.1617617873898717 1.0
-0.139667330029653 0.2936295225531297 -0.09041165104126339 -0.343160417141368 -0.3867622090264789 0.38883110603445153 0.11189606354284318 -0.3717686900310347 -0.09949601554006471 -0.19045843591117861 -0.1789332684883859 0.3316048982533068 -0.3587217341625231 1.0
0.3751152340560533 -0.05803824138979231 -0.20700280785191982 -0.06868518886399279 -0.2733831072832187 0.16179680221831805 0.3555376875250978 -0.2471591983159479 0.36310054278610554 0.21067405314479082 0.37395464899697173 -0.25191406831951724 -0.37471685684668155 1.0
0.11168711051621714 0.10216369315135052 -0.5689548767171388 0.06815209631144938 0.45905122934644055 -0.2977576426346578 0.1510135930768311 -0.12057309984292666 0.027773871323709284 0.5094121847373214 -0.12537672214726667 0.1360230868836656 0.132324684219952 1.0
0.04922402357639536 -0.3462241325106936 -0.16514791158059197 0.24332104348326355 -0.17841515826855112 -0.44913956304498764 0.29277726474997695 -0.1454172912442909 -0.35336221069409973 -0.3427580616848274 -0.4191402204972698 0.12654098913229114 0.12947881820503948 1.0
0.3281667860167923 0.2536506478018887 0.43084947837548404 -0.10175056271697948 -0.18105173992909568 -0.25152576253820524 0.22682949483707918 0.43273432051031624 0.18636480115291723 -0.26506355677154836 -0.08341974415784957 0.3287825286268611 0.2778139173715213 1.0
0.24878078767066264 -0.024133966624907913 -0.0987482155210969 0.10395344791205643 0.12661979555270703 0.15089976566580937 -0.23400218461548902 -0.33487563561845546 0.3708506702310057 -0.3797036333365471 0.39811160264933426 -0.38290094744440367 0.3527818926793308 1.0
0.016663886015452104 0.39066268419523886 -0.3419782116913796 0.23990744317814386 -0.008920785849035566 0.15279555673895245 -0.4430451984955263 -0.10905786774409984 0.34434686141790244 0.35931159151782005 -0.2833446223381852 -0.32369396890868857 0.09082969353085715 1.0
-0.215432045244485 -0.041149003026229695 -0.5094576811265493 0.20325688564325833 -0.2633287788955656 0.2294335971829125 -0.36888590600847204 -0.055683198250269884 0.002430352022565734 0.3636708478886882 -0.2880032301822992 0.20377338005405302 0.3648893095890512 1.0
-0.37595538002847 0.243728549388266 -0.32410150275774324 -0.3392284598506853 -0.20178396265491771 -0.08128200847873988 -0.13413078633437642 0.028499959225581357 -0.18652113658609615 -0.11693781250015907 0.3979652477350369 -0.32883089556415 0.44501537468342156 1.0
0.24223797631369579 0.3186342198487694 -0.38611960022635256 -0.41060097126318146 0.24824806836623023 0.32189025326196785 -0.24710888565950193 -0.09375013683828153 0.0855012089865077 -0.14908051810202563 0.3486504277178101 -0.013767514996959076 -0.36842508402274055 1.0
-0.0001443962480358162 -0.09317357450893009 0.04777257643909449 0.48477636422473613 0.25943756501550674 -0.31415901211657055 -0.3288289047569766 -0.30995246387439995 -0.39453663886689405 -0.11402721332780838 -0.024065334554480736 0.40003358499160013 0.2335770409426149 1.0
0.13802732103109658 -0.37070394796243067 -0.14000440342304898 0.2576081899028846 -0.20894999150366936 0.3461651801081265 -0.35765882161818 -0.39597494161559066 0.20822891168746907 -0.3408166239571988 0.2080259068935111 -0.20686317607321195 -0.25253714342966654 1.0
-0.12357027739440528 -0.3512235095506929 0.06376759459390441 0.0024782509536649595 -0.3911755143258307 0.14621791333151948 0.300775179894504 -0.38174103022983763 -0.3862861498945076 0.3901134868519336 0.10862785251828029 0.1421987036956352 0.33657702973810155 1.0
0.20264063122774487 0.07378912521526852 0.3980322985441591 0.45969993278465865 0.16458503384576373 -0.05600114256125997 -0.2685841584042394 -0.4343611947298027 -0.04045646654779166 -0.1567985078225294 -0.2530932252305981 0.1962662076066289 0.4048550840426833 1.0
0.2183689236748662 -0.41074182634212175 -0.400312414376021 0.06055550860228423 0.1958641460753974 -0.28312228656302246 -0.08457006319787991 0.31619709270351326 0.30938170338024146 0.33849750189247935 -0.00414997253200028 -0.39897327262683857 -0.1566556252871795 1.0
-0.3100692029782939 0.3044772298767847 -0.14315760793441565 -0.3475479978623306 -0.3689243591685209 0.044571688013892656 0.2892579991147633 0.17255810928265902 -0.16145889373335354 0.16490740699555811 0.4273797712011493 0.34720196825670296 0.24872189728908145 1.0
0.08519515740262255 0.45730084681599215 0.4166394951847372 -0.1170957873210469 -0.30392301028638685 -0.1420461396427482 -0.10584624894597458 -0.1018116826208975 0.32937664877508765 0.3751980021840218 0.3620147284693679 -0.024586555260617336 -0.28509787664570563 1.0
0.1675858839779423 -0.4091140884575551 0.42713930886347257 -0.4054579945756919 -0.014695557969186753 0.33678696534185626 -0.17914816253832466 0.08855678964684133 -0.33351203482965597 0.03464206748558235 -0.044814924746732744 -0.39668033757493176 0.17979058117443947 1.0
0.0002736109330758618 0.18901093545256945 -0.07665048419538917 -0.002592469052982039 0.4429584878515167 -0.1295934012335163 -0.24913009115481385 -0.45744981472097923 -0.10059825386856927 0.4471838756544331 -0.19277970263320707 0.401373189405207 -0.25632418659932543 1.0
0.27602032199127513 -0.44137708510619156 -0.07826306483569323 0.05359874705706486 0.3617854508766354 0.2230967299566592 0.20202875598138736 -0.18636387388458547 0.17658141665810964 0.22669502335129593 -0.2148878568396968 0.3950569801661303 -0.42305401966538503 1.0
-0.005405081130366763 0.34929341570603406 -0.11975495304563603 0.14726714470656047 0.4059210922191096 0.16739453264612505 0.26915941889605693 0.041801221532780465 0.016260636023495163 -0.40518914007981194 -0.2095716658682266 -0.5490177003304619 0.255275675789325 1.0
0.3668431079531118 -0.16147291623386315 0.437955010464769 -0.12394283988741693 0.4265442939243168 -0.3084970876976099 0.0880394029921116 -0.20452834475184295 0.24919859353641474 0.06325867915610917 0.03881517801069613 -0.223044227979526 -0.4337464690901296 1.0
