25 10
0.32011088555086914 0.4533432394193778 -0.43048551723001427 0.16184912583089375 0.17177996361222556 -0.08913694322773497 -0.0023818909803454353 0.47849045235069515 0.3825037408229702 -0.26033509072344146 1.0
-0.24427524478168128 -0.4018953335581526 -0.18469050163594214 0.3882899869416618 -0.14695843796669036 -0.40935634708719854 -0.2728554513779631 -0.38770460671326756 -0.20020092946067375 -0.37405250612297125 1.0
-0.1448811214504351 -0.2365977470325973 0.33711117080243513 0.2579648272531635 0.03823278462721552 0.5165239136362625 -0.4439592526274312 -0.32175758578421376 -0.35871133788744225 -0.2127930639286826 1.0
-0.2906936354508757 -0.38711617423469236 0.14096486242083042 0.11033720988250724 0.5279174911972474 -0.3573242897671386 0.18112020154108815 -0.525166243524295 -0.1175075075813216 -0.06930537483489319 1.0
-0.41084698194766794 0.5129288021442479 0.38108286066374397 0.5181533211927728 0.06952431942210431 0.04912985628979111 -0.09953142285151256 -0.33463104570649904 -0.09264895120320886 0.12917487211492656 1.0
0.4226445159617394 0.17463854423397376 0.3564430249561488 0.3149944674471317 0.17942918758678753 -0.27120665235914304 0.39498141817484234 0.4188517085525646 -0.35518788559854997 0.035305201520809903 1.0
0.042401829672906 -0.12697617778717737 -0.27656070011830364 0.11620116192503412 -0.48726538775018047 -0.2168462503190695 -0.38508504603994415 0.16348724936803513 -0.6152095488799861 -0.23267872148714505 1.0
-0.20660269375231485 -0.3997183423386536 0.014043270183772143 0.41911035651812806 -0.0580582262419508 -0.41984813546728855 -0.5063599797924442 0.21644366377654314 0.36738761533832437 0.06184420939749063 1.0
-0.1555398853863595 -0.18887197148728707 -0.37060787565240616 -0.37943349628364587 0.07710991418692131 0.11379430200708 0.5497683676391941 -0.20184574647260167 -0.21313464094934603 -0.5015040640008187 1.0
-0.47862009157351687 0.09370487207095446 -0.2309051299099021 -0.28934376975124443 0.2813932313086466 0.3558326730615345 0.3015661189149672 0.0873043220304224 -0.35109737555007486 0.4443789273745299 1.0
0.4887640117968298 -0.3171727659323986 -0.0789406391133426 -0.23395093918078422 0.2237030957618648 0.428138577825515 0.479807790405948 0.3228496381829441 0.13465155648870422 -0.11671481365295053 1.0
-0.13309776918679894 -0.619319923274399 -0.15876803785987134 0.1349667861772623 0.3222327364777524 -0.1587629728134889 0.20835480661593236 -0.5169086092579871 0.14137202323176054 0.3093098616983468 1.0
-0.17229100896370847 -0.2952601878922129 0.6600698425256725 -0.036420547753576574 -0.05771943351520471 -0.150396881000723 -0.3910584537452887 0.4192661663993106 -0.12600830385180353 0.2749161624442718 1.0
-0.2815824914575953 0.44517834495618 0.4044807573347224 0.22048541044872552 0.3040987029678037 -0.022440921160323063 0.10937180320624534 0.4063758027369535 0.2039888520727419 0.4456618563057958 1.0
-0.39803351543892185 0.5043348501362074 -0.06397375248365735 0.226273920731678 0.20607669461094597 0.5785361579624008 0.2317542810357842 0.07843326764539836 0.03562794229496728 0.3059743235297799 1.0
-0.3935596322346158 -0.34383453335737785 -0.2077739430549916 -0.3499846906389028 0.08250198286205863 0.09076675658863154 -0.45004667446598956 0.3155784656405857 -0.039638990577007385 0.49242372650627075 1.0
-0.48273116144584005 0.3804494705007305 0.44511355166868877 -0.3089773328948612 0.0564316072457661 -0.1766887889497879 -0.31466888246286323 -0.4182439511119465 -0.039383244428612046 -0.13688227581451515 1.0
-0.2692192219329752 0.2925672695503924 -0.39967427630183333 0.2017427519453372 0.022206245522468044 -0.46846353730762247 0.3028872175149292 0.40145708751571463 0.40135240454671006 0.08684654752391034 1.0
-0.08905412223700039 0.4906836804882114 -0.26893734898474614 0.035208181869875434 -0.5956334455103562 0.12654049230907458 -0.15851070798668368 0.10367650131644117 0.49018604400306404 -0.17545215431627417 1.0
0.022430191733516798 -0.47392220578706196 -0.24519848306670128 0.3920302224896967 0.35296663910532444 -0.3280477348164685 0.21213445676436304 -0.11256592632715678 0.26221323201910074 -0.449951084802739 1.0
-0.17054026465637992 0.5872538827859033 0.1474474923792029 -0.4975843796549359 0.18367061522502018 0.12102278841969735 0.4181524742358726 -0.20176633062712304 0.07116826774313148 0.2961594856938065 1.0
-0.24180636335732317 -0.3485751680766723 0.14217760184984055 0.5742408662073514 -0.10442688719235198 0.3574231379121239 -0.47842721898254514 0.2734327997921682 -0.16567764673606047 0.017162027056758556 1.0
-0.14649516004441923 -0.33060251995211254 -0.3795515463989882 -0.1335764625296232 0.07560427886793311 0.20362855805556593 0.7143285332802255 0.1755194736500655 0.27562405042171384 -0.20764763728635827 1.0
-0.25952791584758983 -0.1350917759772212 -0.5085479514886933 0.09530013391448568 -0.41599272164865037 -0.38494907850340465 -0.07385905253458637 0.3077215709605593 0.4204665373930189 0.22026521973151622 1.0
-0.06076749337659571 0.016550136250427446 -0.05107015508318955 0.44483775885216076 -0.5398278646208056 -0.15284149553946277 0.22649550525143194 -0.10219022167517162 0.47129377097818187 0.4437443996832277 1.0
