30 10
0.030075338319815008 -0.30919885760315563 -0.058958256950729995 -0.459651976393445 -0.06083424000476805 0.5312216293195909 -0.1365384021354055 0.36783348240774805 -0.3841470106193059 0.3183161463030353 1.0
0.3260279979460617 -0.3989502733813794 0.022538825337887862 0.5060717017119825 -0.5056360613890681 0.35336742573683955 -0.1275232226813285 -0.08974383707034338 0.26986726571087233 0.015717001514245547 1.0
-0.07439421986226308 0.4726654987490019 0.3283677817782327 0.3167886779025823 0.2904883798667278 -0.22542619058508578 -0.4123291287709456 0.41214456761161467 0.29216771401216696 -0.04930989141188879 1.0
0.3580925155490714 -0.2853598697659786 -0.018888094671350664 0.4498057900400584 0.05126683145194617 -0.3427801073954131 0.3888967985221354 0.4614465130664444 0.29854127698832417 0.11929164991778538 1.0
-0.133402997537422 -0.38299019233099046 0.5370623234510828 -0.28098818424942584 -0.3140016616921309 0.005648299598168964 -0.44451267665041894 -0.40377360502215237 0.039543435539232216 0.08552531744645021 1.0
-0.3347240971957928 -0.5752123039686965 0.06283682849665356 0.2973521335788033 0.13962390803524563 0.33016352540918564 0.3325031088830687 0.07601358820385647 0.43416294358662233 -0.17716430781089132 1.0
-0.25732368761780816 -0.2681049898962389 0.1284605948059221 -0.39514312371585697 -0.23297569490741868 -0.19908286275568474 0.15500020264618647 -0.36861490642049716 -0.4655550064273458 -0.46766321730470073 1.0
0.06240887528833272 0.23607820550580355 0.5464060671217474 0.07347004031417108 0.06686865451445588 -0.09657650888022325 0.0453735719944674 0.5376560460167522 -0.19327533122086535 0.5423358725205976 1.0
-0.3262268685573224 0.08469127584326258 0.23910286857637833 0.3049548756435801 -0.3357178640206 0.4249707495016203 0.33071965204926923 0.04481558502008436 0.4078886818441264 0.4064136270399104 1.0
0.00493094119476545 0.07035443281657895 0.005488650885903733 0.307968996268132 -0.13972654340257729 -0.5187316627563728 0.46263056501442185 0.46274955739500345 -0.08330675396390182 -0.42004840073851324 1.0
-0.02316722200853676 -0.4366959888267532 -0.07701130089876765 0.3933520430462721 -0.27839621914969553 0.2843644282580092 0.506660049956094 0.3253043252587642 -0.3508984763005144 0.06386461550256539 1.0
0.2750595926286175 0.18945814640405723 -0.2799819340237163 0.49920754375614484 -0.4222494161420243 -0.08067860584144558 0.07322556666315543 -0.5256337627738089 -0.03424874610301293 -0.3053200885596827 1.0
-0.13990060815117153 0.461249682354647 -0.39114349883693283 -0.01195742540134996 -0.09554731001075202 -0.4863149191461969 0.13381815077562828 -0.2443428740174876 0.28101770664058656 -0.46078970867621494 1.0
0.2570162216547706 0.5330677844657583 0.5335001432830114 0.514472059898365 0.05422135583597789 0.2570378961554102 0.0497266591318323 -0.05593620203713782 0.015614440719673156 0.16007388949351092 1.0
0.16509052851433997 0.36838531411962466 0.3144343785125728 0.398898979576908 0.3761930170518179 -0.2713980719008355 -0.15569972551269978 -0.3701662573249481 0.16046755175935415 -0.4205408495894113 1.0
0.310254078016552 0.5498746317254771 0.05966049636490896 -0.1652677148965599 0.30827123593026307 0.2244157793418061 0.525205492587834 -0.16848216439602637 -0.34476067612192646 -0.04502148555548976 1.0
-0.44885681115040055 -0.043835822468815046 0.3841408553185024 0.4621384796568985 0.1689089325566855 -0.3921278763573902 0.38368136414644916 0.2486121910344253 -0.14914644633715723 0.14802445931243896 1.0
0.13156626279986708 0.14895600264961945 -0.540741106840188 -0.29354887302324456 0.24699960163772355 0.5121499453794788 0.44618515986920965 0.016252834994538917 -0.21036000482703482 0.12258666062200696 1.0
-0.23653347068586844 -0.005843442501510623 0.14916290626596593 -0.41624880128264075 0.27334600232330963 0.32667257550558304 0.32299702743548725 -0.3209969483070278 0.4720260262713886 -0.3699965346383064 1.0
-0.19243361753077803 0.10467008176783947 -0.19567535394645624 -0.43442234761599735 0.12694150461305354 0.3630324547623087 0.3068269531833499 -0.1994183574178126 0.4965719802500868 0.4433970632827921 1.0
0.27626204572637636 -0.11310335353739227 -0.37544180547026607 0.01891880838446459 -0.5077671564758479 -0.09211093871682285 -0.12813796951627163 -0.42587952000359014 0.296845433448019 0.466208769252752 1.0
-0.18614287930325632 -0.10369985493442743 0.17568495107178395 0.15904616239212577 -0.38663622914117624 0.23248209730176447 0.42431659945022887 0.41479924456336315 -0.38853532937434787 0.43799325735084493 1.0
0.4395028637829654 0.3055058337322912 -0.09088396464561882 -0.10867828079378529 -0.3773590259120988 0.08366516303702606 -0.14626106882412762 0.4560760355188339 0.49471019353536333 -0.26438047313828067 1.0
0.389838425075742 -0.3723821853945761 0.014490749933999741 0.05483630599077972 0.3472547625633492 -0.3974626571693695 0.2686986549147838 0.371855808468318 -0.3027080321010636 0.3542177465015799 1.0
0.1931332216030107 -0.41358683829709614 0.3573205024719055 -0.2652508848858225 0.24436473437831285 0.015241506976504027 0.31827413597780035 -0.17780698225274616 -0.47968063868293703 0.4131050978152589 1.0
0.18707352166795388 0.5158126563523816 -0.07253725590820438 -0.02833950055714296 -0.6089362424086842 -0.03537934579781799 -0.10010800002503562 -0.24618611739390184 -0.26325678330349067 0.4253088581269406 1.0
0.4562948602686768 0.3042899513015575 -0.03802629925337947 0.10063919752662773 0.412669512276327 0.06939751531500117 0.17545960107353253 0.3175330926572901 0.4468095273394152 0.42575127334940266 1.0
-0.10970913308100542 -0.20368006740012298 0.4063283468235358 -0.07997114262297732 -0.4964013926800421 -0.4223207070842107 -0.12626519460586497 0.4474191645467345 0.3088013591142632 -0.1967892713731099 1.0
-0.226806240858093 0.48691164831059575 0.32011467208364897 -0.39150349554965974 -0.3537090093076619 -0.15207828293135905 -0.011879703027159736 -0.10072761715691521 -0.5358368665474725 0.10040612719430582 1.0
0.007884716821627752 -0.1892143416050325 -0.3445134555533977 0.4962665888925392 -0.26362012359147885 -0.022419240750245102 -0.18042333793309615 0.4183574748057768 0.5631494114644529 -0.06674358932127712 1.0
