20 10
-0.4733819281071716 -0.2925608586850339 0.5019305148472208 0.1807793804820894 -0.13200390278013613 -0.5894560512467402 0.09745046238121827 -0.15279590001532833 0.06767507379206243 0.05827268632534533 1.0
0.05218062354802505 0.20907439031192823 -0.43150498170583906 -0.20182225970348178 -0.5054930331747396 0.4074801199866056 0.053538919792656896 -0.1558869628509805 0.5104765074978158 0.13160405576549145 1.0
-0.36537525984358 -0.38421660342818115 -0.40831369663624384 -0.358790656406384 0.10551479821100107 0.29002242571314135 -0.4309089464451912 -0.12451920935481138 -0.006934205008095314 -0.3562943927106919 1.0
0.10735265092329868 -0.39807818469777784 -0.3942884092762935 -0.18614479760491523 0.31331163561921127 -0.4520932564583306 -0.47553064466999 0.007659555122704257 0.08600705092973245 -0.3221151388531908 1.0
-0.2637971734111953 0.42174075713525866 -0.04066527223171556 0.3361480456235055 -0.21615361223604357 0.24976584987393838 -0.014337742245567045 -0.21703954659265584 -0.5350308880963661 0.4418387278499789 1.0
0.06316223166033898 0.40805001247027056 0.40665742886549766 0.012559859402368324 -0.5021535209344621 -0.2264183171862658 0.21293770563495837 0.43389165130054613 -0.14079009719211155 0.3273041541653516 1.0
-0.21302818683045513 0.0163058039532281 -0.1736677963484031 -0.5527620883346674 0.08091387537802182 0.0884713303818141 -0.3816937698570321 0.20727653165886056 -0.2558827751592997 -0.591728621843588 1.0
0.44918103342775245 0.5203420093382015 0.009363281985905874 0.13264226262880782 -0.048754521058928184 -0.21871860435585694 -0.21993340061718686 -0.3613927850737151 0.3991587249947328 -0.34825419864944285 1.0
-0.15770907921125596 -0.22475594399703713 0.37003180519641726 -0.4339255692909526 0.3571020181577329 0.39640448931700895 0.1649939106157256 0.008006708944377093 -0.3203517287041222 0.42991508102860054 1.0
0.42668763199421106 0.30316983591470786 -0.1913145934131906 -0.4205535059411252 -0.3843578694327049 -0.02719676787347659 -0.2784332156383034 -0.2774199527366279 -0.04600507884688494 -0.45550543495988766 1.0
-0.10211769496840967 0.15052755551277625 0.44645168343517166 0.0794231126480272 0.06368095747777766 -0.6215340151472101 0.23171109214910726 -0.2594253012780683 0.10432260067197066 0.48892921413173507 1.0
-0.639254706905181 -0.38525986908388665 0.02493135446289557 0.08762001277374105 0.2928733063409398 0.050393205107391384 -0.09077383631531571 0.039756637455753814 -0.3293778405868073 -0.4774986112653383 1.0
-0.08071974855926631 -0.4131915724269298 -0.10377191192004749 -0.42617287415059496 0.30210702162887937 0.36276938423698524 -0.039226885308145186 -0.447066927010252 -0.14676124933641416 -0.4295909561213574 1.0
-0.24502082869081518 -0.09312180152882225 -0.0458586112859244 0.6335607177854778 -0.19744767682547096 0.08737229190905765 -0.6404802970632976 -0.2057009399282866 0.0849966388330702 0.14635268885115368 1.0
-0.24989957703996665 -0.025280721545825224 0.5170840516437477 0.5119428006193262 0.060386166840401975 0.1886299740863691 0.27421735954872367 -0.17396270640087133 0.4151360866619231 -0.30070887703629334 1.0
-0.29449279607153295 -0.007010271503611126 0.13169469889649732 0.23116303858914086 0.1548271487682715 0.4064206057596755 0.20669305010580152 0.49634941256854415 0.5793985074190245 -0.16884449510679048 1.0
0.4978724801170212 -0.39507820453970843 -0.15062298414337594 -0.07205222303495008 0.5206815498632144 -0.08225755007605191 0.5342321883252636 0.05015725518479383 -0.03745812382942281 -0.030966536769663818 1.0
0.03012775444677798 0.05115690579154979 0.391704663023383 -0.06516706189639197 0.1334455813236449 -0.6047990939001303 -0.5043921421424032 4.1521599084803065e-05 -0.33405650300291406 0.29866561783465 1.0
0.3226192275343423 -0.3915551957584241 0.16715622656636975 -0.261760689987521 -0.4489286087335444 -0.42448189622469046 0.2075480822220691 -0.030816549726224014 -0.43558154519437653 -0.17510732466154275 1.0
0.4119098040593713 -0.3500203835862509 -0.009364591385097855 -0.13892335108038872 -0.5501243292235882 0.299312661879616 0.07608972445716124 -0.38703781720843483 -0.18872712461439878 -0.32403388480044787 1.0
