32 13
-0.578610019125257 -0.11962000918712402 -0.22110443269999489 -0.19493926976946116 -0.3942026824390014 -0.14457068767284884 -0.416504102047983 -0.0878755206545364 -0.32682803242454544 0.03701699086059158 0.2578776979533128 -0.15015150744559683 0.09636179067420649 1.0
0.03992738502921389 -0.4886629397527715 0.49824908291445086 0.0038049443374617085 0.13268408426012152 0.4523552159805659 0.06590872410192797 0.21558711939792574 -0.08204904063829414 -0.1675283596943887 0.4378372978176913 0.10816587496640542 0.009822584562729412 1.0
-0.08911460397732437 0.08910469772500597 0.24818194607403884 0.06499452547389378 0.16276578954476142 -0.41033613333274993 0.46280160355038125 0.3417131601666718 0.4203895911240976 -0.22502486487801077 0.06755458435843642 -0.35351742059128144 -0.1886184884626094 1.0
-0.45002406694491404 -0.39424996972703336 0.3204703855843826 0.08138706110793517 -0.15528209815663935 0.46663121395278095 0.06997409082724983 -0.1826591077218945 -0.37976880572607485 0.04040671512520209 -0.15330481546293132 -0.21529436777374475 -0.19207070639567042 1.0
0.31458098292978515 -0.06576826069991824 0.18563886420466186 -0.37637126517829417 0.4096293691860387 -0.010410449046439764 0.08245559069311308 0.33096418902194824 0.1100879035687675 -0.4444331496622678 -0.08579631824395262 0.44646107671200497 0.1415158479951063 1.0
-0.004807254843803927 0.17994609519436805 -0.12934667797797522 -0.44008064721944 0.2508070672536587 0.1045459815739043 -0.23690329576951094 -0.08396895019622974 -0.1664637884517225 -0.24132984915216535 -0.5195372840430843 -0.5025511370069838 -0.10844273510760424 1.0
0.2132424465980973 0.3595070338392346 -0.4323259703348407 0.08984695296554913 0.34840499705786554 0.39279062114164387 0.29827349643356 -0.2909956601885311 -0.3359583680006914 0.0691952965059296 -0.23092857768595096 -0.005874754101299555 0.09984753494598585 1.0
0.24589106731712443 0.2876475828520574 0.032239146615134696 -0.08828034751790656 -0.336978765815744 -0.40412562317849443 -0.3833977596353288 0.14077622172159082 -0.3109112259646576 -0.2120811339962736 0.43425463583192314 0.25368723192450454 0.09849454773707 1.0
0.43784265185206306 0.21180567925230903 -0.043149421858208005 -0.24445017240743136 0.3442431890686932 0.23677810197368063 0.0978926904140419 -0.2527490524873284 0.16862461988739086 0.3268118290131091 -0.3755203258008131 0.21523715345830932 -0.3622144676310855 1.0
-0.14228563780247444 0.40611554323307925 0.25265765551604413 -0.24625745155572848 -0.4934004078004453 0.013519419865602188 0.39750530819322233 -0.4385480205651563 -0.21157741864913346 -0.040634540258726946 -0.0012243272915963244 -0.22353244459998833 0.0005858814485325411 1.0
-0.4498764609493415 0.28844525470425497 -0.05965591400582232 -0.10624960389290355 -0.00951241846021336 0.12334093602986845 0.2436026646456899 0.004385449962365356 0.3352554859561775 0.458845297952641 0.45609375383547646 -0.017253755456316175 -0.3060118998297973 1.0
-0.30063070890907595 -0.20235727103975068 -0.39854063577033405 -0.09859302254499229 -0.0173069728434718 -0.046082987862853045 0.38123604794405197 0.3103565221292796 0.18591871582896935 0.3150553302382662 0.2648595039890544 -0.323237867667403 -0.3841527237301646 1.0
-0.17001007058799286 -0.11504015894286913 0.3487401813960046 -0.28582475593197954 0.4639951332544196 -0.2800716170622205 0.19979549095288088 -0.4252576054570536 0.08655095098763116 0.3346949616332578 0.1639524547347333 0.3053745413221977 -0.02017836893133439 1.0
-0.4027408822723137 0.38939221672079605 0.02717288893064297 -0.3028857315673264 0.07085582235602265 -0.08546078958224704 0.2612005259633687 0.2696478703399694 0.11252458403757647 0.41437452486546456 0.3096651360494279 0.06944634884278945 0.39414749452618175 1.0
0.36768779440223853 0.1553471569161047 0.17471692616922568 -0.27950555535559807 0.43251870318887903 -0.4247953921135586 0.34228218907472296 -0.20259413101024118 -0.18588601976630442 0.15919753286069263 0.25331090382462895 -0.2665020159055488 -0.10588365776971294 1.0
0.37377426242706424 0.4229714815845328 -0.057708519034421035 -0.10795105451709251 -0.11279126734126443 -0.08043663813341058 0.33333605592007726 -0.3941954680965384 0.3606398810986398 -0.3951175494554713 0.2766213978189641 0.079491760059589 -0.1081294030812562 1.0
0.37940612190883954 -0.18367306122680271 0.13063404607958623 -0.2538369844275776 -0.20916084594620624 -0.42564620468310804 -0.4386311244421316 -0.19507683998794906 -0.28963238389480617 -0.15905482286743305 -0.27427769649924016 -0.22996714388007977 -0.21941524143247487 1.0
-0.02964947575229718 -0.005187813652305062 -0.19342981449489363 -0.5472334712934368 -0.03151896953310334 0.00359654803150196 0.6170530618816711 0.11060926790700754 -0.3803682600431235 -0.020772630889015528 0.09430840397197875 -0.23259905608449716 0.24517595033294473 1.0
0.1681561761167252 -0.2669564188363062 -0.30797113565520723 0.4410274919142183 -0.14911826812032947 0.48948015739275746 -0.2791521179778101 0.20031800558716423 0.18075016321105666 -0.05787968504376296 0.1537373341928274 0.15201095096464956 0.3853087522664745 1.0
0.30507089283384337 -0.06641367657872238 -0.19452075012409675 -0.3348062330485479 -0.4138110495027364 0.43086378652251517 -0.23366374736640952 -0.39879350999189594 0.03541291870285937 0.12587337568565174 -0.1569817784589978 0.360129425792998 -0.1031240840546599 1.0
-0.06419245299286139 -0.4360244803554605 0.1116754563456248 -0.2610143888593143 -0.44717805901027774 0.44771067297329653 0.06064889554951845 -0.005083056113477505 0.0360246005477627 0.4643403893220234 -0.13264096206845064 0.19059687726390695 0.2240854974805894 1.0
-0.3292769135003265 -0.3819669085309097 -0.34650956662255883 -0.3756167776931101 -0.1770727033073736 -0.09644107270758612 -0.07609814591263529 -0.39926702665498287 0.023633171393941322 -0.15210151658456336 -0.18419859590488805 -0.42508331239497654 -0.20085342686454163 1.0
-0.29611186059841227 -0.5082527369029939 -0.19627452049698563 0.3854175649436314 0.06920263757812481 0.16537487616436697 -0.18742208521155188 0.07620898026095933 0.179152428881259 -0.1559117978307513 0.3565366126132093 0.1890204752284758 -0.4178548259890986 1.0
-0.40775485040267756 0.42858563062689764 0.18691727469492553 -0.08929182398747781 0.3046584727740802 -0.23527746243734438 -0.2007233419069845 0.15219915988625765 -0.00703040999201401 -0.06899977582596035 -0.3939918337607973 -0.37875204018819375 0.30334709396475273 1.0
0.2869072285051991 0.2940728165454377 -0.416947764050888 0.2574651937618999 -0.3788836133107022 0.3160412139075195 -0.27824450663174777 -0.1301378124419361 0.10102801415665293 0.3401947679735144 0.09898985184916136 0.026969778241822073 0.3417827677409435 1.0
0.28866228669436417 0.4700401226851836 0.41001959063650023 -0.0650560227825013 0.31357311016779355 -0.17319911053958223 0.2376708819203348 0.1613653248548272 0.09910787474629941 0.1440069792407461 -0.3462316537913098 0.34169677158967243 0.21293743283306396 1.0
0.3719669178032744 -0.3663170057499395 -0.3637124426255379 0.048033620339937626 0.3859532761399195 0.27225805724145336 -0.3486477015687639 -0.05745162928798555 0.27667043918821826 -0.3157402523943023 -0.003281913007154799 -0.19118887167657925 -0.17920884083412694 1.0
-0.0857898690401585 -0.41625332532537435 -0.3364381928094876 -0.31152962776280646 -0.20130606208786656 -0.08646137088100178 -0.06940033202363216 -0.4429950661783456 -0.24945588263446505 0.33931422923250415 -0.18206361424318468 -0.13687718949615102 0.3616991274017061 1.0
0.32740819024255313 -0.413977036199623 -0.4661090474019835 -0.08551698330382473 0.2582068358937803 -0.08870870404994213 -0.2796215501871971 0.13216329714975572 -0.1446846715019861 0.22744137681090626 -0.41149257214316204 -0.28721780781283157 0.04666153803653632 1.0
0.4393323428218407 -0.3304457190777667 -0.2555933235062435 -0.10483691504932417 0.4356346014970508 0.09888516014228735 -0.1351380449942821 0.171168456725267 -0.1695652037994994 -0.3932288921816595 0.3268965267174786 -0.24008683592447644 0.16270504867771807 1.0
0.4172287985419585 0.012658099678266914 0.15992165355964802 0.24481647878052726 -0.09020247690690847 0.07747335922097222 -0.11787775683092656 0.4295929023681118 0.40835242085221496 0.16011413233918675 0.10851690846838769 0.42651402303406577 -0.37628135326044676 1.0
-0.09206913467463461 0.17650199866294838 -0.07935528326801872 -0.5351823345992325 0.194502805748302 -0.24034249163086008 0.005683657638623837 -0.061803634692572315 -0.12440047679134086 -0.38612058182890346 -0.18389114300113285 -0.3484919510873289 -0.4983752641546713 1.0
