39 13
0.42893165850075965 -0.14180599705290722 -0.0510411759493056 -0.013380046486856456 0.41658956737099584 -0.28621834731121215 -0.316971340989478 -0.3432423406293271 0.12686068440198944 0.2795899868731952 -0.2520243638082704 0.38401037869021115 -0.11885316133195835 1.0
-0.005104568986863997 -0.30307104428793236 -0.36980026547554284 0.45396107516995154 0.2674693072128746 -0.4447338636369842 0.1947633370979995 -0.25913670435374575 -0.24989816610601198 0.11960742368859777 0.3134366841505212 0.08555914164971457 -0.09251168397275329 1.0
-0.36415976437166003 -0.30934147998913175 0.4175326832720931 0.02553843127072243 -0.03625991313351072 0.39654145336744245 -0.07017741229325157 0.2741016204372644 0.1964110943049217 -0.011826493558075002 -0.3011622603011977 -0.33588084966026155 -0.3403842718500097 1.0
-0.40860457717786786 0.12888005879397066 -0.024552742059808206 0.00907093673423609 0.021961361013759697 0.02524447635455789 0.22674712524656 0.07170547161646267 -0.4817513838579592 0.39027676316099635 0.33527024215529067 -0.19071450957197292 -0.47422893768593155 1.0
-0.06573773283426217 0.23997218232064635 -0.40179775517611127 -0.08563144485447911 -0.25307590566860566 0.06478268519081057 0.18142333502583044 0.43046144637988076 0.409228213973718 0.43582343362757126 0.22984548386619907 -0.2665765552022899 0.039499689764947554 1.0
0.13074138232010346 -0.5022439849110595 0.16258515190071623 0.2611758791831381 -0.04923652608688176 -0.15310679446564843 0.42327963675641966 -0.05486978448262367 -0.19097849572771533 -0.16941180879457118 0.42730579389916223 0.4040225017806383 0.13027301599029925 1.0
0.3252075725871885 -0.508026785722355 -0.2857468361812034 0.07676877180009122 -0.36227285538505105 -0.11248384934195356 0.31567487885063955 0.41291426613585697 0.2433893219797298 -0.15241976546706537 0.17568517797628028 0.14568581394917646 0.0011302550239175326 1.0
-0.209729309177232 -0.3919072672072218 -0.03651487794852451 -0.0011929685343992798 0.3687078156341211 0.3021349093707333 -0.40489584865047107 -0.009831491600244503 0.24697370808777994 0.14109849168074817 0.33983365578788954 -0.35814594368947 0.2918202539517756 1.0
0.15207449284767063 -0.3833475145904025 0.32627778793059703 -0.003841862091296632 0.33567319755372366 0.20741018599949407 0.29788775677075063 -0.2776958533223343 -0.36309915779684654 0.23734141781088977 -0.29701496749093764 -0.23777282787953477 0.2626266130648629 1.0
-0.19957819360574153 0.4998905575454694 -0.44375187805548005 0.23328901284280087 -0.3463679121492485 0.07861966215859023 -0.16797965731715084 -0.22215681733612205 -0.3921068921074741 0.2388017154837135 0.2022580792124689 -0.013292517746385221 0.057937793591486396 1.0
-0.48073441481706036 -0.1363813563307141 0.07108301648990015 -0.35830236962471995 -0.006654087731766133 -0.22069382274956356 -0.31465022855348923 0.4022985523513044 0.2454067116423192 -0.16840720076730914 0.31426735766743524 0.07086600842701349 -0.33895549895642346 1.0
0.306290974714048 -0.23323764025494878 -0.47694691881717916 -0.1247885760465187 -0.3320270053974879 0.17922092932416211 -0.26701469727471205 -0.17267196499420506 0.03840258987525438 -0.4666453964452849 -0.04929473295761786 -0.3608457590555898 0.11570930196369437 1.0
0.3327321109243618 -0.01919679240480584 -0.2644406282579261 0.10321629995227878 -0.35041024328965864 -0.306134623674562 0.4515129737168797 -0.3983002986694499 0.08570456100373679 0.11077305614222739 0.12532155470840944 0.29702613455859844 0.32523772363164655 1.0
0.3187553203439208 -0.07375267682065724 -0.14285090618119237 0.3410516897553645 -0.2531768880057345 0.07080655737756818 -0.4377481765192084 -0.23885900400257648 -0.2555267036491848 -0.40368448271558044 0.28490254473579196 -0.20977539194739964 0.2915707872519974 1.0
0.1717021734483106 0.20044580929392677 -0.15370738819349855 -0.18038393811890002 0.36829061775815014 0.1426854589226718 0.4189167955711451 0.45656520563486364 0.009946540718180113 -0.27234990678198895 -0.28168373970920485 -0.31205451323015576 0.28851026513476963 1.0
0.1857638352280048 0.3988692444861136 0.4607697521185464 -0.24144633615536532 0.24888161944959597 -0.31347635742647806 0.17873271596068133 0.12185324150551313 0.23761116148321465 0.4639692519370898 -0.21623402650305926 0.10098818248663116 -0.010229575004399562 1.0
-0.07458614467752037 -0.3328482354202074 -0.04869383659556937 -0.21158393072231055 -0.1960328139690224 -0.45968655222841587 0.4066430359513889 -0.25389328404390554 -0.2780752665322949 0.21952538397649013 0.0220108534585435 -0.009954740327215914 -0.4804667921125117 1.0
0.08119166072559793 -0.13638104481334792 -0.12031643633085762 0.303163178497763 0.27916648737502836 -0.12630955736809923 -0.16159110394272103 0.08444923621010407 -0.10620213292669267 0.54756776664381 -0.34752563508283574 0.30885753469983823 -0.4626190452026613 1.0
-0.42420998239862345 0.32406639885729643 -0.33251606836444364 0.33221994619384626 0.09957983690146487 0.2203045458158358 -0.001574826362417423 -0.28078469629017594 -0.08717314370020424 -0.027803163339065445 0.27013891213553093 0.4479027335693158 -0.2735562201070977 1.0
-0.02611036331609596 0.18525544479638742 0.40491884330782457 -0.3154907616706491 -0.43317908243512177 0.021657355345092465 -0.19707869604336142 -0.12880611302720157 -0.4086980039102224 0.4559986369576192 0.14484353012644144 0.21403575668696576 0.1272832446980264 1.0
-0.13005140230560697 -0.34309646880062117 -0.07252246554347967 0.36834968348311153 0.09116267410335371 0.01149329462608083 0.3194340982643391 0.4316389001048809 -0.07696563759792578 0.40614669783236207 0.31943472786195143 0.27820660644966083 0.2780667645873456 1.0
0.3375262928769854 0.3915619521136806 -0.08618901675652285 0.3516551436425998 -0.050875722880160415 0.23118803036977809 0.27782470598317843 0.3300593524568301 -0.2043077668914743 -0.23983687019020541 0.24511510579955248 0.41807672661832895 -0.15928092260014817 1.0
-0.4060468751098008 0.4398514522490339 0.0034106514123887037 -0.16552963297822168 0.028007709533229463 0.09742561463651982 -0.10367549511859685 0.10757898546314136 -0.4873826742953123 -0.5006051472433511 -0.20257461117662134 0.1886966345926697 0.12983311210668477 1.0
0.4133630312622157 -0.35913306133208656 0.2670392812849192 -0.3734910263554292 0.04108504070949733 -0.3765412478219793 0.4455340632315481 -0.12651735662537014 0.17779068609187162 -0.11063046140672655 0.2614795440184062 -0.13753275711049348 0.015328109722619094 1.0
-0.06755348172416832 0.36920547611162113 0.44279516745854564 0.013015409951451028 -0.19562997101134297 -0.399875372722328 -0.40211490687218904 -0.39452121779698957 0.05620556493098929 -0.0024114675255685345 -0.261087686906774 0.2677386490723702 0.0660033956736576 1.0
0.3145112076641793 0.34797241960144754 0.19519519435465113 -0.1914760891200067 0.2944319743544405 0.08711821656404756 0.024338510868455007 0.3618536254340225 -0.3029060590258521 0.11112650207812538 0.12004044110919798 -0.4254282126902023 0.4241737929230582 1.0
0.08079383740280625 0.17540103580033944 0.2683164876431103 0.19683366113503445 0.07695652275187527 0.06498122147617606 0.3837161413355736 -0.3588661957742237 0.2786901012332661 -0.42480110445417696 0.008727060925692514 -0.45456217515678676 0.3177650580300672 1.0
0.47228612843532564 -0.029402896403376674 -0.17756775196588492 -0.38807488414260133 0.44321954138729347 -0.47709654965846754 0.07063599646848572 0.2317738400012343 0.08446956166233538 0.017001959267090437 0.0017377375115272136 -0.23914666195466106 0.2157714177978584 1.0
0.2026077528632767 -0.27030185277374197 0.3422874389495969 -0.2844304553346793 -0.16310190284790732 -0.2416417658163199 -0.3089730996590986 -0.23597838554599534 0.31481159399818426 -0.09883522655315168 -0.4409532427967472 0.027264536004982805 -0.3842195006046687 1.0
-0.23850464056267168 -0.15910367103409628 -0.23476034685378455 0.16397964984137695 -0.2299495287094757 0.5537120261680554 0.24717616631084072 0.15219483142155762 -0.4071452191862046 -0.18504898255684615 -0.1552895600306544 -0.26781636232457356 0.3101868595884471 1.0
0.46842195406937204 -0.450314573149841 0.002574977639115401 0.02617549639329957 0.1553638349407555 -0.37163463390160245 -0.401339953335474 -0.2998321587160453 0.13976071089802927 0.26767129832144293 0.08739714976768156 -0.025036294484149305 0.2538434735861615 1.0
-0.31043337045992103 0.008729273166978026 -0.0062952796141270435 -0.3507400470594727 -0.03713765673265224 0.3051870692487175 0.3435790893440053 0.44106005760759465 0.3268674726661594 -0.0469705710547465 -0.4398117662561723 -0.08532620136553291 0.25225832730252334 1.0
-0.08343125871597928 -0.1112458745682864 -0.2719137324369014 -0.43216468328025437 0.11361080490847114 0.053561953977440936 -0.20527342950337416 -0.3836935339422683 -0.1974517569401226 -0.29760046794731665 0.35991734098491773 0.2899896390157946 0.41669924936785313 1.0
-0.061856394391065474 -0.03546329348194018 0.3196120161641211 -0.04021578429579497 -0.1455366451048526 -0.13997843116186903 -0.4777286017688884 -0.28444093644476304 0.17022983733966876 -0.5215484931071079 -0.4459548595543344 0.05636561433857183 -0.19544053865539174 1.0
0.037078613445747144 -0.47801356387834015 0.3940293538021416 0.3712033479687316 -0.431013818551394 0.10027465275886911 -0.11344028584125794 0.03977564166400538 -0.18444812097394764 0.03437926297404244 0.3465672275821317 -0.11066359465432549 0.3150239937106455 1.0
-0.03172007709524746 0.2496440168221792 0.10335058433611398 0.068477185198625 -0.3464765737782268 -0.26061590306695703 0.3185607589919398 0.36099117138243414 0.20891510895927612 0.3278639010551639 0.45154258226497507 0.052481957638976055 0.379148606039652 1.0
0.2270247467657612 -0.3124202876611742 -0.297217147641262 -0.20256808146396144 -0.4457175905784888 -0.07121532166127116 -0.4554867406931722 -0.011520000666008536 0.2628836544133155 -0.2786632900908567 -0.25710344073046054 0.2933596261736409 -0.10593252226992374 1.0
-0.1079648387182149 -0.1446282875243549 -0.36425962212120094 0.4898322442016145 -0.34493620019928856 0.2832216204311344 0.12313077689806413 0.32748629359605147 0.27072064163039083 0.2534705782543462 -0.2923612848407846 -0.22401927816637754 0.002205758642396567 1.0
-0.3683591675319888 0.3565758675357192 -0.43011182034623646 0.05984739800805762 0.15163463195428042 -0.24716196318111094 0.35097304040392907 -0.3893302963491224 -0.14266970138347446 0.08474166812574391 0.05470064022386337 -0.15395591677216583 0.36812315137686563 1.0
