50 15
0.1687711826869205 -0.27947576982037287 0.34392505886423214 0.16973682399708967 -0.24336921781950627 -0.3141854603081999 0.3717573806415606 -0.24630742709314843 0.2743884438032652 -0.28221403516083876 0.21713559555855727 -0.30735401051581546 0.29313165889262527 0.029913363795835392 -0.07831637719224831 1.0
-0.11332323080291543 -0.3342203756744374 0.23367571872943627 -0.016366404487022434 -0.36834331387739616 0.33167623178440986 0.04490168211606686 -0.18820296646193563 0.20769645913740897 -0.3726120603315681 -0.44072865463893734 -0.31134369523717353 0.1105539163025538 0.10005036018104647 0.20511824556907376 1.0
0.4338316541540544 0.032159985692589925 -0.376920918682559 -0.07916363320086185 0.1036085680552213 -0.00844334684780143 -0.28480088173921886 -0.12343278730739202 0.0738482804394822 0.15203698623079112 0.31629224238744336 0.1572297822204029 -0.4531696227722373 0.1445056358040969 -0.41915505986394747 1.0
0.37624715341091836 0.16242439742311696 -0.33131492495311 -0.35895010448502934 -0.11505736642356185 0.24524099799837587 0.03194080014609159 -0.10650659559475652 -0.13567174276693325 -0.08807758330245884 -0.33217774021480656 -0.23189574406909022 0.37196438187186576 0.4146976792280364 -0.08415810812314835 1.0
0.04914624007129055 -0.3966780418349169 -0.3137478711027019 0.07850589910958579 0.1098144430459191 -0.2892532506230417 -0.07665320256800087 -0.41552917937411915 0.20033759246569652 -0.22447285032121525 -0.3610745873423536 0.0667954071617983 0.15509447357962913 -0.2017247995764035 0.4138315141406237 1.0
-0.29473720900197975 0.3796279067094588 0.04197058490962663 -0.26407887679118164 0.251259372720621 -0.2420110399724757 -0.36626098615801367 -0.16994517579743165 0.315735124928788 -0.3830998126579207 0.11033685222540725 -0.2848536389944292 0.036424674586726 0.07765956099539756 0.2562355201624697 1.0
0.18464661374402866 0.1961958436419431 -0.1293281788760648 -0.25187232686961775 -0.30759191642427797 -0.11046504581110786 0.39965884654223754 0.2125555406900855 -0.18670345392408905 0.28889813711871976 -0.033576895125627705 0.3985226120278949 0.3284103079500639 0.25023631523754025 0.2945937369158687 1.0
0.01753431916170596 -0.41718917530537586 0.026822787449648767 0.3224691532859442 -0.26313794153146336 -0.3616863100011705 -0.010918516990993509 -0.20387863586726085 -0.2587844373599262 -0.409233523871299 0.42825843138704667 -0.03555043742000694 -0.16386167393154077 0.1425247079430247 0.11367113673850174 1.0
0.3137192423053761 0.32527086545658324 0.24834735869760513 -0.15016536347804507 -0.09732566465286624 0.2511105385205917 0.07710566910166244 -0.06823958399182725 -0.32685387615748296 0.2841759474915496 -0.3859049081429261 -0.036712646071539054 -0.20626779467981435 -0.22013231165332328 -0.4467189964468756 1.0
0.40560749343874214 -0.017219301213094777 -0.3712231338295963 0.19571682064127316 0.42602193083464873 0.33036652283467793 0.055516675658913724 0.2944556430989522 -0.07613109232998203 -0.43140901027828243 -0.03386326841435429 -0.03375691060134595 -0.2312504096121367 -0.0583568341652993 -0.1660518491303715 1.0
0.0016750095627779847 -0.43114440170276597 0.23648242497154484 -0.3843855776268344 0.15992183350429054 0.33198146917773247 0.11360745792825085 -0.016018739843901463 -0.3369424353322859 0.35614498560143376 -0.1356838199803448 0.1736704888473007 -0.0513024513238051 -0.19697283242734143 -0.3620971070853898 1.0
0.08397426763460784 -0.21815445566882902 0.14953981129118277 -0.21998650638548958 -0.40814549650129406 -0.39320915509751264 0.09176907156494434 0.35601893833263853 -0.16723585601588664 -0.4076600839334762 -0.15727734995096374 -0.22664389624901854 0.1319921998175243 0.09709809447583506 0.3480306422315962 1.0
-0.18532270420412292 0.0049565528544590854 -0.3462580516713287 -0.27287863561047443 -0.37633848965986844 -0.2022054436517495 0.015500377508061061 0.2867101840168404 -0.26356614389550326 -0.18281689424082553 0.3736310991746693 -0.1654414876310184 0.34614416169309703 0.15402271483432958 0.30481774508660475 1.0
0.3114278944407728 0.09169737190765345 0.32464717134218835 0.27642730938820886 -0.1717623713267697 -0.3390356291827122 0.36725941760077213 -0.3036765249052883 0.07296863537512509 -0.10848789247114822 0.33636891432105376 0.027631403623030105 -0.26014019701510555 0.054992765564307426 -0.3735656859813182 1.0
-0.19312135531805652 0.11824594534201535 0.3586373310982656 0.4216841049447376 0.35841161879525546 0.13743136934370606 -0.2849846155231979 -0.3746767543364891 -0.046903633191689935 0.09159851737856878 -0.27774107112663077 -0.1726727098126397 -0.3462713158420852 0.18764325127384962 0.026050477865778323 1.0
-0.07145401984513247 0.4509367691004505 0.42885469627854655 0.35140914819137586 -0.367249992056153 0.013817618343967062 0.2149082987113701 -0.1388224415521875 -0.19346213533770443 0.2898052216847684 -0.1390273861667201 -0.016189380012669948 -0.167257370365484 -0.32899669369989293 -0.08003534301314001 1.0
0.25448668482913417 -0.3492192505328011 -0.39068125895597827 -0.36902982413858604 0.035079934152549966 0.3675521598203418 0.22214891135169063 -0.04699335691769545 -0.23417360033441909 -0.050858776228471125 0.06164811924039887 -0.0824122870084921 -0.26939367732326513 -0.31185326267293406 0.3142328786593236 1.0
0.25950533220694044 -0.43627545459341405 0.1414139656399673 0.41576849294867196 -0.17624303004609915 0.05881056617906278 -0.10055632909085481 -0.07535783426670328 0.08073561394227724 0.37082842652578407 0.31880086917007866 0.38144060001029 -0.10797693279720685 0.2642642420694891 0.1627611734352769 1.0
-0.29065924799414095 -0.06772874484581776 0.26058709112133305 0.263293550903554 -0.25430066881823865 -0.419173136545549 0.01055215813369836 -0.3529251986270981 -0.09497495669764343 -0.20098745445802477 0.24441182489670785 -0.22235343306409358 -0.09391400859467286 0.4239452388550998 -0.24802138030485796 1.0
0.3817768250406371 0.10389584280933875 0.24299275725562872 0.18998395232862567 -0.4724947712652308 -0.23179614896734785 0.27176723371024036 0.02958395939509524 -0.13843242579893297 -0.08843215549998627 0.34391664434932817 -0.0038662152039008737 0.24913338280492112 0.3916461011757362 0.1893880261611397 1.0
-0.21751918905776052 0.07973669529608915 0.07804215595082623 -0.23997845146332195 -0.07143550419376662 0.14151939603355576 0.3373369087291811 -0.3660941313725329 0.3101397458763705 0.22091619412849792 0.08758548848673756 0.3337458194034362 0.3536535632992727 0.31263707765002574 -0.3504774616065977 1.0
0.2964234758077698 -0.06166954128408617 -0.3849351672009448 0.40529275051624053 -0.3889122385688985 0.30157978780260786 0.17179258095136354 0.14540759297220926 -0.10608593025110408 -0.026823588121747673 -0.07845129224142203 0.001422848458150808 -0.40521132147799976 -0.3367505545086449 -0.08547530152209944 1.0
0.44787375661192363 -0.18585096052260713 -0.3957010725448497 -0.14865142640387813 -0.09616186136463725 -0.06666080570028253 -0.38677249400170816 0.3859878639618499 -0.13230351361632706 0.20911634166329635 0.2182529870354291 0.11147062312579627 0.3784692064636947 0.035385368988972876 -0.09020298537570096 1.0
-0.11944286219615378 0.203158054758908 0.2285247891853491 0.26068303430678064 -0.20942730637694643 0.23537567926387504 -0.3794411440891009 -0.053843493562969934 -0.38434197801560316 0.4576333675401117 -0.41111006929474936 0.02207793416327893 0.01769484390666098 -0.22196487384460006 -0.043786767546736424 1.0
0.22192303719106132 -0.379347583682489 -0.029829908788265216 0.02856609237979723 -0.12583471465852658 0.15956005060267567 0.3558632011669613 0.12703820952398692 0.203320830323389 -0.25113184233071784 0.3591337229904493 -0.29023224080988913 -0.0979521542074074 -0.3721489893840862 -0.3941583181372863 1.0
-0.41575729771111747 -0.3960832719882776 0.12474267421969817 0.3216293667084043 0.36383103135657435 -0.38511690970562085 -0.19124700604911954 -0.020008680471865607 0.03068632088554806 0.25504665689368927 0.1770043340315256 -0.3275416426752857 0.09493951388776677 -0.10309506767970394 -0.09668140929088137 1.0
0.2946409468132805 -0.47303726095000403 -0.4295444420731184 0.10070600187280465 -0.0664843708622505 -0.31606866933423317 -0.12198482872416551 0.10791847025675107 0.41750389466488663 0.15481808000678238 0.057268211591589395 -0.14625657338509765 -0.2166493443602692 0.0060424891204289045 0.3066004604670489 1.0
0.24322585919381823 0.2898611793592019 -0.21030828858837286 -0.2230747414992519 -0.346809275070417 0.14631805231145545 -0.021620429561551684 0.019760421166622567 -0.3271460746779586 0.12195093755301413 0.2546770631559467 -0.16813230582947603 -0.40086922750367776 -0.4597130084422323 -0.1822869903500126 1.0
0.1000310009606856 -0.1068528240727196 -0.32963303085933865 -0.46421230401264824 -0.08162666098452881 -0.3255715898966283 -0.011699838385481508 -0.07612959541807478 0.302370235388455 -0.28364544508455036 0.2147125819436707 -0.33386487239000295 -0.31783942283562566 -0.2511575581263651 0.20562378222545197 1.0
-0.07000973054856663 0.2787081077829837 -0.23052782626664267 -0.31715724677207163 0.4817947713041141 0.22404365460560424 0.040257236318812686 -0.16294680092537617 -0.18829028124689423 0.3528875020195221 -0.08457395314480862 0.47881559707353794 -0.02812513158457867 0.16182258157165014 0.17267612750526593 1.0
0.3061791220502844 0.24336566613583605 0.31427419420502795 0.33628210823395527 0.16092393352635068 -0.3538044122255073 -0.24718798226768726 -0.23104454959470413 -0.010725944369195418 -0.23213174317855031 0.20280731261451046 -0.25117491872273384 -0.1568999690104909 -0.30219743071431576 -0.30895839527940083 1.0
-0.3287106272508027 0.02451858663308005 -0.010009269495144201 -0.2701198475208723 0.1054072383662393 -0.1908381329191422 -0.04606698157916269 -0.42595817758541876 0.07663256387093349 0.44892967676210926 0.00849658675933619 -0.3528536293646934 -0.4189818501837348 0.16109298099319297 0.2317451415831371 1.0
-0.3119602695155201 -0.43558149344641045 -0.013460415146591957 0.007297146296947738 0.23272602596195885 0.3763626304603462 -0.20651036778631665 0.06670915671102269 0.1805307444284521 -0.3021467446101925 -0.13198799641370484 -0.3270803717577273 -0.24915933520551248 0.08065159462371335 0.39107133051028226 1.0
-0.3803770831323938 -0.12874106208879246 -0.3897022926033257 0.19787125198804056 0.05050713095713485 0.08450185521678222 -0.2839666045305116 0.018377787006737457 -0.21038510770345376 0.23589214779909648 0.2252397539731957 0.38575830486881996 -0.3378941415442098 0.03370063748935533 -0.3772190287365733 1.0
-0.17992673263329018 0.2720125362250661 -0.36916677641191803 -0.16311046399202106 -0.299713698490042 -0.42909486860206697 0.07640344122267632 0.17240171285705344 0.09513665299668006 0.3099591317939913 0.06784337367455656 0.22334207562931882 -0.39434831768945217 0.1592795210912563 0.28415710667326927 1.0
0.2996249349974832 0.2850663007090436 -0.3098149358705272 -0.25417210842385907 0.10765095414323252 0.2533379407695749 -0.0917591616986027 0.30006604776039253 -0.345250360184838 -0.3150570423606388 -0.10359807602040706 -0.3118250960411479 0.2989985994913367 -0.23411832919559117 -0.15332114275313097 1.0
-0.17169156080722112 0.4094781891724241 -0.26240992138840696 -0.1820534460557005 -0.18499379756538617 0.42995455027082835 0.1691444886104635 -0.0638927881466132 -0.22079757452261856 0.15670920539006036 0.38416069204254044 0.23887882480769923 -0.2024580734524951 -0.127155958364557 0.33758205840989114 1.0
0.24203652058177444 -0.34498165544993714 -0.2339579743013901 -0.3373621320949661 0.3603333867046884 -0.2351902851629196 0.1543935876957929 -0.328351181981483 0.08371588850243614 0.19827456178403646 0.1991548155291716 -0.3085305002813746 -0.22057434698621328 0.2039150993262138 0.2562043471238626 1.0
0.37621588599949896 -0.04925934905511238 0.38719428662287075 0.1943116301276107 -0.2931217543206055 -0.3435542531085758 0.2820760842299983 0.10542589749147684 -0.04572833220008 0.25893873756994945 0.022321358773601457 -0.4176425938361138 0.02404450011214786 0.33859532325454206 0.1201599487157608 1.0
0.22404031816167191 -0.36258814116208493 0.20868868366370263 0.16321228931502124 0.08509079226432166 -0.23695223554737513 -0.2979204536106232 -0.008773388943314628 -0.2519876974651854 0.34528147143313875 0.3514943137413433 -0.20975693497197878 -0.24939309106435154 -0.2931578727765831 0.31228898951135536 1.0
0.3916714899512637 -0.34157312613322516 -0.27869654350285683 0.16143927602952912 0.191615633248533 -0.34072694894010847 -0.07029544788180728 0.22386090633938466 -0.31444869733679237 -0.3729646759753064 -0.08530960686526225 0.021341977805543658 0.12034826684381196 -0.026192027126313744 0.3967829517490194 1.0
0.27531569337253997 -0.11626074748384892 0.17852918746153484 0.29494209947525596 -0.16716621945004323 0.3459690171166473 0.3400427826645119 -0.09251769821582655 -0.3901595886878915 -0.22954960939858693 0.26791840942840933 -0.247194999163813 0.273962314298887 -0.24536929334584245 -0.21663070232091636 1.0
-0.10004278119277024 -0.4386728085005577 -0.3394791171828596 -0.03897848745585618 0.10403919548722305 0.10348998594265978 -0.41115595285311074 0.2464682814637331 0.1255142340290601 0.10798956322139569 -0.3078971338153312 0.3903028906612348 -0.24812820613636685 0.10080082264599187 -0.2884113036934427 1.0
-0.08328951148838985 0.2299052330462215 0.3075906334115379 0.2430877269563342 -0.27300903897265577 0.17578892843218477 -0.32139177615253856 -0.3795965579044768 -0.0929843875951302 -0.335245433960094 -0.04250804948059921 0.38170905693061363 -0.18969209510249918 -0.1254385741476269 0.33677683188360596 1.0
-0.4206101948587647 0.17346936646681718 -0.008985581148301969 -0.1513687706273683 0.15616507055326193 -0.47553950859133187 0.0945213207452689 -0.06781912047353358 0.037887547637070175 -0.2148176917704402 0.2958716389942267 0.2481604423149367 -0.24213365483723828 -0.22711135087550954 -0.44612679751757933 1.0
0.23445368615000933 0.38848408516602884 -0.21938075439278973 0.36640850790754886 -0.3199093991135296 -0.3492934522983781 0.13607161300229617 -0.1490473467383316 -0.22630567021308587 0.1298316966030224 0.02623943660477991 -0.009387215398019384 0.393655266453742 0.12409173285122371 -0.32777974164895296 1.0
-0.17476822657236388 -0.05911872275258701 0.11314764328010135 -0.428010325852724 0.10367925044835048 0.2218454881414487 -0.43737125581327885 -0.3894244291291456 -0.17502478575901506 -0.01345133795701297 -0.397103230656791 0.09919792961580168 0.3604369901648637 -0.16518411475926345 -0.10728267138317274 1.0
-0.3384912542933576 0.1212169837804074 -0.1741662836538207 0.20499916643284438 -0.3645051434354337 -0.30602367428699245 -0.11821797756276779 -0.11608047660942712 0.008824208585901449 -0.20904673895467987 0.20825405857919851 0.3562242963975402 -0.2829361085183799 -0.3506178284805175 0.35689955700580983 1.0
-0.20561100677417146 0.14499547304483765 0.05153667516107284 -0.31263199770316374 0.04953938775708994 0.2122802965951809 -0.26453342570313043 0.295683001020078 -0.19339357851035122 -0.44086814633491056 0.3000806555554042 0.34994894008612043 0.08661194664711389 0.14136437006382288 -0.3995224806611066 1.0
0.24445604946127242 0.16653637296459614 -0.4246021071501454 -0.38979631449153085 -0.3290766538311909 -0.16129725941313625 0.3072776334267842 -0.33877049714033464 -0.19419828955253754 -0.07180646853992065 0.11625218144713104 0.038722044503598306 -0.19745472597358923 0.17363077531544602 0.33131011226501195 1.0
