25 10
1.0 -0.17964992241898806 -0.4501391731629325 -0.2536444751452011 -0.1297874276912386 0.16496440629387712 -0.48516002581962536 -0.249010236947758 -0.017277039412233245 -0.42903573294105407 -0.4182709333285795
1.0 -0.4679134837924768 -0.5448221188143045 -0.5312872915896804 -0.28909299999271615 -0.11260412415650307 -0.06952882992042125 0.07471897885251175 0.030731801125089147 -0.01284639815508154 -0.30688521530455587
1.0 -0.06358693531138687 0.3290862961541581 0.4451962610759681 -0.1938831388588044 0.3998349382515475 -0.3735758041638544 0.08749716040545308 0.21492816109888024 -0.07414840906523154 -0.541381395643516
1.0 0.35379040957000907 -0.4679617315998291 -0.26868888907412 -0.4531898205885795 0.2666299898095735 0.321552482875382 -0.35165434766976417 -0.03930183281289317 0.27813587047705124 0.03488414832954785
1.0 -0.01622278169402278 0.4109487993170307 0.4477854788363451 -0.3991115334868846 -0.33041545754115037 0.1604219842502069 -0.07805028608325525 -0.34045312543113165 0.01889944272222188 0.46237333417211196
1.0 0.3059066135837222 -0.10201226972500788 -0.4257764468085658 0.34892728374244947 -0.28126467510340386 -0.5431075336608528 0.2489743886950663 0.17986936930548816 0.1324743484029637 0.32712766435912555
1.0 -0.41234697685082783 0.07329200333607999 0.43835114241407636 0.13050668414117755 0.44877544795769037 0.284243067133707 0.10826256318386933 0.4696232656442387 -0.302043728895485 -0.09860934021645022
1.0 -0.5046534459926906 0.4029014026895171 -0.3989902074578695 0.18083771630643203 -0.00041189308901586655 -0.12916947205123236 -0.1403604971554783 -0.4369362331446851 -0.2526289431194483 -0.31619495221834687
1.0 -0.1963962639919484 -0.48226808577146923 0.21548464450681862 0.43392907366210404 -0.20345074057861967 0.25048902271384216 0.140105917853289 -0.33751770569669687 0.45794317521359773 -0.21615076221409626
1.0 0.302956243310442 0.14161826472526448 -0.47544897538619524 0.20694466797592403 0.013756592744390861 0.07698233104051662 0.1429532714723088 -0.3833064748286941 -0.42547085950127944 0.5145711719914171
1.0 0.3919533823011115 0.1807524687661522 0.003004899854413732 -0.2650126525497941 -0.02854793206381042 0.5123919920687771 0.3605412679774451 0.004378508001708541 -0.3735331099562684 -0.4588721567724618
1.0 -0.23087121373708125 -0.5548737801767328 -0.23667210027938307 -0.30219603457152827 -0.3398770817942942 0.09977181363306116 -0.2957511004294287 0.49238515913477754 -0.17744648557281906 -0.0678784595461677
1.0 0.29627719163273797 0.555695749062543 0.22120954440037102 -0.18081756987547032 0.5282092330494025 0.02731958005097052 -0.2089639688227999 0.3829599131807756 -0.054883516415049384 0.22069348655106047
1.0 0.17696384755810593 0.19067526351119204 -0.15983138166649463 -0.3215665061130326 0.35351203887751115 -0.42425284971007143 -0.4913435246917036 -0.34929223834987266 0.059311251895923775 -0.36259213777378146
1.0 0.39816680212567035 0.253837372359447 -0.12901402808282578 0.017160267866137915 0.018567572941900444 0.29076086548497637 -0.42823458069627196 0.5155695197676146 0.16927394102813284 -0.4442449811219407
1.0 -0.24431982217979695 -0.460275873819179 -0.1551591411861888 -0.0022691777720396625 0.42340635926749853 -0.39654827025987255 -0.21677990489591648 -0.32676667420239686 -0.4583557745964469 -0.06317402830661593
1.0 0.3980242515491729 -0.3179372914555531 -0.034400631116999286 -0.15745854402570356 0.3961869801210279 -0.1497456704461829 -0.4182446085335822 -0.2352774080803407 -0.4192302253842195 0.3592911008385434
1.0 -0.2818340374405984 -0.5056564660502939 0.11106331086128128 -0.20321658945362464 -0.3759076554898401 0.4022329303401013 0.46202739398767895 -0.29732954973903786 0.06643890978045411 -0.04316102467613012
1.0 -0.38881712963713316 0.028810736954631103 0.12648906644195207 0.5010538873072594 -0.3625041766551968 0.3003200892533703 0.03222277901768176 0.4164992590778682 -0.4077979831902633 0.13611072597743107
1.0 -0.3597805274146709 0.3951744209942677 -0.1697095850989953 -0.4017636181197515 0.29914788162443473 0.191658446899546 0.4001536179515775 -0.3849473410580217 -0.2993886369418854 -0.004056641503634099
1.0 -0.02802694533436469 0.25873371091019376 -0.38523580503809607 -0.47335589311739235 -0.2283659476912594 0.0860787498774473 0.13128164648360277 0.5042085073521634 -0.3657792362000501 0.3081928514280066
1.0 -0.11835068816320783 -0.13228974362477036 -0.6046871175687046 0.2094788236395197 0.4027994240937181 0.2458886708154233 -0.14669784573239852 -0.22742901558058742 0.0892418828642697 0.5050224820963854
1.0 -0.4493605695201679 -0.19867815697343755 0.17827491254718175 -0.43919636430138614 -0.3185554528422895 -0.1991913248260402 0.3774037720884316 -0.4089960390786505 0.20734373129669303 0.20017274326126663
1.0 -0.30524659364717155 -0.077653667087372 0.30772201235047103 -0.25469136694968425 0.28853827112615155 -0.4386461174874218 0.4471485466458978 -0.35261631596201143 0.04046956126847789 0.37369943944335754
1.0 -0.2603578873235012 -0.12887115857343698 -0.3735761902852416 0.43200937520839483 -0.404405179203194 0.24207921533657506 -0.3881804068585471 0.07954828311906363 -0.2836343322781611 0.36028937987834875
