30 10
1.0 0.4431288226110255 0.02422584437449754 0.2454582086543565 0.2174678046405589 -0.3481805488279218 -0.390584117429885 -0.46596785507158295 -0.4080548363173001 -0.1925116998264168 0.03204346176862234
1.0 0.4426496791428514 -0.016003071507869282 -0.338660237420895 0.35541078093318434 -0.20331916373965525 0.02866477412508636 0.24072378079590057 -0.4053472183382814 0.38771434912015984 0.384786316616343
1.0 -0.4961604531256143 -0.13284575302282972 -0.22181223161899594 0.09725265338576866 -0.07033302516379823 0.42051223447298414 0.504003746361888 0.10063675803321388 -0.004395350530890267 0.4812213001114083
1.0 -0.3480315757059345 -0.03935090100251896 -0.3620854283809575 -0.23224901476715043 0.3885215004131161 0.018080743518738892 -0.04977095405297641 -0.42521023936443403 -0.36140311767279276 0.4765617358066359
1.0 0.4066270708623628 -0.27549546288219173 -0.19894097641211547 0.33398266173126184 -0.24042399219401994 -0.2707989489462839 0.3945678395860511 -0.29414877113767207 -0.4838663312711844 0.012848028337205693
1.0 -0.0855713351473437 -0.13130829553556858 -0.28346387070049855 0.2767907532243451 0.4458234365023658 0.32481037390464285 -0.22519890068625895 -0.46783248419403156 0.49436734467634685 -0.015153412519371832
1.0 0.49454884523308906 -0.27466901902159374 -0.21255550121211203 0.33720905454030764 0.21037530754472905 0.4675555975292326 -0.33075668136981967 -0.2735730573910537 -0.25703443891496525 0.0889588248235112
1.0 0.44695889962621804 0.31021395867891843 0.06904528914525693 -0.36004909027358867 -0.44159588354253165 0.45424936790298914 0.32401215491959895 -0.20412252616759427 -0.1429392513278582 -0.034081052343764365
1.0 -0.12417244304481197 0.4664256024078833 -0.40192536880033686 0.14690568446601565 0.02684271209324207 -0.12407901232625508 -0.14391313203392486 -0.5558008663569612 0.48493208090261275 -0.05479262173988635
1.0 0.27905836890741603 -0.213218674548453 -0.4652031319681746 -0.05137263125084302 0.23010561968654686 0.3678273843709169 -0.42020755681292626 0.24056445120494332 -0.27036173387760537 -0.40227407112053576
1.0 -0.3876408044763896 -0.4252783686832105 -0.13971982996484247 0.32056968976109573 -0.3004001402702218 0.09093615261422915 -0.5325783608184664 0.04028485106007707 0.005153623010184715 -0.40346944291026454
1.0 -0.24228924074206268 -0.08292289193859949 0.17077767944111225 0.49670668822344327 -0.34405520485307145 -0.39907702537315054 -0.15800283146999097 0.39979592758830573 0.3621985796832456 -0.25477680846482564
1.0 -0.17329645259052517 0.0010131346055422322 0.5132551160987386 0.15568542837130056 0.2854952830639824 -0.0818292041737606 -0.4076883543309156 0.1380183426897119 0.3928136822712755 -0.5045131562271173
1.0 0.5631326460503582 -0.20270099475369055 0.13728254803484538 -0.0862171832842313 0.0513969866228441 0.4017393743803188 -0.05322708214384386 -0.03146434313082462 -0.4073178953011207 0.5307983221842781
1.0 -0.0696062840025858 -0.28455962669847706 0.3136645767960314 0.37330903572221125 -0.18968711653874437 0.4681419302302233 -0.15010240369356173 -0.420411699657696 -0.059070502655149 0.4674735918573817
1.0 0.40010812003863294 0.24297899968196196 0.16573977072237825 -0.08628522625495147 0.2265444324097673 -0.15265397337863684 0.048905626100571524 0.5916994548067743 -0.22429686758018444 0.5181941535663775
1.0 -0.3778992779394482 0.3860217670356825 0.41320582330559524 0.07544067145063271 -0.3954941229149353 0.26512036145203 -0.32902512350182367 -0.3260739990407403 -0.184389162235221 -0.23762034545170857
1.0 -0.3923423104461468 0.3582337627955016 0.3618285424984234 0.13155595208319942 0.4254986330054429 -0.3605554328479114 -0.36200703876482776 -0.18461951391566706 0.04152932636521907 0.3026578383329506
1.0 -0.11371603019303844 0.4539448021984657 -0.23643946378083566 0.39011383642833675 -0.164356668146514 0.20610945050500146 0.4062667035889197 -0.24449910919746973 0.527280604671976 -0.023640024746660944
1.0 -0.022569772695161874 -0.5110335316771527 0.41650544741829376 -0.2951315459293036 0.03292695883241276 -0.43941620996586894 -0.06056167935459862 0.3749852325372228 0.3322063013517052 0.17012483430289452
1.0 -0.5196848060211829 -0.10861906515842068 -0.13368606562978189 -0.448282216394079 -0.3903287742528738 0.019351433621709598 0.14243706829485145 -0.1551599439315369 -0.31800787973109634 -0.4484169078065347
1.0 0.20988821495968144 0.4738670101952648 -0.002068855536255391 -0.12855342527205568 0.2544623597659227 0.4047184971181533 -0.008541527807830759 0.5397468815964147 0.4085138768099814 -0.16743755454898993
1.0 0.07630293964124998 0.012822056977526973 0.3968907188657567 -0.46432456491215923 -0.10449376785349199 0.32575825576424755 0.45203832137504046 0.3449540618991298 0.41093009081120524 -0.10798627176249222
1.0 0.022199963033297753 -0.38090779700262495 0.1202466615661024 0.48718717292627506 0.49849688794432523 -0.01578424201202682 0.1543588232108152 0.341147822755306 -0.46027465773782766 0.04238251203951125
1.0 -0.0693383872285736 0.3277974882782665 0.3183516242721072 -0.3481843480439331 -0.4426743099566685 -0.07821470513171239 -0.3736494824069322 -0.4099844525988481 -0.23827333234333617 0.31401822408792707
1.0 0.3541098316552312 -0.21974620096130504 -0.31094124634891646 0.010649649131336043 -0.3780138514894152 0.4966133750190642 -0.15911235841428872 -0.3206600464467782 -0.3252863140690502 0.3256529599233152
1.0 -0.5983368624514788 -0.20524907911305446 0.3617472821646714 0.054986397466116325 0.16824466415219833 -0.10208721016684469 0.034571108511653084 -0.37583876586304776 -0.11544379676604631 0.5210335299372355
1.0 0.19850557796403107 0.18610401945248498 -0.46870682711025896 -0.4566189776608623 0.03227702806992223 -0.4328971813001834 0.49834156140941893 0.0003553848480427079 -0.21333448581174733 -0.12440270028973337
1.0 -0.3690958405167254 0.14481242509830208 0.28787309461460314 -0.20855968873541678 0.48611755965609005 -0.06225511910129052 0.47648251660856233 -0.10286303001252566 0.47590310482644094 -0.11019719261967195
1.0 -0.16434401389842118 0.23294155101557754 0.2102553394093767 -0.3331821398369516 0.2450989059585524 -0.23211055738563036 0.391601772297463 -0.4914648449116509 0.47338896887758497 -0.17486020299728874
