26 13
1.0 -0.2137705876522396 -0.0581177577804256 -0.2305878528837129 -0.050286039015619684 0.161340911879445 -0.3737330509496156 0.1895482434082321 0.32853275530748466 -0.09155307477427874 0.36645420474303625 -0.5005416659708791 -0.017547892914987373 -0.43833194016359694
1.0 0.2491070865722132 0.008511176729313199 0.3622434339722127 0.21721023870551492 0.2965068528477892 0.3510468023792246 -0.1809576340358756 -0.38774629502367947 0.2565477118027042 -0.3855210952954986 -0.24637459612681334 -0.10814567453397461 -0.2799829071260677
1.0 -0.2175942911512388 0.22362242910863206 0.28853557383202866 -0.28651464280667693 -0.05595121084059902 0.4660378853829153 0.28162539426335115 0.1039618360081623 -0.4702637124381845 -0.06945138373196326 -0.09111220212125602 -0.3430521297669179 -0.27368209669325017
1.0 -0.1505152777990381 -0.21956519827566487 -0.15069019133404632 -0.5582259993718502 -0.15726144011310528 -0.22130946516599925 -0.17935171322287796 -0.19327812510216036 -0.13777922326811423 0.5146137984976685 0.3530420136825792 0.14640997561316757 -0.1472920356505911
1.0 -0.07256807366574639 -0.08038020942667033 0.4947314126299117 -0.07192646159940187 -0.3493798790002749 -0.38622264816411594 -0.0934810906415244 0.4478668261019078 -0.38765782375218355 -0.14941757577960463 0.19368148067324062 -0.15994491857921656 -0.14860543347223384
1.0 0.13035898463052342 -0.36714458254497556 0.06712073887452098 0.2945436161326393 -0.09354445981640955 -0.04353099377665253 0.4714114596070404 0.33230740101646045 -0.4631760237252715 0.06265122542638264 0.3031984136449682 0.05477027453584007 -0.31664096833922556
1.0 -0.1347518368014844 -0.06748591503762527 0.04539902630028491 -0.08703190372245148 -0.4271937728036678 0.10449655253471399 0.11311688412923535 0.44015463038486935 0.2825357523778856 0.27282167247832456 0.26182170096714596 0.4107262693317808 0.41976374902465385
1.0 0.44720872981342646 0.1099272664842398 -0.10191499253545722 0.44770540147451937 0.05694010581970144 -0.2019167830708459 0.17259351404234147 0.42531502030138174 -0.04215987184131248 0.24735398503879943 0.2816133330053983 0.4011192527402435 0.13869186124486252
1.0 0.2943235672459542 -0.2547595527812948 -0.07146956271692138 0.3540613645683211 -0.44614562870446633 0.22802904104437058 0.432943788870233 -0.21450412674825287 -0.09355488415041055 0.10078705298009553 -0.22431144112162768 -0.16240791685290157 0.37135676781086074
1.0 0.37581610583951786 -0.15619580771282154 -0.18415814059468216 0.06344539842760301 0.3557213736314274 -0.20334388026034847 0.3376324211127068 -0.3775450887308682 0.07157526338806701 0.3624936726859535 -0.2220748768539111 -0.3455659723181557 -0.25835138201013186
1.0 -0.10443720396002461 0.3927613442113418 0.12873232320446634 0.43557823958522657 0.18567288578683772 0.008680957449210613 -0.5145934048630517 0.09394608187684735 -0.25878646762272334 0.38506311084310946 0.006959109244716183 0.10197910898624302 0.3076633905575918
1.0 0.3355247480315759 -0.13727356278109965 0.1384481688347673 -0.06910057659622662 0.34802377029002574 0.264142472236705 -0.4317255539837604 -0.10100622802065698 0.018947937221684023 -0.3523005236555305 0.4346314028267642 -0.3644856615185181 -0.10452936345200127
1.0 0.38693134452198863 -0.049424919259303826 0.24168916764979942 -0.30359509453500433 -0.21515607581249424 0.09102621216799849 -0.08711226118849391 -0.6226539163032481 0.10152238007407277 0.16308401138841208 -0.4332762482738107 0.048309620779250786 -0.14292658183596293
1.0 0.30899275934616965 0.350024058012459 -0.46940986779964355 -0.1581634515851064 0.47773677035164147 0.144074037116662 0.26929463995830594 0.12181519462373985 -0.3075609147914188 -0.04860615527587362 0.17843419279291658 -0.1555390298184136 -0.21750772817990716
1.0 0.3897829197375271 0.14634785439083617 -0.3418185935332996 0.15413344328314393 0.32360037353656834 -0.07371470682039458 0.33037506799897337 -0.12936903353041707 -0.10695914182725913 0.15130915218801297 0.2597257248325804 -0.4894877656553179 -0.32958910358781357
1.0 -0.05841198186339897 -0.5958005206177316 -0.2583975012386202 -0.12006511799071422 0.13928441410832154 -0.4086297024187668 -0.0238072725821468 -0.3367380806797404 0.05558608690972575 -0.39229026648428206 0.18604531498925117 0.2564681147581614 0.05212443312515797
1.0 -0.2576058842704359 -0.3810099242563004 0.3705599061422013 0.15654595865876844 0.2748043396059354 0.1529622937333748 -0.32817642923569035 -0.24641164838996527 -0.34414034235080604 -0.14021779396682235 0.39627200557937203 0.13103718340010007 0.2168413162632676
1.0 -0.11286221362994264 0.18452527345025768 -0.12107161429606048 -0.442985293955072 -0.19316265771983981 -0.18557799967406424 0.25390357212112885 0.48158956939365094 0.3589268853931722 -0.01708312663816058 -0.2141435104002248 0.42289196511970706 -0.14267548729818016
1.0 0.12161149164307866 -0.370492241868582 -0.14897028832828788 0.3958024288705255 0.028443700829901882 0.4033116582860704 0.043488272264482715 -0.33647630662998723 0.45759898438672625 0.055321395483048874 -0.24895618234311273 0.34023714756781054 -0.017882312908475775
1.0 0.20264522613774663 -0.5345613873517466 0.12675684988209357 -0.31988598402196705 -0.21784927001000384 -0.25788458380714074 -0.23323631794348973 -0.46018664908421736 -0.3834123033702462 0.033717789612242914 0.005680503513625061 0.10405721956854513 -0.12509573102802007
1.0 -0.21732076553646484 -0.20882429717527123 0.07776213970182407 0.24263151542610104 -0.05514126559698821 -0.49113120945407646 0.009170195528311742 0.02563475540278902 -0.3753569547581385 -0.341656663734704 0.39681278115940777 -0.24145042093644328 0.3547881472983494
1.0 -0.18412834205367162 0.07555071647325573 -0.10944274016988585 -0.2428184254232234 -0.1748835190989658 -0.4451658738011796 0.3766735847834235 -0.4422526123345688 0.24263057176895894 -0.07791561659146434 0.36135368388356626 -0.27541820075777274 -0.22770808268801696
1.0 -0.17673819991003628 -0.2409616347431722 -0.15020143546558576 -0.10383521728397778 -0.46789976094369384 0.3697228981215219 -0.07246543176064228 0.013820208148834463 0.46151056316539546 -0.03563911677767111 0.41336208338881486 0.3351414510104353 0.13726354338714156
1.0 -0.3862449491170301 0.12469938669865631 0.37136424906590587 -0.06844249339265254 0.45980648225480764 0.044702476028988136 -0.33847045701807416 -0.2216401301278543 0.0668854208547312 -0.11756934494219953 0.46986896095739467 0.2590480067240122 -0.09686738954249337
1.0 -0.13218843922873189 -0.3419271381296312 0.20180997221944366 0.32844785007056937 -0.14948336982585272 0.4024053108635494 -0.3263395109744683 -0.42313869259232434 -0.024042550693721368 0.3117406470114303 -0.16576747077090864 0.2748341185764403 0.2154407798947142
1.0 -0.1523509422675797 -0.364766362193071 -0.01158224765170606 0.39035663978923424 -0.0770184995634318 0.25139383719791214 0.40637853923074224 -0.37468819809815246 0.1854993679931446 -0.17912820450839564 -0.11970045810385899 0.03933396635821119 0.4839261032027118
