20 10
1.0 0.16502159969074556 -0.4239721786507253 -0.27350093719525276 0.4788572721019097 0.08726987297620704 0.029961745759280296 -0.23495928486537276 0.45333392815117474 -0.18736531214228055 0.42961773774400613
1.0 0.02211853029457421 -0.31977071610908364 -0.5458136990217725 -0.15382505850129707 0.10553715623017572 0.581937258101756 0.26655698474249456 0.2170778946728229 0.2486901487424115 0.21417615369054027
1.0 0.38541538462278 -0.4475337002911634 -0.19465230166966394 0.05769739560246928 -0.02228052619544626 -0.4458791035951966 0.40516111338720984 0.22747764414685387 0.3288904526489216 -0.29423617604466495
1.0 0.13791982901310018 0.3766253868193628 -0.16313311503558825 0.35615734103350727 0.18941206666468635 0.33048885961654134 0.19565037587487177 -0.3454354683628953 0.3959428651324404 0.47560032781076095
1.0 -0.2637173331061502 0.3118304119155714 0.22446284347078793 0.3216999014501631 -0.4076791890455552 -0.11887059098148396 -0.4966293956610975 0.05473066220061233 -0.3607007223251862 0.3453502802159632
1.0 0.5508564918279095 -0.15329267514393713 0.17766216045800834 0.10088373287861854 -0.1089446174134599 0.18551462876763827 -0.5637849647579645 0.1177262381755711 -0.4921920872545442 0.10519742768659827
1.0 -0.32702444983175943 -0.189433049279793 -0.4143188833791507 -0.13893216156569485 -0.052121609028776404 -0.05295665018941611 -0.27203943583092516 -0.5500717615967976 -0.35391375175383993 -0.3985566913878232
1.0 0.33882529141071305 0.13287663343721567 -0.26473710337887435 -0.26367370757827974 0.3437686118797356 0.6405089254800509 -0.03159459256893143 -0.15458596534905353 -0.38614730088238103 -0.15968201257108128
1.0 -0.07269799362358964 0.21483422430858604 0.3599753663583995 -0.4133663263031648 -0.5074387164859621 -0.04289335640441966 -0.5151040374193588 -0.25328194463399256 -0.06030093005462539 0.2359094480119079
1.0 0.23471773225689022 0.07205918585023185 0.18895741141713213 -0.5642872679014794 0.02441822216811811 -0.38972081941430664 -0.5131780282454868 -0.11520138801926895 0.11497770396616636 0.3785083200009901
1.0 -0.21089497053792575 0.4021035667410382 0.3342421378005498 -0.37944212527646437 0.4205719607969336 0.4110806564571037 -0.10126869866293232 0.4256353751358898 0.018218996048668532 0.022826867182887473
1.0 0.252669774796451 0.20704017246385242 0.3521672394201662 -0.3327669949458504 -0.3305051849922041 0.2303254121673977 -0.3146459325396327 0.31933103166957333 0.4920108722390388 -0.2306602969633378
1.0 0.24070746426912798 -0.3419417226530584 -0.34779223954156524 -0.33074141426536935 -0.19453581742099024 -0.5731428857603621 -0.141842929795515 0.27926563466905235 0.2464986022448744 0.26377874412556884
1.0 -0.3785738424568369 -0.33334175641324865 -0.4300294754212093 -0.4009599965060604 -0.39258319386875745 0.3389410957915252 -0.13758413204237183 -0.20108597721901708 0.26739505636879446 0.0017721147284802056
1.0 0.43051161699807095 0.026100275026245123 0.10551789494293612 -0.4192792206420507 0.36642606808085615 -0.28979373805616726 0.11992529080194156 0.35453249176811213 0.36230842016949505 0.3707535621584124
1.0 -0.06774234107452583 -0.08659049393369744 0.4538573492732654 -0.31548344560590413 -0.47275205942202764 -0.04923419779907203 0.48855349748526755 0.07865292498301142 0.2527581782141635 -0.38434457008917494
1.0 0.05769258014656762 0.16992376108320492 0.25062918110011084 0.4917834953216684 0.43105798003178264 0.4599928245310124 -0.3371264755342687 0.1409929772222133 0.353646321725883 0.08442811826738972
1.0 -0.2637344162289563 0.22878747257787627 0.34693075284185676 -0.26515174552370196 -0.28679485411316696 -0.5270698232258412 -0.22813027181271486 0.36002874597638707 -0.37957115102799716 -0.04051901066921629
1.0 0.11499907234795162 -0.41548016707002006 -0.1995083248799697 -0.46730624712832436 0.22268337576410266 -0.48437853621342775 -0.09487157751397772 0.2282075802468476 0.45804104243994964 0.029688030946180773
1.0 -0.08005561366308864 -0.08722750041769914 -0.08648709730102687 0.2046295889758804 0.45823715553029604 0.0473066253809617 0.4531681162094232 -0.326100588836879 -0.5420186923213858 0.34485180770896184
