32 13
1.0 0.013738521994641989 -0.42576570030601185 -0.11054974682788013 -0.2877963886369128 -0.06806601783951564 0.49693323809496837 -0.34952616519930096 0.0737119799117532 -0.4751695085815664 -0.045617856005348754 -0.31279658224867024 -0.08270663073100273 0.10844377467222985
1.0 0.42727473970408186 -0.11655253770076819 0.13775077029750138 0.06764889072312487 -0.16659302913455162 -0.2976635698304098 0.15981829561314828 -0.3983851495215673 -0.061030413750613334 0.45627069449766894 -0.2501346739007812 -0.4483047491163295 0.06510408030693769
1.0 0.32740300240340037 0.1950765289155321 0.4448733184885215 -0.24958312139070968 0.017046694559255712 -0.15992632247402433 0.15383278166254685 -0.39895310683865176 -0.018876837560747827 -0.4194485962127272 -0.05859327626329825 -0.14757588735245186 -0.42935768177525685
1.0 0.4191409893776867 0.4086559086919683 0.017175013395427798 -0.21049539505089032 -0.12384858031619697 0.02692882725340193 -0.23343455413750094 -0.3238279810789726 -0.1269352060265857 0.45085337746262527 0.4236767152770092 0.19598552262894142 0.0020983962233857138
1.0 0.3087696149861656 -0.002139831787796753 0.3582312969247499 -0.3702871540010898 0.12085647494771364 -0.42997476097380405 0.3797496984058317 0.3740858501673275 0.07925823366517452 0.03652509307040165 -0.2482344806021502 0.2852936601031895 -0.07036396974433641
1.0 0.2889912970080725 -0.25616317960410984 -0.025577751473902628 0.31643485707823155 -0.08351765747296595 -0.38138325878696977 0.06338676518688205 0.412328831314524 0.31540655982688276 -0.3320976965469757 0.1648942890429802 0.14563624561654467 -0.4067525765959153
1.0 -0.16221735333922851 0.2658872884147123 0.33905127363763715 0.3247441140111576 0.20101845831725007 0.3902613557546781 0.2943070593447251 -0.3178508717976272 0.08554739507774464 -0.30064803710091703 0.3245136140780835 0.25355330842599394 -0.18684443042143076
1.0 0.06504161071368991 0.07603592229509744 -0.4544121415568079 -0.33075280025067566 0.09342618099061266 0.04406551713961631 -0.031493718355463246 0.36579699159086937 0.030327605202421587 0.05636960100887443 0.31060184589280615 -0.6528612276793526 0.042804425545905585
1.0 0.1845714563702697 -0.038263331514161385 -0.3653746580586896 0.0019055771120066152 0.27359844409442935 -0.13581527279345026 0.24954185996383388 -0.3198158053723934 0.32907448945065143 -0.28246063344558275 -0.21109447700749726 0.41396224814695654 0.4112325213750351
1.0 -0.347237313434675 -0.37148044647638806 0.22613686764675434 -0.30174433347121166 -0.006949629280511728 0.18565192471852932 -0.39298045771026285 0.13626022845537636 0.41934900688427257 0.1333234169641654 0.08186049639491434 0.42361062846998737 0.1093148999222214
1.0 -0.17888828404659207 0.08308093234664303 0.1798585231030375 0.24624786809421378 -0.3889929091684974 -0.3607076684698884 0.35727525068299776 0.22081814403364586 -0.1411257195364545 -0.350892492261686 -0.3218554287092012 0.39954280527928354 -0.06332690262272347
1.0 0.12494852046701968 0.3447966470882923 0.2768911217799753 0.38487632550692286 0.3496127525105834 -0.1479292314545905 -0.034946729293130044 0.4551054396567595 -0.08234522959027064 0.19842478797224392 -0.2607874485753638 0.4167081202486053 -0.021009680377868097
1.0 -0.20155804289270607 -0.22472111319806856 0.3884791726006086 -0.3060757754047537 -0.45820498911825014 0.05211144807917426 -0.2444814319877095 0.08359603344902417 0.22183825495218257 0.14036057253597067 0.023994312887239383 0.5133082091002809 -0.22776105914257824
1.0 -0.3354538584852368 -0.35785225716557545 -0.017547119004264235 -0.18160011461146366 -0.37551245951839457 0.401025677234063 -0.15290211697828485 0.3583172256571271 -0.2599448483713854 0.018951069466465825 -0.38487140258061814 -0.15847221600505865 0.17707221189191938
1.0 -0.4721427743212847 -0.14223746891787595 0.015086848771867074 -0.43211245691938727 -0.11379095567477224 0.3869119951365523 0.3404508860687982 -0.21930195629908739 0.25016097376053936 -0.07613489491782376 0.3842562547634204 -0.021992637693756117 0.16351729807941276
1.0 0.1782654967598393 -0.11868565400825713 0.2952482492464803 0.265502029317572 -0.44205979386433886 -0.34415430555073134 0.25296063972525695 0.21788275861004572 0.2757386441710682 0.32415919686940015 0.1991020597525984 0.03869098271385191 0.38587774704835265
1.0 -0.23019045215672906 0.17386629782197588 -0.23615997387816065 -0.37224944564091067 -0.009775199313872765 -0.3221617750470258 -0.17113894602576765 -0.1423741491095177 0.41388706497910815 -0.41711611505834595 0.05450043058509525 -0.3296711106738143 -0.33474959003060883
1.0 0.3712954482989839 0.24246415857701512 -0.24811634230815066 0.3158565075802117 -0.4104152574226715 -0.33739539801230617 -0.3587088138171162 0.04067581706181637 0.3361696695985951 0.12137276163222416 0.29328841890330765 -0.02476820975523884 0.12267004910075234
1.0 -0.42787415207149243 0.034426754589544036 0.12858520007288285 -0.12517427018021218 0.19124669092286567 -0.4217970517923994 0.45980217333952944 -0.02255469847838726 -0.33036332842172217 -0.03949009624219359 0.29690958198507095 -0.28995951629522837 -0.27237793011160033
1.0 -0.0015423601400069548 -0.508406541054232 0.4176614146186736 0.24571407263980646 -0.4960817287965626 -0.07041564649112177 -0.20136611944510607 0.09636678326334731 -0.1458248420060861 -0.19033022898509855 -0.21814460383419987 0.24994577132561757 0.19560980060658043
1.0 -0.43273495526042555 -0.34259927875261786 -0.17873020836577055 -0.24624165083186614 -0.10470330380881109 -0.2100354295967825 0.4013417018551144 -0.2414972283938398 0.20570906986919052 0.2518192682662963 0.23296257012480506 0.09190891192818057 0.39983127160743803
1.0 0.3252496912735188 -0.3624189156056457 0.15553571172719455 -0.23423851947073757 -0.11414185691308278 -0.208066007787915 -0.08809837885580435 0.12707504068633968 0.39246355268662253 0.40050752287514624 -0.41277371490302206 0.3399796284043452 -0.056344523964342086
1.0 0.15152242728854123 -0.5044491073210942 0.004524428187247525 -0.22614038253891416 -0.029994837142692365 0.12561792396528582 -0.35583506427835193 0.35105852190594394 -0.3909612834695339 0.23420917065504734 0.3170525218784806 -0.14328613599127388 -0.2758876547601531
1.0 0.10437913579897413 0.3298106893749727 -0.4318067605965911 0.341931535419284 0.1253681934152571 0.004640850065086877 0.4096513596764949 -0.16094800160344913 -0.18099745075691098 -0.030605914551738722 0.5702122473193488 -0.08041273028640271 0.04683397577755156
1.0 0.42508247052855985 0.2771553980666901 0.17823125231847237 -0.12414134668125731 -0.5027892257338802 -0.3617943458493097 -0.24825938976793982 -0.0775349918660283 0.036514704822328665 -0.09220853336593289 -0.3750179113101127 0.17266696428924933 -0.252364260315801
1.0 -0.16905419785209286 0.4944811015886929 0.34518997447075284 -0.3400646962915896 -0.06972949529202035 -0.28381372150628065 0.07234864393052956 -0.20785680539288579 -0.23161161328326532 0.2864545874004113 0.38113081670247406 -0.2613667379673448 -0.0947858225641301
1.0 0.3089176268012031 -0.11106652834131021 -0.39499152396010306 0.08132953699853566 -0.2685424370549561 0.16403791105496626 -0.21928901071194612 0.34860209456779095 -0.3158110062462846 -0.3428302095641192 0.3170577824841102 0.24035720654178974 -0.2922334559899857
1.0 -0.4955189845246828 -0.19157698425150704 -0.37069783654894506 0.2711698174991691 -0.2964437584454658 0.19592246776130967 0.45210602611150214 0.051081348466196747 -0.13574865126472144 -0.2062436698457037 0.2722926219349368 -0.04019402743430946 -0.19186605056784428
1.0 -0.06777972890712085 -0.24037351293468862 -0.4146759656772645 0.42612295580179227 -0.11360425538944333 -0.36297495086977233 -0.34708226639395795 0.15788187090485456 0.033174960534868535 0.014875584228159554 -0.418999082959906 -0.3351457049980519 -0.0695362490899271
1.0 -0.08532829957022542 -0.32085235942893303 -0.1331856875331271 -0.26542694268446726 0.41861215555502157 -0.058340121379703014 0.3071007971289614 -0.14067991741119523 -0.22352142628887894 0.40913748786646686 -0.3376914820276504 0.13835697486959442 -0.3978793895852945
1.0 0.37832457529138735 -0.32504475315301307 -0.21875071468762589 0.12375323265048886 -0.3129749649477414 0.16035876739956834 0.4206483743008236 -0.3875894241980817 -0.2906599871771322 0.23690827614295062 -0.16981238899789844 0.23822981434551874 -0.10493977101800331
1.0 0.1197699706344662 0.23249422678154186 -0.11058269982399298 -0.424513826510486 0.019593262943533713 0.05811760396246563 -0.3595947612319549 -0.010436180525978323 0.28867846952176485 -0.010360767317008798 0.3250471285356475 -0.4707910049165029 -0.4418594775396334
