39 13
1.0 0.04430526874494372 -0.4704177210537412 -0.15006694154964953 -0.18767494809003096 -0.1810550398288696 0.43789953668396103 0.33125010614474215 -0.32282362076248056 -0.0662808404501585 -0.4148518879005189 -0.07425328222137667 -0.18377333512706231 0.2544447992100528
1.0 0.4326868805687164 -0.14797802201703267 0.03451991851139098 0.2979890975028226 0.22790944033883376 0.34308989325888356 0.32252658317609373 -0.42635162015548567 0.07403087013260841 -0.33194219990739254 0.167874666953896 0.2888222001902015 0.1348205908721405
1.0 0.29602424271516514 0.28340400351617917 -0.520084781537391 -0.33823013472334784 -0.23751353499878508 -0.23600551123321523 0.43012272136811935 -0.06743511847343632 -0.03369786213190247 -0.16206497805628492 -0.06847342135400525 -0.13716189141175253 -0.30756639332217967
1.0 -0.38114674398182413 -0.23218502117398118 0.34914153522940766 -0.11942544111752063 -0.2540792922704808 -0.41012573379270534 0.3328032665186459 0.21765702278485521 0.4284147418889638 0.05587135087987863 -0.21887546504620334 -0.09615155768496139 -0.1730625311034787
1.0 0.2197526516966293 0.024984964628221768 0.3114089756705968 0.08489075662233586 0.0465558929784581 -0.06346773463621701 -0.040553710305529435 0.38212922640945046 0.4293085067308092 -0.29158917902149917 0.20016078684937183 0.4308361364583324 -0.44500047075888227
1.0 0.15482589543018901 0.09525551723819431 -0.40317547605149257 -0.3900406880137231 -0.10134495958592392 -0.1556692256153836 0.04007433882294615 -0.13562935983922303 0.4031722433901618 -0.17037609255793704 0.27637049325798013 -0.42440935935748386 0.3868957438577515
1.0 0.15433226909721173 0.08336042343294674 0.15705321338600375 0.496233222456115 -0.21777810392069083 0.12557827762553936 -0.5412063025960532 -0.1116004789510278 0.3284492049643085 -0.08764700631963254 0.3191142292670548 0.32783583437409924 -0.06994446945191429
1.0 0.057964731903455996 -0.3712823406256776 0.06935608470033143 0.26026187406569545 0.113509372924521 -0.3064883642331554 0.28057460178333105 0.4348111121503017 -0.30650437417100945 -0.31211864556279906 0.15116135992757054 -0.34424139073567306 0.2809374060635922
1.0 -0.41829464672691147 -0.5559552299102231 0.0865656838850907 -0.2452047865992954 -0.16070589029719815 -0.23742723944878555 -0.34490557746167044 -0.0863307573570919 0.32642302316885735 0.11414100969554372 0.30919381860559875 -0.07403441196491335 0.13802666355077714
1.0 -0.20720361492410325 0.08882705924466319 -0.31212675381811456 -0.046844585889085584 0.02324880100717836 0.0474756129999772 0.42761663797505695 0.44040885714281663 0.480385959253087 0.34885398723250344 0.29733066864200347 -0.10505848773719398 -0.1342978485121642
1.0 -0.05084625005211165 -0.36586874519686674 0.030310036511386865 -0.09000619315787786 0.32299776094256955 0.20899662315901313 0.273726437053902 0.4737939682331025 0.4120183265222865 -0.232633126718597 -0.07547207959238658 0.14254349712673137 0.3965210232425533
1.0 -0.12958511353362834 0.1965062103773099 0.29928284649755454 0.1271898665060962 -0.12547333938632274 0.19359132738863358 -0.3287170133483867 0.38218480380871556 -0.4619448848418814 -0.16583397410652614 0.07789948450720631 -0.2448643362814911 0.47390231773189606
1.0 0.09641841560147837 0.10655575348656064 -0.07590890734478986 -0.08514743140670913 0.4303350312461642 -0.002797487828901209 0.15686127383183318 -0.2693145552954205 -0.5347803305357377 -0.3084357531859893 -0.09761468950252243 -0.40377929587437567 -0.36099348485764177
1.0 0.38785410225684863 0.12848575287345804 0.3759526195159501 0.41066308871143986 0.33851619732165744 0.3349941451563644 -0.26054036468310776 0.14323278257462158 -0.07587513276647802 -0.04781922702438699 0.42667449927967116 0.11093827256476577 0.07391017824334255
1.0 -0.17261660566640735 -0.2527271020173598 0.044727902359842205 -0.38877485163634956 -0.3654855078976858 -0.3995351232279917 0.15211438228065427 -0.38588226484299515 0.2708157274823773 0.1687709073291134 -0.029197242664306677 -0.4056439078249143 -0.14390946355104783
1.0 -0.21266240451314505 0.4848533778016449 -0.064584881040512 -0.17250814485374008 0.07589237275000221 -0.3707201159966669 0.3850192706438289 -0.1345813278091958 -0.2762882533443367 0.18521843574348285 0.41415077057161376 -0.09906054418078984 -0.2902441861246223
1.0 -0.16411872293462396 0.43051173563153794 0.24242970380071813 -0.3892472011000788 -0.19963205152563948 -0.3790605638758237 0.09599197268201201 0.40906417431936004 -0.26451075454953166 0.0017039739546806968 -0.1240790783009232 -0.3496768355102298 -0.09855440649442035
1.0 0.012733783975411403 0.34049451288610444 -0.31189212701400837 0.06352565592658718 -0.0034483896734024506 -0.21339860666174568 0.47179298329391817 -0.2503213498328613 -0.23700352527528804 0.44370622109582025 0.3704453081995253 -0.004493755506219383 -0.2479779703203972
1.0 -0.0757998342622021 -0.2655724561081216 -0.14584839746652817 -0.5173207865701757 0.13062445670948028 0.0005376601421859167 0.3543585151095305 0.25015567811076717 -0.32055027008671905 -0.5481396768233148 0.14121170644121508 0.06876014386605155 -0.04176076806599536
1.0 0.3837371369241188 -0.39052462765011225 0.27545615791050115 -0.06354889458712773 0.16933815641505628 -0.21738515818746493 0.4054682080249232 -0.004600310068381991 0.19354568818724321 -0.18109995907399942 0.3912256836858161 0.3671133344550786 0.1479106308465177
1.0 0.26771073619873814 -0.38940807631055196 0.2237888041981465 0.0712428361763499 0.12613592565562812 0.24100179472467248 -0.239912649674565 0.07853441039504694 -0.33040996813858814 -0.3122451117603521 -0.45738109170679725 0.17666127528333886 -0.36978783815379873
1.0 -0.22461425258323228 0.14026800646142826 -0.002749049998544543 0.15796661147037075 0.4451521286081141 -0.4514264818263107 -0.37956074854227145 -0.4321997697758287 0.30788721896878635 -0.1991226357786168 -0.11697601085577768 0.04584872134632421 0.14789581234518448
1.0 0.33709186057444757 -0.5306354098675813 0.20677409388964962 0.46398560068992545 0.13345962552627788 -0.07534824328156563 -0.23404130910838533 -0.3092224015517837 0.0021146530602875343 0.04920510908067792 0.14538031295229964 -0.16058183181427912 0.3514637161296285
1.0 0.08365560234472602 -0.03931090277892624 -0.29500319219234766 -0.36331903344001015 -0.2778724080190409 -0.13051917654470024 -0.3018512951964619 0.42436988020518024 0.049446595700508605 0.5378895889167341 0.3307346679311719 -0.06275116789659363 -0.04339532346842204
1.0 0.3916246310063701 0.3336765646725162 -0.3803304770404316 0.27679809963268504 -0.09096152219175603 -0.19934250681753532 0.26378368403964025 0.17139139030878073 0.03891562902337157 -0.18469217490076392 -0.3339055545836468 0.14270000789689608 0.44673429170225615
1.0 0.1181585330704999 -0.01502083890009834 0.21451094477353455 -0.15115343556758382 0.20953523145379765 -0.1683059741064108 0.3115388463106391 -0.42509330282695207 -0.5296047030669198 -0.458380963185579 0.12628761469777774 0.18558141324918292 -0.16116660463475058
1.0 -0.15666618008886388 -0.13423676288043138 0.3733400230697983 0.4388870383973877 -0.3446418081119845 0.44260738510244846 -0.0859787955969774 0.2563767490091125 0.26279392327944834 -0.12889081318230228 0.31792258734630074 -0.15143306579895766 -0.16718462082502733
1.0 0.26920147490583457 0.36082713389364707 -0.24025587232982362 0.137198830925331 0.28230241293159325 0.3986774046171391 0.088060679223633 -0.2233441720786964 0.34303182722798775 -0.24306454971609556 0.47022516438938766 -0.11745194027156675 -0.11337742682576128
1.0 -0.25405246162208567 -0.4736715160086166 0.30292158083293885 0.08268715391096461 -0.020488449760889576 0.4294015753498162 0.17332039313921158 -0.3336415068955375 0.15893289770644148 -0.16889779731016225 -0.26389083998017887 0.29563327488333 0.2747878240905025
1.0 -0.25045263155385766 0.23471610990284134 0.3146532045126143 0.3556415461745526 -0.07032083861531324 0.37188951317746793 -0.36762962013832545 -0.1069975174315696 -0.18858048852250794 -0.3863330426323913 -0.275686147096524 0.3142922638898244 -0.08514189689531174
1.0 0.3494276183531491 -0.18116512602490142 0.1696189760231761 0.20250886325759038 0.3416287949179523 -0.35720518468530055 0.25202460317073827 -0.17867049981527097 -0.42211501984841304 0.07435232963896038 -0.255674426416554 0.37464561265445273 0.21474558905739058
1.0 -0.3508359018602796 0.05172523325284538 -0.20561393665614366 -0.3075545333204185 0.33236112088925174 0.06434328195704536 0.40690888402117203 -0.4142065200633241 0.008985397631005 -0.011152499617206211 0.3324806419544272 0.2632994517562684 -0.3248858881818026
1.0 -0.08970255971634476 0.12462446043976098 0.3733271976860157 0.08423492589913614 -0.2402582051245349 0.3805387891722889 -0.3091636200151561 0.36596368510027977 -0.36796259846878654 0.19396352209089135 -0.08218792571769601 -0.3598507148474949 -0.29772877512233287
1.0 0.24359963661876233 0.11769591526908198 -0.03424074249971478 0.3395082240301231 -0.30606297488483397 0.2360814413310601 -0.052634251957996946 -0.5310228482424031 0.009679139957424634 -0.018075167450807395 -0.3553531914639921 -0.493876798553096 0.07478919911867148
1.0 -0.3084474354289787 0.3155316201649805 0.3216525409450236 0.2341073148161092 -0.11312382315315854 0.02465596411569423 0.36912799315055694 0.23129581800673873 -0.3297942983215434 -0.3887622991582112 0.223162081036785 0.07718563556200804 0.35807247369571243
1.0 -0.4744054096061987 0.2815596564237196 -0.12411313255570731 0.13511659819314062 -0.08371204417925951 0.16799003705298932 0.45948408474656594 0.2238782412554698 0.10555071163888666 0.2845407284594389 -0.028447115909919825 0.49305876850932834 -0.17177626730970963
1.0 -0.08636830493581457 0.5171107944641752 -0.16300980307889087 -0.4850860234729069 0.07648859680016537 -0.10510784892027511 0.41255447585357813 0.09135417783431632 0.003022614818479708 0.46167500951964363 0.08421971536324893 0.1158876742724066 -0.18475790988052285
1.0 0.29719810574401073 -0.40644050817769284 -0.18788196379399233 -0.27995214833365334 -0.003580047398376318 -0.46663731223387755 -0.406497597166532 0.16603125270523073 0.19731962769940017 -0.09635514783308224 0.1885605210356001 -0.05440800935500531 -0.3681060156108498
1.0 -0.15871658652436824 -0.3657359535982087 -0.2836374260595535 -0.0470196368527902 0.2563804514919203 -0.41202629382927 0.25551845218075553 0.07396631844365185 0.22426368499606286 -0.39503726621211543 0.4015777862157862 0.26833261187264673 0.11185782150855561
