30 15
0.029392886275319764 8.433125051788645e-06 -0.17797725642806264 -0.36919592080401514 -0.21810515395525365 -0.06819275271258968 -0.40128598616606 -0.29673821355042107 0.34181913371037287 0.23568072136987128 -0.21419231729910734 -0.29088435963422765 -0.4049868825209458 0.06339833919718858 0.242773351399759 1.0
-0.32003943121395895 0.34114651925555106 -0.21041853531973156 0.32310177228817866 -0.2496727719060243 0.10478348275517045 0.14185340642082642 0.2020325902429954 -0.033509543341569685 0.32866509353349854 0.40910349341083657 -0.19244376794830054 0.35369349672529093 0.03456051768852378 -0.24172308025730974 1.0
0.012682666002476594 -0.14794102241464555 -0.10565068450209744 0.23237137725008197 -0.20025717709898858 -0.19575223776443393 -0.20244751886319448 0.2834044879362297 -0.34953950138600753 0.42173378011017426 0.15701345475171036 -0.35764365711926044 0.30105647960479265 -0.004332128738719591 0.4120872195374136 1.0
-0.34170865513300275 0.07270794708837068 0.3595290909864749 0.3233276044623648 -0.030959231190989478 0.12480500864643111 -0.3239470048737303 -0.49472904071694346 0.039355032409209185 0.38145278125081455 0.0032559263001029513 0.20493400962770203 -0.13494493392813006 -0.21575729338596614 0.1552052041322728 1.0
0.338196841163554 -0.08587699948744944 0.28060723399738485 0.05137544454355217 0.058666689567779214 0.5377058081139516 -0.13235322449303374 -0.4655857509131329 -0.24118565632346528 0.16704918106242012 -0.14459908055606766 0.17130136643120872 -0.36174861315795503 0.01356973641122246 0.05134392529119145 1.0
0.303062789319966 -0.05415505346793778 -0.10341620803553474 -0.23901001536854838 0.2954752651154526 -0.044508205350491055 0.3646438847503141 -0.05557938804020499 -0.2776350003633954 -0.3651576024249729 -0.13924027859361598 -0.161362744562645 -0.374312575406956 0.24506007756306686 0.39502813622463945 1.0
-0.004592451246489958 0.22037979110383493 -0.3880584823518675 0.3334542265228926 0.38927532206945076 -0.23344115455881953 0.05599891995998227 -0.22241943625966287 -0.3352895476836087 0.09832071772343548 0.36019062163469046 0.303046179847089 -0.1525124717040237 0.24902414565894304 0.045396277128384094 1.0
0.35445729934789555 0.036415354032996054 0.30418080472353626 0.09418256814529763 -0.46141018711254783 -0.07633308740857311 0.4262087456170766 0.389293892557458 -0.30796098023191537 -0.15013038002715806 0.19773861103936485 -0.11621301074988868 0.2180491768141579 0.033589111259604676 0.03238990239243339 1.0
-0.3914033598585744 0.42249154564172675 -0.21472826984135748 -0.1431720025989379 -0.24943187404441317 -0.0516083872245253 0.18833365434678728 0.2045569529562202 -0.06556192348665582 -0.31213360625420394 0.03175300670163433 0.10343822419172732 0.291611887715377 0.2852369264642305 -0.4238796797124334 1.0
0.006004496015078848 0.050599153900358046 0.09463830627419086 -0.2703710471434837 0.16402937690056127 0.008718715711245158 0.0013923091556187549 0.24380089087568904 0.16231291301645578 0.45000462167789984 -0.522506138093894 0.02651882134381528 -0.19848112216016123 -0.5330524184552309 0.05309523451414263 1.0
-0.3462844128242839 -0.3328951502924345 -0.3779369979873577 0.32971711119033525 -0.2696692273726222 0.020498612053163962 0.004848654550994549 0.21496501445137034 -0.3286858131476335 0.2588015110001983 -0.20109611890414567 -0.13935638679454176 -0.22281169863478437 -0.27556427718303417 0.19465318636812357 1.0
-0.07024767151676425 -0.1306265874924433 0.15852369432741092 -0.07844434523394903 0.3617519357752671 -0.44719427813758533 -0.27480279172978483 -0.16541475136102662 0.2108383724638089 0.02603433286009146 0.43312074961740676 0.42004388082322125 -0.16869156003221322 0.24255682907193002 -0.12861249342629855 1.0
-0.34634057213751984 0.3011724293339962 -0.09655064674632612 0.03450066701893596 -0.24258365549480962 -0.2880649105607972 -0.4252001593069243 -0.23296278277747126 -0.341864929387387 -0.031375404032630234 0.048809148638406276 0.2988984283847335 0.3986156114814929 -0.09882845356435006 0.15393465460817607 1.0
-0.45027522081675375 -0.11319070508655812 -0.0035339443755108874 0.1309645232415655 0.2919651734110247 -0.060110143727656926 -0.09922835684683855 0.15258435202811618 -0.39177579898330567 -0.012920728691592196 -0.17207382394362164 0.4119708161331355 -0.48779727326383465 -0.21992219535146096 0.07742237142253389 1.0
0.08910142501146104 -0.435441711702389 -0.07837084020011599 0.300472704362953 0.14093030379274243 0.19153928866512057 0.05836873955450342 -0.07876372317983173 0.19646694371611823 -0.22037437726751238 -0.4517911117821999 0.418395117148656 -0.31112553699159995 0.06631936903691861 -0.2689519776610307 1.0
-0.25034249525749563 -0.23100384318609882 -0.13625815883719536 0.11289952849564298 0.27309132119433505 0.25363172756386987 0.3440641121794252 0.39908632401963895 0.35201494151821716 -0.08895960888817234 -0.22518264259569667 -0.4545811901148009 0.17747604209851878 -0.1165692171002382 0.04277382349917975 1.0
-0.33299225599597365 -0.3667115885900426 0.04318804557616175 -0.27388669288893897 -0.39712305784222474 0.23475929217227942 0.15044835845235324 0.12068447145593589 0.4093106890824962 -0.05365273648038015 -0.2082170469663891 -0.006676630910093626 -0.30518928391256667 0.34695023863682406 -0.02034213345268706 1.0
-0.23558199880537878 0.4159643399524084 0.39832577051592843 0.07686473596227865 -0.2277758479015116 0.0023405026741976833 0.2883421273440093 -0.09526219004820996 0.12879129243499196 -0.40846113889626845 -0.27737677407813494 0.3688478275181565 -0.19656760383511196 -0.09520248716541947 -0.13668639450494746 1.0
-0.12277010093908287 0.3847090855715336 -0.3165634088647277 -0.00877512926635233 0.1672871895223661 0.3734005523885848 0.3483956177900462 0.29031762717823945 -0.018200989359152837 0.3212086411140137 -0.12673207157743988 -0.29886364333549875 0.24785251177138642 0.274890633577062 0.13295762176910272 1.0
-0.028002546103457333 0.2610165090031563 -0.1623355580670087 0.04164654027477575 -0.3585345542479539 -0.14615325921484446 0.3834648560728396 -0.10362777097893844 -0.35833892041877935 -0.4093135156894527 -0.25848908539340404 -0.22167822981577587 -0.17332945417619647 0.08846385408424093 -0.38149184153875326 1.0
-0.27466129033141934 0.09376223578378874 -0.4219533078123529 0.18373628264376057 -0.43227483696824437 -0.017074968629810523 0.29101846355417466 -0.29624084202024337 0.05428712023821735 -0.11705150582316452 -0.40251902906473414 0.00466146542075806 0.08934144282051554 0.3794234331576651 -0.11716335548340055 1.0
0.14204853903830114 0.2680581077818306 0.24118743149480754 -0.25716113492424725 -0.14453562617121496 0.25127830371010185 -0.3729155971206973 0.28495294553016054 -0.32257816722007027 -0.40885224797042014 -0.4067407619719021 0.18050784080614743 0.07366370154473637 -0.01613289151452042 -0.06666113034737174 1.0
-0.016905363907670144 -0.33029001070749203 0.15728165201712804 -0.31291380298399896 0.08965047225767146 0.35731532899500656 -0.15314531746156537 -0.027750701694612908 0.014380963281868546 -0.3025917708685213 -0.0032677038924224006 -0.16699505696249564 -0.2342129328987488 0.45784240172502966 0.4731734655787375 1.0
0.004851358209677046 -0.19174568049627763 -0.2643647568606322 -0.36076029198312975 -0.41482606286320184 -0.07924519781778322 -0.2700466725879661 -0.22282014515734894 0.10091415436424586 0.40986359065991906 -0.3986714241462491 -0.17938601583393304 -0.23277547130136714 0.07106471984023865 0.18361418264518437 1.0
-0.10199886723587476 0.0217032230250337 -0.07507076140790335 -0.20375068933766546 -0.39167936022238053 0.3144395640926739 0.33130031783008684 0.1735033605773268 0.3004870760163981 -0.11608613233645006 0.3924163281559263 0.24871128895528602 -0.18966815080161084 -0.42587459725179555 0.11343468741200669 1.0
0.23214186715518056 -0.11334898386234715 0.1137175611056737 -0.38718313543879146 -0.3608956739655552 -0.04382072137600471 0.2311084022462133 0.3798585694427252 -0.1393380452704207 0.1810418695257016 -0.23235129817677405 -0.36931310149132845 0.29720810145604976 0.18884486330869857 -0.2720010069361815 1.0
0.07218232949954949 -0.40990297118504554 0.14569361871460718 0.11671248012577924 -0.09459833981467115 0.19465392114467062 -0.13623555017914885 -0.2289381293248423 0.44106701918331076 -0.3372903090503609 -0.03228876270595986 0.25785597417753237 -0.4341917948038919 0.3260673598081511 -0.05856168928926986 1.0
-0.2738436432475023 0.39179138474824693 -0.26721163104436485 -0.16609573406522407 0.1365782780228349 -0.398601517094296 0.05606638027031005 0.23536005471066074 0.4013574767968725 -0.20168584008094126 -0.06919590873755324 -0.05794701941890359 -0.3311439401223652 -0.32553767179846255 -0.10441605952710237 1.0
0.16328469670725976 -0.04769978716739589 0.3104221226554166 -0.2543498124310825 -0.245613823670016 -0.38618398660450254 0.24818295700407614 0.21337399792677397 0.26527927834021664 0.31008299985831056 -0.1697183516693238 0.1049316256679098 -0.12915407514697053 0.3769478048168367 0.3582034363624789 1.0
0.3917731016283066 0.003373718436184709 0.2344545599274363 -0.34130854889273854 0.3173194103746211 0.371448185925106 0.2809671956132347 -0.32043449147807396 0.16373601993485945 0.34011455472556623 -0.14882492811042788 0.17330829894156616 -0.23587995548955484 0.05348952128741826 -0.03979063609198138 1.0
