25 10
0.16315071647100218 0.2265691114355981 0.4540171267909284 0.04359353157234609 -0.44145632513627714 0.4921286130666137 -0.27628964627119523 0.22870040733474678 0.20734551950187097 0.32451512419747974 1.0
-0.015708619580510293 -0.3566714058730191 0.024418521762011557 0.48416648285164926 0.19509738119481498 0.3775234604548127 -0.3541115596218662 0.26352395093049497 -0.16862282542002768 0.48338889334998963 1.0
-0.07415642887252037 -0.23067081898077624 0.340462293984614 -0.05773514669975453 -0.18677020515271478 0.46960116382099254 0.3319994704354985 -0.4594038295522441 0.20250625696212368 -0.4520522125347453 1.0
-0.11335858394829669 -0.018381938596339523 0.5785789535365414 -0.0973834751298306 -0.25310275587880576 0.23752689141096375 0.47328515852324926 -0.21495451517084202 0.3256268468905253 -0.38191312050190035 1.0
-0.17499268752357044 -0.4922707455277665 0.22844343194201694 0.12593045380420664 0.2576658356635687 -0.3573821970528591 -0.3263706179926 -0.0834327752593438 0.48304976513419134 -0.3436169234874141 1.0
0.5304235095659046 -0.2498616242886781 0.19561595626876138 -0.26085296554819865 0.12016643359827352 -0.31942487305308676 0.5292122444805394 0.33712534414857953 0.08887795738595758 -0.17838045647475834 1.0
-0.07693362079980723 -0.2931074530003404 -0.156126030101841 -0.664674725188152 0.30680028540585375 0.36718130786490555 -0.3523281414982846 -0.028908971833457107 0.06225658770210918 -0.29018296431746143 1.0
0.2817436949458028 -0.11156647264939203 0.4024539649590052 -0.482780524943165 0.2557894556034041 -0.1549430353293544 0.03296855666984714 0.4713965857460691 -0.42644636593747154 0.13613751784521935 1.0
-0.09687149603862868 -0.4504565427755614 -0.007518281044374985 0.4667465279661756 -0.12820886087505134 -0.4641940417137957 0.44751930511693433 -0.03620910712225875 -0.35316331678325447 0.10757970917339867 1.0
-0.3266923811742854 -0.08869404460453977 0.1947676942407338 0.24515852962101145 0.2648181230131832 0.10245575139829605 -0.07727717118731266 -0.5184720472725872 -0.41948323714542685 -0.5059557931894966 1.0
-0.486396498576281 0.4766183158914584 -0.06068362391909479 0.4455555367135148 -0.34026722030891776 0.11043132238177562 -0.18677730205330756 0.34091642767548896 0.10601491188206519 -0.2091061875676204 1.0
-0.08715122539874273 -0.1569232567893761 0.23664525311086537 -0.027081412412677315 0.19431252845250443 0.6500993202739538 -0.5374126195951543 -0.3890223969874921 -0.058138460193503175 -0.08442785160116627 1.0
0.1279553169159504 -0.1345262107567567 -0.1748598284309917 -0.08662833495336227 -0.4134208856072364 0.48766684571189217 0.1190758471902357 0.28017445936794766 -0.3423547027284446 -0.5557251108842624 1.0
0.23422769133284765 -0.14353291572998877 0.1868759655658555 0.06920632137417758 0.25174941113568944 -0.35115782134961865 0.4553326686940544 0.4642234938942174 0.3130386634618944 -0.42108131222250317 1.0
-0.24823627800208972 -0.3603050479102654 -0.08514934609923044 -0.3650826633148321 0.22556277179469192 0.4122925573800112 -0.049984624855307365 0.3377316813102615 0.36051384136048015 -0.447915351996499 1.0
-0.006825665554596537 0.06643380144870865 -0.3999165327686854 -0.3522821788271557 -0.4311825042992674 0.47934093502509334 -0.10165013246967054 0.2956355964642094 0.4388731475000698 0.07399401789934379 1.0
-0.09746203044824132 0.12802363425079893 0.43175227762219853 -0.23656988978294952 0.10137973946387699 -0.3554423770287242 0.0628381363822648 0.4747104087159775 -0.44424173468683703 -0.41045012167594874 1.0
-0.16684048797673545 -0.05442143488201256 0.3988814569986985 0.33934451960278356 0.6054912478599361 -0.19765388267337805 -0.259790826965763 0.4643843293362003 -0.05948585943518694 0.05071571869790348 1.0
-0.13383706744487053 0.46691835440702084 -0.20631231937000527 -0.4328168809867246 -0.28576853617705344 0.16451498571273124 -0.5191209521703024 -0.2401062556662157 -0.015581627266381943 -0.3131620398632841 1.0
-0.2588240806003285 0.47772823360804983 0.2369925979578168 -0.3742853496848636 -0.06977960796057378 0.4073618935571526 0.43567399684155916 -0.014471727544985427 -0.23685232464485878 -0.302650992924692 1.0
-0.23429353905430425 0.2878831122708974 -0.46940663011685274 -0.47214788271542657 -0.34005885027160243 -0.04899456548361835 0.11584600850370176 -0.3754515795986872 0.20765646889197473 -0.3215863168719489 1.0
-0.3361100906172642 0.19812510503601505 -0.4316525414624627 -0.08688753655094457 0.4320495365100975 -0.07874782539755855 0.4041177732689992 0.3042319639282125 -0.09208422290249585 0.4434944199449699 1.0
0.038337672883659656 -0.25242486641811795 -0.36645536859071093 -0.3621168601328287 -0.36784810016228464 -0.2762490819801141 -0.1427262806112124 0.4887676009986799 0.3880645485206882 0.218881975550088 1.0
0.13671650176988956 0.455907128319418 -0.34242103169301064 0.35257757389509564 0.04414556479126889 0.21983231759517516 0.36821139882431714 0.232645472463926 0.4421293235594577 -0.31054341459547086 1.0
-0.19087138703091977 -0.38540350791649813 0.39336198783959064 -0.2414721970189829 -0.14094728112460223 0.3899666712985323 -0.34913403903547785 0.3997744556775163 -0.2042477112656535 0.32652459834666064 1.0
