50 10
0.15057144791165464 -0.4840563236873496 0.30100832010071565 0.23075188874717448 -0.44167729751807316 -0.13476920589647007 -0.42557385511744145 0.4104292077746011 0.09171646599040917 0.16717220688027298 1.0
-0.44988512009069065 0.09798734898099877 -0.0030647375542763324 0.24446912385723807 -0.4356469496891237 -0.174426883647426 -0.41120465168376563 0.41369277780332847 0.4079492427101384 -0.03688828962816609 1.0
-0.03427731634566022 0.26741331473716756 -0.4078269351791855 -0.12946796973064503 0.3642560523176121 -0.19914403831378982 -0.4458709992212722 0.25848321660512663 -0.0023510420856808247 0.5534162557999764 1.0
-0.4432517017165875 0.4790876554338221 -0.4793291078597876 -0.04072272478584478 -0.14745295670450326 -0.0421736026848015 0.3833453471620045 0.10277337616574295 -0.39153365695633535 -0.0908438198638148 1.0
0.201991992946097 -0.333869800247545 -0.21763159359230316 -0.32320767770619335 0.19837423765154 0.02101318085034946 0.4556783833770548 0.511230257708593 -0.23061523310290588 -0.3659604277299185 1.0
-0.3384127024990618 0.032524696737897915 0.6171267440599413 -0.4457567259270649 0.15221113228092498 0.2885408603498943 0.017725326679382248 -0.03492419615497749 -0.37900156075358865 0.23081244188265002 1.0
-0.436997204290223 -0.3680556146720276 -0.10192040433410783 0.38694989194892304 -0.42327862970741376 -0.268483884789226 0.1003360173338306 0.12610157474571923 -0.3285471238585943 -0.3581759195842093 1.0
0.4954959014128661 0.052936237286111305 -0.04255461009322843 0.2867712736480485 -0.28244119947528973 -0.27623449726180455 -0.26096678736622564 0.372504265090253 0.5024953327315825 -0.2284507136362336 1.0
-0.4302668610391853 -0.40124933477063696 0.2052116191892858 -0.3293586892788948 -0.40841956888573133 0.17005624662897048 0.09043545821026609 -0.295174491718997 -0.3494477176412007 -0.3002241054438408 1.0
0.011170652357036856 -0.2810860599100995 0.21986748641294218 -0.4140574576292303 -0.25921062260441 -0.3629434347585551 -0.39788334171511297 -0.30871352628798665 0.39512129195379353 0.30401717001202355 1.0
-0.2752983069256613 0.2861996020725504 0.4087789747471167 0.18468231542882446 -0.11326641363262928 -0.03642137935807039 -0.07441646693321295 -0.4617420186793885 0.43509737453634867 0.4678501866249681 1.0
-0.2862863043914339 -0.2498481599263516 -0.4030277969863028 -0.013612352434292213 -0.10498714991448445 0.31206233920655285 -0.4044566015957479 0.27367023012565406 0.5276314069123238 0.26022817569771933 1.0
-0.3227166248831979 -0.07255356716178515 0.45740613228170796 -0.06523759648595713 -0.11244868322699011 -0.39689636307663945 0.4105033968605906 -0.36433424241813417 -0.07004048453372926 0.44808935290048507 1.0
-0.4558898689217499 0.17266228799551703 -0.04888685355462224 -0.0406665753569008 -0.38446615813074 0.49086267193069016 -0.4772381554512574 0.23079664055733504 -0.2772327848065797 -0.10801256497048989 1.0
-0.08780957341781852 -0.14119938526455328 0.09848824762872498 0.42284278279320703 0.4747423771135133 0.17060582919565712 -0.49988596566808563 -0.0037332158663871554 0.1337166159850336 -0.5114582446200056 1.0
0.32351519280310165 -0.24001509221986467 -0.07630416154025857 0.26202984314620464 0.3037377533167288 -0.5692110175366348 -0.2448582674730515 -0.3197447963935034 -0.4116410227214585 -0.12389620224968255 1.0
-0.5461196405897067 -0.5602306041646593 0.03419700671118386 -0.1801929206138731 0.3945590209731748 -0.13463602713765244 -0.031763218596732874 0.38475559190853276 -0.16338678958859526 0.06863958773776324 1.0
0.12263536918965609 0.02502174321547016 -0.24027162703199345 0.18768245601314235 0.06031179833095554 -0.44989327482388897 -0.2792781670556391 -0.17939588904501858 0.5148863371290993 0.5568219895319703 1.0
0.44645126194808604 -0.2883411168034495 0.05795809677503424 0.42564852963733174 0.17847649268495552 -0.22714696263587045 -0.3575630486864959 -0.38520855460471126 0.033549023688246894 -0.4149611510833311 1.0
0.11865322090439988 -0.1285272601175689 -0.14935276897351185 0.34952687118010195 0.1625919910828113 -0.22325459497022787 -0.4729893320834593 0.4030836352755168 -0.38494307185004667 0.4628948149440097 1.0
0.5972646668784889 0.03466250844196712 0.01638444480088745 0.18038963188601026 -0.15062840495422825 0.4435397573412786 0.0017238116587038202 0.12132603366335613 -0.4396035189983856 -0.42646675635427783 1.0
0.42503752642626536 0.06203958297409039 0.40038033390502514 -0.4040895957900499 -0.200460686223336 -0.29781823050333617 0.3034556638673967 -0.21119713343987578 -0.3566038978024076 0.3149051982654707 1.0
-0.010940537556207665 -0.2658977321779247 -0.4359237946321441 0.2910285886211266 5.8630237736412966e-05 -0.04226273486034639 0.4142877783226871 -0.4530101029584432 -0.28311754516347004 -0.44233166664233714 1.0
0.16046165601424672 -0.24979244692029204 0.3248826437431375 -0.3035817055105825 0.31513038659301923 -0.00808979452067695 -0.22022882096820198 0.4574075395948012 0.4176805618663437 0.42730920693409247 1.0
-0.44676167655418203 0.4122002389606619 0.3619251224196656 -0.12004996062347535 0.3318426756537013 -0.23313408879211422 -0.43060549456902736 -0.11868797778035364 0.3292212867540244 0.1128163625656435 1.0
0.2815323356899822 0.387659400906373 0.3659871161869579 0.06815737462934696 -0.34715183381880316 0.04342408190205572 -0.4007738073499579 -0.35719387452759005 -0.46620118473082095 -0.06258622854602952 1.0
-0.003286202528330115 0.12489238319493554 0.4351092001618847 0.09140924208989343 -0.3645162369474155 0.46979188408076483 -0.4291983630912412 0.2739130729324097 -0.10908492497048693 0.4024919866060887 1.0
0.30190669197193004 -0.20838844682847127 -0.3982260523800267 -0.42426000454889606 -0.4060522301204809 0.3463663003553693 0.35314310051274317 0.06364761026867548 0.31694398738670065 -0.11306404307313979 1.0
0.03684020075206965 0.39265313242000033 0.3016282933364532 0.41987663996045355 0.3957206423975006 0.06691785054566156 -0.4290378768754802 0.313150351375626 -0.0416932060803837 -0.36365162690254255 1.0
-0.3492033491492794 -0.24339394265699404 -0.17959361538998986 0.10976595969434051 0.5224072524044641 0.5013156223776777 0.11232698906077952 -0.20457903846460934 -0.13256181535196768 -0.42219037895204287 1.0
0.3579502606186884 0.14137068672703046 0.22363308860954234 -0.3292741851698806 0.5119901328542028 -0.504032790789512 -0.21977779795158117 -0.22578288176079328 -0.15248884157136505 -0.2339587681909981 1.0
0.41792003915771586 0.25890933506084296 -0.33304418143248443 0.21696628754695993 0.14811156442836143 0.30880039472382065 -0.39880618562183506 -0.3204789855643948 -0.15971739731416876 -0.44244601951920004 1.0
0.0025778304761500566 -0.28749076925182065 0.016771563705096505 0.47170548208696106 -0.25698427348180247 0.3546044069922056 -0.619478781263107 0.21286557634238695 -0.18856855768449513 -0.19531013275237652 1.0
0.2742367512256029 0.13272791722152757 0.431989104613901 -0.4544051005089095 0.005879216234123477 -0.32532671841903743 -0.06804947145639909 0.4334289999167597 0.3177337769995223 -0.338763489638542 1.0
0.5748977153843345 0.2867459956437035 0.3948673143111473 0.0684085670931982 0.34110020982137135 0.16565274546999373 0.11585135578755142 -0.011635894758822589 0.0928964583890912 0.5105806057590833 1.0
-0.3610495516319734 0.12384163608989605 -0.34014818416502607 0.2500208931297276 -0.4046008896726154 0.5295084426676979 -0.1042926674796284 0.2550870674024389 -0.11488969533314403 -0.3779790350334256 1.0
-0.4009654206058103 -0.3880466549785408 0.4081023424207219 0.26985331278011104 0.24577380376679941 -0.03456060419729238 0.397159052203447 -0.438392902571446 -0.1942593856988153 -0.004316948687291875 1.0
0.14875583317347438 -0.43131796916795145 0.3866790943031578 0.48670080284222633 0.17908188868176944 0.21871488089345 -0.4048466294589777 0.2940694449086793 -0.2487984938186943 -0.11512286390466149 1.0
-0.20696418250369478 0.008578873062467383 -0.010766627861079361 0.12827027661946575 0.6199287330712501 0.01163601658620054 0.387431445181467 0.43890044018442825 -0.28561159003728936 -0.36299492216226514 1.0
-0.2899639254466128 -0.11299302347451072 -0.26391897386427837 -0.49530139925596717 0.1308790464785518 0.5167554982596922 -0.2853893892267405 -0.37165928616401184 -0.28917206340246543 0.028513456451915543 1.0
-0.42192519595508854 -0.4495513909763583 0.37857571039904564 -0.4017958489864738 -0.4556695981534737 0.027401837577778695 0.06946846490638985 0.3074600468361534 -0.05028579466824995 -0.06965163728322407 1.0
-0.18294577447526997 0.15009991408462273 0.523639911590758 -0.08264073605428396 0.21686517698106175 -0.4339567988564646 -0.5514002278904052 -0.10613814390192094 -0.05163854425844652 0.33113372933698165 1.0
-0.142987904095026 0.43615458063373147 0.48291987525163 -0.10278936266855342 0.2057781809508988 0.4990643902583447 -0.2899835055708833 -0.10719692660414078 -0.2697042439180295 -0.2929410571096614 1.0
-0.21656268780046356 0.39114449451612354 -0.40866697015390957 -0.3383158246309536 -0.2063668378621065 0.20152232387419786 -0.27558405439072947 0.4848243193589824 -0.32573078603081673 -0.13542540950064644 1.0
0.4453302985890122 -0.03579181885599367 -0.16799616578050106 -0.16161142371251977 0.45219830121536275 0.10858141213447027 0.4957115735638728 0.36302495911910254 -0.39019506524704295 -0.0040504487833905155 1.0
-0.3291054468234691 0.4010354868808445 -0.42275889342456163 0.4344854496351918 0.060671017205605 -0.1766879874904442 -0.3485020915353052 -0.13515601217576767 0.18417373823636743 -0.3934679360243113 1.0
-0.0943300618949837 0.40456228801097716 0.1089529262889084 0.4683541640892201 0.14304852991974562 -0.30301138225742896 -0.5723684294656793 -0.11524522404172285 -0.13402799044723632 0.3536601034172014 1.0
0.3900823990170516 0.09846400794723405 0.13054329413929688 0.4274444629546233 -0.4205812493165406 0.2618577118430527 -0.49480023915169297 -0.15633329042884433 -0.23110764268170703 -0.26505485312599825 1.0
-0.49469049529573084 0.11283367413649682 -0.14244629052117727 0.26685967842407937 -0.09050581933009377 -0.7076896695201734 -0.2604426443075687 -0.04006218665294346 0.23285585564258368 0.1355421382246825 1.0
0.07926831384091625 -0.14936128492616643 -0.3211167361776321 0.25961849440745066 -0.015950850349757035 0.3758879524772549 0.31598911234856203 0.46574175375347765 0.38829761170685817 0.4379546803955695 1.0
