100 30
-0.07579096016490774 0.13725633630755807 0.07117638599752116 0.31443869553720316 0.011700580560484918 -0.16137718562454573 0.06358137909617559 -0.03784591048625448 -0.1703714446364473 0.19694279005534104 -0.10506675238640822 0.30465782209875186 -0.2668495420632437 -0.07568120989479572 -0.29287996217608103 0.1552493366395715 -0.07954580359898651 -0.2300214573641593 -0.18946648431491914 -0.0010701304210347076 -0.2154912317157984 0.24878488667151513 0.03471503158999015 0.164064752425344 0.07852701571596508 0.1300062117153146 -0.01124916123654546 -0.2313362989121896 -0.31193314223266416 -0.27520231062247497 1.0
-0.010678391849259115 -0.11718703509864545 0.20589158708218272 0.05947600396604073 0.25744990645845356 0.2158488479456702 0.28726552354941426 -0.04180641883641195 0.1615520533353387 -0.27328211832880345 0.29233496986043994 -0.14103926273940798 0.19203570243038318 0.13752317536493103 -0.15669559060077867 -0.21055812746033303 0.06820306367994475 -0.1594518539749085 -0.22653952321197382 -0.04635977386980102 -0.04759391708763036 -0.03256952173158354 0.23233060626019905 -0.2442470693665352 0.2664606589050083 -0.0023869485693714635 -0.20309216563932436 0.20666828041199586 -0.13861841119888937 -0.1938689054800416 1.0
-0.10937475498334406 -0.286957609584672 -0.282083896511955 -0.12864001537843117 0.05941641797585411 -0.07248983903326031 -0.06251399898110539 -0.12429348980391523 0.07674159032359318 0.21789018333823088 -0.10499176456383326 0.030990788252957285 0.025781194651525924 -0.17803251409430346 0.2975214751445737 0.28693363569747793 -0.22273641748082768 0.18448035905810037 -0.2932128996615609 -0.07351305385717002 -0.003687280739813255 0.25680705061095777 0.15978812686298674 0.2514994765607726 0.13393833891062326 0.23697400820803644 -0.15980962579962893 -0.0010273600649121305 0.11751317319031755 0.2639238761408923 1.0
-0.11279507728635747 0.006608203967698166 0.2885026054039137 0.20093333173346198 0.17342740114146507 0.11955714251991396 0.006037175397678418 -0.11335416305811408 -0.18908911417991386 -0.10640905845136323 -0.04271302843170393 -0.08480781513491112 0.3633850416305947 -0.017127324269411145 0.2219133077078803 -0.3424975777317746 -0.2384955897481834 -0.13791342020112382 0.29599887220793797 -0.011762335336429926 0.0293026436363159 -0.22007882892581887 0.12482941070472288 0.1414898761436344 -0.22379622789140793 0.07374933424452856 0.22458859491805133 -0.0093068497639628 0.29849508367045563 -0.0876574986225602 1.0
0.0008530252648153249 0.08163658371585765 0.07870633868138333 -0.033758886017546605 -0.21223649543342016 -0.29562243446484876 -0.03908503394536626 -0.23375642852426873 0.12603804949627914 -0.26434249374821095 -0.23561284605378124 0.10264831231501133 0.12101996555462194 0.2253507172126683 0.21532580540966145 0.05613312117276645 -0.19916830501191687 0.18540996085433986 0.17817690253795027 0.13473002101680798 0.24153365050137365 -0.22967031580829791 -0.11323568459338024 -0.21716429673929216 -0.04107090324685174 0.15615171684628282 -0.225053521751743 0.00974844933149317 0.2602198500454268 -0.301817586163342 1.0
-0.2957726148995196 -0.27704051211094033 0.17407388297274573 -0.01670093447321233 0.21982730402856818 0.23154332353110768 0.14144848714970537 -0.045221133400485454 -0.16310418588061187 -0.19651645112710292 -0.08306638718207704 0.174660818720728 -0.14552100122782807 -0.18358220399354694 0.32344831368880406 0.20355239043377713 -0.24012559136314915 -0.04831330429310203 0.051800764648634756 -0.06055133534979631 0.12955931723089953 -0.24767922414817553 -0.016322749765385263 -0.09249385459745911 -0.18300937251519997 0.2421808838423337 -0.2891594223917283 0.1412090123769602 -0.02541247960152512 -0.16732849437832803 1.0
0.11657135327292294 -0.2298797094261719 -0.22564523501319755 0.16354468794752772 0.02823001155420065 0.2318790474883866 0.10396660997342315 0.2800917326672896 -0.06921064872816869 -0.30705632743202366 -0.2698082156801296 0.0893223527355787 -0.18804258130423973 -0.15415392942590103 0.247577240014976 0.24491420954027046 0.08445275573045921 -0.1361938342381984 0.3121708479347148 -0.20765746616094458 -0.07406783008568538 0.036660954416321445 -0.014942121656739903 0.25659906519946024 0.07286249423361686 -0.23184138221437411 0.19054103640516012 -0.06041592909123677 -0.056644515911673424 0.10225130095773423 1.0
0.0009200810170820953 -0.2512200688391756 0.2788983581749857 0.13309999313326187 -0.03075542018667313 -0.28387787526558306 -0.25396064553855363 0.0859014066369721 0.1415734817165854 -0.3040616275655353 -0.14103297296319758 -0.2754202370286722 0.10121789589715346 -0.12505043261696147 0.018411092034693852 -0.04825359696206247 0.044884263120987984 -0.028280054343928607 -0.26269701886685387 0.17315567175159122 -0.13376841885761426 0.0613641658425578 -0.20425079758700446 0.06825152884950371 -0.26450047015347034 -0.27481912555186483 -0.12156279502558116 -0.19685444123939402 -0.03157536495993469 0.2851868228677827 1.0
0.03457927060509382 0.2777723680455844 -0.012072397984961146 -0.0835229109025322 0.18497002869129414 -0.003097442814412385 0.13651825263012035 0.21107447097882087 0.15728824631804067 0.2034144408446044 0.17635526510651045 -0.02180459013164102 0.27350911125340815 0.06658437090838777 0.27219237424419596 0.093335474717543 -0.2992228335105567 0.251025676538724 -0.10643013183966085 0.1604718080891573 0.04053542469229085 0.22723610141028033 -0.25821314875041274 -0.12434838531111268 0.2146919284198226 0.017451937718302474 0.21117630669378956 0.20212377830050393 0.22743924213470157 -0.22081506456141992 1.0
-0.11634615191449822 -0.15109621750642174 0.21186545323676378 -0.20351032480840506 0.1424688096618077 -0.11721712685005482 -0.06306324707520448 -0.1266499941036404 -0.030362681121213788 0.2716225290027059 -0.12441895135449654 -0.27526846309557584 0.28409450161652744 -0.04813334470175058 0.1949081719618836 0.10450175286517999 -0.20112647306933612 -0.2920090850306341 -0.2937298738169078 -0.22772611382105293 0.2338333457637928 0.11693536183549595 0.09895057115319796 0.027208170271945113 -0.27553555378739997 -0.3014269600041217 0.04365336910523762 -0.10220515989781655 -0.003555309406791591 0.05918327437793936 1.0
0.10289618769276654 -0.05653757736643634 0.23494564213171842 -0.10420909942871354 0.1211410646472724 -0.27379125416968886 0.11445471658796695 0.12945110714968847 0.05264597954822705 0.02332460104120101 -0.2911687414149058 0.20234892896055034 0.24796429538053846 -0.05216109499347816 0.2784752853354968 0.18214823884831985 -0.22587484727596857 0.17557276539717656 0.1250869657084183 0.27975739500271957 -0.2557173435802224 0.11865226820877878 0.24848168485384045 0.21399134540063866 0.18211867514935082 -0.2359933415696279 -0.14432968616931233 -0.12141807766300337 -0.06050200668470295 0.07637919977458615 1.0
-0.2533887494603202 -0.03870548249349578 -0.28641170170607533 0.17482104156087605 -0.10392308080642403 -0.06548115558101018 0.21024087225666074 -0.14711463818645631 0.24537298824981188 0.2767902262487636 -0.18637906722521455 0.06920797995992704 0.2703290257275096 -0.20232621907219764 0.10842030226923205 0.27539048635158386 0.22906098757050097 0.28650259960779834 -0.04406831554753468 0.016369712651552907 -0.011078938166164431 -0.04498599417893396 0.2042974710410308 -0.11798531892200052 0.2890416327607047 -0.013932576311106398 0.09798194393588598 -0.1224786358681304 -0.0010562807745476976 0.24475524844394145 1.0
0.1299904703423396 0.2862626683426144 0.022278131305805828 0.062431111538798864 -0.23789706413344225 -0.0649690032861335 0.03429682638620037 -0.32030727429042116 -0.27708293717316973 -0.005015497409238185 0.26666658086991013 -0.2708155849859591 0.16036457143651908 -0.176345562147811 -0.24510131489120746 -0.05917668207852222 0.08248969657945829 -0.24129324760732304 0.2082621637677325 -0.016727819007184088 -0.16177857181588667 -0.11161840715508294 0.19693194887081725 0.07757760557975905 -0.15866230940365844 -0.052974280494647925 -0.16973064546682615 -0.20055413850663326 0.3047765889985512 -0.09229975374051427 1.0
-0.11001501020138267 0.02453050214195627 -0.17358875767876597 0.1298449801101228 -0.06904671920582472 -0.1439547077920371 0.24107717985664237 -0.15678063787128124 -0.2547619466910552 -0.21959713188665048 0.22147559169541675 -0.21852403903287065 0.10037169351772585 -0.17884823738638572 0.2494839732046122 0.17693532037310167 -0.06562803264272601 0.1917882963210443 0.23847226628905144 0.015558527180729987 0.2198583390196498 0.26734430579467633 0.21892641414022723 0.2792559256016089 -0.09279633491034947 -0.10178680146732184 -0.10954704623300635 -0.13177652432190273 -0.26518263971782435 0.15488633218082967 1.0
-0.01933695276778941 -0.18802891242712796 -0.05994146836002624 0.2902718561323173 -0.289485094449572 -0.13983350189509278 -0.12651324624731983 -0.07627907862539611 -0.010387945152288632 -0.1250589581620474 -0.2964640385069631 -0.18396988298214131 -0.1686867377747416 0.03478928311916596 0.16165959289743256 0.026472254751211968 0.16637444684572716 -0.3336176548600641 0.20985725420502602 -0.2056452749819208 0.05120371382997744 0.02936657806293352 0.2952239371449709 0.049903571022437226 0.1237574042920488 -0.026928922306869336 0.3172406403064866 -0.29536767534547775 0.0008334847042416974 0.18678677712237368 1.0
-0.2558398039621362 0.12345866956769641 0.15888260726318165 0.023882338358797352 -0.024127189163775313 0.12253876521413722 0.036873076602708464 0.24120554939300515 0.04999480056428833 -0.31621534448566885 0.11168386928951039 -0.075499809725768 -0.058567276764770554 -0.23477468213770253 -0.2077209671707089 0.17812387634727478 -0.3051637175122857 -0.2360961848994406 -0.24899524418403218 0.0035084395523844046 0.21984157358309173 0.12288504061569168 0.319562783472092 0.2156719190142436 -0.05911380835996035 -0.0823027791732674 0.06661486550574576 -0.27639494294809963 -0.22310103013592905 0.02108930348840638 1.0
-0.1719305797588273 0.24380554764427523 -0.12237697769074632 -0.1834867583755368 0.0017290188487029707 0.1420613253498919 -0.18680504341525903 -0.0007271272551763681 -0.15910849634237925 0.08385835446649763 -0.16308982452680537 -0.020561227030204472 0.2412551236244133 0.13376644912346763 0.2146308455205704 -0.3012768373154447 -0.27029659063651734 0.14027271048507886 0.27506375859122556 0.0888866435503626 -0.14407839908693676 -0.025085107900606807 -0.16296455132728457 0.2009632413402065 -0.22301173802099133 0.267944191675552 0.07044082888046116 0.20726545583646028 0.24209060293123924 -0.20563939769741263 1.0
0.32524279706721404 0.06926359661534334 0.023919667101798117 0.19335535268361584 0.11349361944687138 0.2854656965393886 0.16899709966297982 0.13491365161888436 0.2699346517834516 0.2215905834144193 0.09091705364623318 -0.07444054638015897 -0.10055970893292863 -0.2787177382130732 0.07365709245967607 -0.130468341757868 0.1569342676150237 -0.18312899553917192 0.002264289246740159 0.3066668378986949 -0.2735728846175423 0.07219291326308723 0.2560299674764139 0.20984986781135118 0.12165966088548179 0.09030808518382205 -0.24549566584047314 -0.12598880334799664 -0.11483146585149018 -0.10084517133367177 1.0
-0.25720047431101084 0.1473806960316444 -0.03591065120473609 -0.22037122219293448 -0.09636277357696951 -0.08019206135037243 0.2576391374726019 -0.05234676897522953 -0.17207644544351533 0.018341716896017157 0.20265978797740172 -0.09204775700205595 0.28423176003239015 0.15504439497219158 0.03855660044020236 -0.15488043676410934 0.2835257250155924 0.2060407952814183 -0.2599542390406372 0.05003740265131311 -0.023349840061239455 -0.21454414862650037 -0.2641086699726203 0.26761635397259975 -0.17679769421492247 0.2440842415682403 -0.07615551033736881 -0.2767984702401469 -0.09347462241980468 0.06922868654672372 1.0
-0.0772318701231948 0.009411797176175664 0.011375997609528484 0.26112318421761127 -0.04604900333777504 0.02327781366034066 -0.24066671829073413 -0.2759924489763618 0.21786437561645572 0.2533911284338675 0.13039450421596716 0.0015704860128904726 -0.27922765473814143 -0.11449996244933294 -0.06868134376081884 0.1978960880282812 -0.23204137943157657 -0.2353714472478862 0.2508987229447456 -0.1253238468566772 -0.018705457186448293 -0.09381133874563065 -0.1482173362252677 0.09358052002639668 -0.25102107972026966 -0.24372634194362552 -0.3173998495011712 -0.13402505408738402 -0.14448665329609267 0.18833641777437132 1.0
-0.016406259580209758 -0.1544670270159632 -0.18045049607434752 -0.23915600731695577 -0.10214087783186011 0.13850313475289336 -0.3183608902780852 -0.32027492437626665 -0.17364448674747904 -0.1375974878474709 0.13394277518512052 0.16302966471375382 0.25803101486526286 0.05698053835204185 -0.0329247460782645 -0.03329721522213757 -0.24982756520062407 0.04746248434819063 0.06939985954999964 -0.16930445663170857 -0.037098486323207315 -0.29906056003566633 -0.08273570220773417 -0.11974047529582821 -0.19380540233569818 -0.2836489561823195 0.25000468489910904 0.05029615470746378 0.015639277425195455 0.3057869498638609 1.0
-0.17922379612502742 -0.2680116021179952 0.19408059145754544 -0.055351512096732496 0.11634630541625092 0.1838366034290502 0.07718738938861018 0.0018407414739961007 0.3040341848175609 -0.16909146902105643 -0.24585924498497233 0.0690246503650044 0.057767616443333066 0.13647998796768723 0.27480201399653625 -0.030888208283004898 0.28410908740587437 0.09436876679281192 -0.037577360695978695 0.06034879703399454 0.07505644073826616 0.19573394872387667 0.10474601063742081 0.2716794505992698 -0.29539455675463905 0.2987089795725366 0.19645715639890163 0.20350943463497437 0.10235297104130829 -0.16423491071945442 1.0
0.10270165681228886 0.20622051145052306 0.050179527181473144 -0.19914810214944806 -0.17869601399215906 0.29043064933371093 -0.056504956579842176 0.263963810894643 -0.1082091916591586 0.05333360790402751 0.29934370524038895 0.264342098617011 -0.29779545331066415 -0.044870995712944645 -0.20824888818969084 0.10214774036025896 -0.16072446067429544 0.011875346374972222 -0.019928540596324082 -0.24303678829472541 0.14468112485732162 -0.10287608268605618 -0.06615589646688765 -0.23042487954167604 0.18862094871572124 -0.28826226871264704 0.22781940391985567 -0.14121827019331948 0.17834238304717331 -0.01766793410296511 1.0
0.045945457159142965 -0.11229666802358843 -0.20327080844524892 0.042739977426587805 -0.03133649018966108 0.01523361656330083 0.13245717190277814 0.2793587110929681 -0.2546216123580345 0.24471989348967213 -0.05805909034939785 0.015636397834063773 0.03268598652409988 -0.1266958319706004 0.27409363357099015 0.2510505620558402 -0.05022568043909655 0.29485899955061284 -0.3231904745855753 -0.09436852711439267 -0.2027483958939122 0.11129018653354947 0.21649881150606276 0.007459655244580566 0.2129979568712415 0.24861902316849996 -0.19587481552433123 -0.21214733800609145 0.20907872689049026 0.15561043686635997 1.0
-0.21626782982749365 0.06282925520347626 -0.08941189347060535 0.28140305412465705 -0.015512963255173524 0.042588168381496656 0.010402763000751042 -0.1791741914889907 0.00112321398838564 0.0394864540195285 0.162648574893173 -0.27250685785320244 0.2675358418551955 0.15668976157748568 -0.022145574232260642 0.2861979110592678 0.21444745111237873 0.1910940280459941 0.08300667469490955 -0.07830382552277436 -0.24973098304250976 0.2427445485461893 0.09071263867477952 -0.25990798316133623 -0.30046676640612274 0.1690056787744218 0.09510189051723969 0.1502975765411376 -0.30106729935502163 0.11538917713587647 1.0
0.14974732222524756 0.26022011243166926 0.23624169773032197 -0.057248266694149855 0.28161280668831706 0.08213929066908561 0.1408875667667577 -0.11592025418375511 0.09023831729406977 0.13564150104512107 -0.1322301555964491 -0.22687566252616653 0.2136778455103439 -0.09748856568761834 0.2858517856621509 -0.23103159480467844 -0.04124747429269035 0.07055158014274882 0.27338230323534574 -0.1312902735268251 0.0591983369229717 0.09691322654245835 -0.14076386980133906 0.18739852838518176 0.1054855907288877 0.19802862200668836 -0.044716150601535117 -0.2692431182919695 -0.26199337583662824 -0.2927944511294963 1.0
0.0786961965165557 0.23959633048778103 0.08396336309540979 0.055501796631239594 -0.20839001724136497 0.03902835177063345 -0.22101152216944944 0.026421441081983153 -0.19982703391061993 0.33866982836351106 -0.04142673780424703 0.020394954079822235 -0.028751126330530327 0.26013569369631323 0.2529413125327919 0.3335476898616523 -0.17425656964195743 -0.16515237871160193 0.28391935248253275 -0.25294735584904204 -0.012747623907831816 0.07183014249365281 -0.2818428685712541 -0.02476762107452294 -0.2629408178682592 0.18214844237233044 0.16982753543018778 -0.05462112259027732 -0.06250876154263117 -0.0750556357038644 1.0
0.26505860973565293 0.19345340280393555 0.20628523128704432 -0.24036298727616734 -0.0001637489601170536 -0.26927868208015093 -0.2205470808526446 -0.2039182065340781 0.08464847597972566 -0.120013554898435 0.1868906978044119 -0.04245370581308101 -0.22508521125154032 -0.23827847960346432 -0.18908797366014715 0.12402566216068324 0.032004677670237396 0.20588663527577258 0.2676989775544797 0.23785159899215869 -0.055197573636336664 0.19022993055344153 -0.16496980442224524 0.09115021085170244 0.01669623440294659 0.2648366712315672 -0.10776153522292958 -0.21633658519789764 0.06500078798342641 -0.18143225387127324 1.0
-0.18563523213899336 0.17870362018464067 0.3215332021030804 -0.11189365458245354 0.001000616978016348 -0.1733681909040387 -0.030568566758657257 0.039397992440899636 0.06000766382205469 -0.28853763949700967 -0.16547253426282596 -0.16244884338927462 0.1316374831618095 0.04599173570442938 0.3273702234599516 -0.1852393443522406 -0.08804820730193441 0.06803056666298556 0.013895752513893729 0.3048964191681842 0.044304634197959325 -0.12132852405586099 -0.17790600053867547 0.21535527437005691 -0.2187344986681301 0.04994504251271632 0.11370104062327367 0.334751602340123 -0.003211587641300701 0.32866201269675754 1.0
-0.059191098915081154 -0.3263435705888819 -0.33271162317838787 -0.0552910237272825 -0.021652574016401124 -0.025646868444065562 0.1800378727559552 -0.1689500211005432 -0.047121547934669654 -0.1882699430481012 -0.11758941376167481 0.22378439932956684 -0.048242632477335345 0.08942163047465133 -0.0629789957378069 -0.08690002007339362 0.03479650516909546 -0.08059282278074761 0.2350529644411505 -0.046816204188720796 -0.05435917483747553 0.11986916750404134 -0.2695417334141377 -0.3310103012852289 -0.2515203697534831 0.1789503907063025 -0.3407711215685126 0.20749063327775405 -0.24684144760385093 0.10323770588121817 1.0
0.04965448806672292 -0.14356188282781543 -0.049658323201693104 0.03398421858362252 0.0016752711126864046 0.14366717786092129 -0.03435372477479384 -0.13964408343055787 -0.23046629800595794 0.06504751413305875 0.21658782205267887 -0.30616971696076345 0.0952337884738379 0.2210044578053499 -0.23362652400470746 0.10166940504984967 0.1147833694642942 -0.3113805296716092 0.29927729731896013 0.14452007972649006 0.019857971109964713 -0.14146701525773375 0.040321158378639664 -0.06659225245590071 0.28960541245483146 0.33808678056767405 0.15051625049719244 0.10399062412029754 0.27911618884748546 -0.233560902008042 1.0
0.2579032444535969 -0.15480931276924806 -0.08080803440583528 -0.2773557022049319 -0.31789663118651806 -0.011921234556200245 -0.19986109731824267 0.08724732844988874 0.15099741125551408 0.06970052247701701 -0.2582316543238111 0.26044816065229626 0.14103921425105284 -0.0997443691671847 -0.2156381358712636 0.31922446388844183 -0.3090695327877497 0.012700192308850635 0.10230363816707276 -0.20006680294567936 -0.26052039776281777 -0.07095474260694641 0.02947163249813634 0.07194216781779054 0.07741367654273491 0.06207014884252894 -0.1293105791913428 0.12430672483729648 0.14012322463503984 0.22384242577316465 1.0
0.2896588160373033 0.008204318640401036 0.2849334497607953 -0.02345254122744339 -0.1537354716473882 0.05603317668859619 0.2893374564200344 -0.3018676489140061 0.006768906461615717 0.00745881037529274 -0.27440135639849816 -0.2590711588125775 0.23057102600364604 0.19487892705909446 0.1756609127756338 -0.04637862767644722 0.12901342082532777 -0.13588196133320485 0.16092759924940314 0.008016924870284882 -0.006643723709116075 -0.1823056669717748 0.24536484460544894 0.2768385792894308 0.1684330214217782 -0.23588534086292132 0.05978177304590617 0.20731470509523195 0.04616938697392457 -0.04609873468333675 1.0
0.264755110485333 -0.2147589044259405 0.2638161929829008 -0.23355703945810988 -0.22220975031319914 0.17422702982590335 -0.2503207270773863 0.27329980154322436 -0.016970517012015518 0.1549188436239782 0.2672176024483348 0.07057781927911141 -0.022268665370987133 -0.11602075659449065 -0.043769925915273095 -0.27534926414495126 -0.045298867139056904 0.2427711868358684 0.05986789631380195 0.10716864573072533 -0.22076410198398205 -0.16122506594541136 0.011391233615786485 0.2488710864188723 0.017856744873335256 0.02881342793054589 0.07863116274112816 -0.2911522101863624 0.13804198987367794 0.16178006673479958 1.0
0.3191349164481462 -0.12514133429026048 -0.2688769228893302 -0.021465810452215038 0.03910544732130727 0.22584679347169118 0.2024000600086238 -0.10615062241547112 -0.19104965327739626 -0.012032428662050346 0.2106818280881849 0.12399880794868333 0.04544247565367396 0.17624450735610067 -0.31491565347667005 0.2913792641300458 -0.03543766497901413 -0.04052473741544377 0.24591376951090763 0.16760985536760936 -0.14265303527151676 -0.0015347751050242735 0.16139975313342567 0.2585636983720873 -0.18160518259905056 0.1576145756980809 0.06396928340887811 0.19189336537457663 0.14601031918263918 -0.25803113089491353 1.0
0.2827956196034918 0.08537237820346065 0.03775167975391109 0.3178573268727853 -0.2012968828865037 -0.021306779285058912 0.11384218763441528 0.3390512151442288 -0.004916408713046393 -0.2135942962909811 -0.3041344924180533 -0.08695784824165767 -0.07830273288187191 -0.2634656606892026 -0.29762337144778717 0.1170348844482063 0.26060151794392894 -0.20860489686187306 0.2055048610747425 -0.01972388477721367 0.03542608047758677 0.18476430197330684 -0.052245263034794445 -0.04625748447346384 0.23654381725418455 -0.14013028540142372 -0.18995864511497157 0.08995607732260663 -0.044673332897192886 0.04227182931880496 1.0
0.09172262508185199 -0.19366857997119719 -0.22223265297975767 0.13336642117475642 -0.0646482025124105 -0.14750773781851576 0.22518917674906344 -0.1962622921942342 0.03381209822733703 0.2583114673516537 0.2326708251681388 -0.24722625150403715 0.26556152693887336 -0.1746594158363522 0.20374901748353155 0.12171879518948199 0.05384677706548339 0.08310347533825162 -0.16481622556646103 -0.2481068908922512 -0.23420156490578897 -0.0354214445380994 -0.14756264667198793 -0.08354806051794708 -0.015018478316742792 0.311675363408212 -0.13117019016186524 -0.20614436250101018 0.2641315829803387 -0.1450348275684873 1.0
0.26961471247820595 -0.17705587667678788 0.06292219761199071 0.13812335178127275 0.21928006411230225 -0.28920010774766397 0.08424711071619416 -0.002275796749742079 0.14342852681570878 0.3033957218718196 -0.22353300401580245 0.20934735486347725 0.13830790288120945 -0.24179909166185787 -0.12111953754769944 0.30937020952774824 -0.024971900243003706 -0.035284124844721584 0.15129676436219613 0.1176499423306031 -0.20573149365957658 -0.11842185375615136 -0.020486551918233765 -0.26725881134065377 0.3062074750806426 -0.08119464636943842 0.08017943589336093 -0.012691350400331784 0.12181408747516377 0.22611473583498662 1.0
0.046092134338313766 -0.16274087418379754 0.2332709363772493 -0.16998965949946462 -0.13152259079729475 0.07153948044598228 0.11249236830815264 -0.1531475961789758 0.1516019462925445 -0.23114233157555125 -0.30234890765832584 -0.040957586855399374 -0.12646940983955313 0.3134561818310203 -0.13457398141245805 -0.27743481931916275 0.01405782525602722 0.14104918829655957 -0.25164815472836194 0.016246178654134743 -0.23922892808032348 -0.31097916740094456 -0.044120914386688824 -0.02094990797651915 0.007668528397971892 -0.2662658204612294 0.16219587227469595 -0.029978936347557248 0.3121187437430047 -0.1230224228380597 1.0
0.02257852861523643 0.002831465892746113 0.1930796656916198 0.2927391811620781 -0.14530637714939781 -0.11448089001944765 0.28923473892224777 -0.01847224227105577 -0.25326318899217254 -0.06789568029621322 -0.031037387862090853 0.13180382268108595 0.17263442764306206 0.040969814672786466 -0.005074370749480472 -0.17225027931832923 0.10309090057506007 -0.2354801110678501 -0.2015167868061665 0.2012283605836894 -0.2896474993809991 0.005807262652104314 0.28077346366019973 0.2529802708621421 -0.12278746464608897 0.23699097635708063 0.1944620239932066 0.2345710674597201 0.24571260791700386 -0.10782321779952493 1.0
-0.03452550443632892 0.36015831160719075 0.1461212778043696 0.29347418740564835 -0.3499840361822636 -0.09708755887281559 -0.06514775460638857 0.31046878634235037 -0.17774514825070833 -0.14995571706791863 0.02659285310687917 -0.04686880271182442 0.07377268065279621 0.2318608135086136 -0.05444595668543603 -0.17036002519704171 -0.09559293909438149 -0.09585747119663758 0.24151474368053258 0.008554511747040992 -0.07170659634398517 -0.2060480199931182 -0.005364784187470265 -0.2637217237728692 0.03722734885985126 0.24106877429729712 0.14135410186062777 -0.030302544671985232 0.325448899482185 -0.025920319441031396 1.0
-0.06173801651642463 -0.2852418102235345 -0.11446946217266761 -0.283834732452393 -0.02096953202266867 -0.10919057636628131 -0.2150862112845843 -0.16245855037463594 0.1817299620975202 -0.2359555272480512 -0.1945323138488546 0.013773658209840795 0.02678821690141219 0.12261911201290641 -0.301670492111144 0.14405778749594864 0.12618771427629097 -0.18353625332414622 0.17352689640708563 -0.16987466983491412 -0.16556881309540064 0.29067124717368326 -0.0895022286283925 -0.16662837661454646 0.0026605450171140565 0.28936610885852376 -0.029700575035820694 -0.17206262219882434 -0.2881406758344331 -0.168493156752086 1.0
0.051045936662419036 0.14304268871794837 -0.14493208787473902 -0.12573457227555312 0.03174903961260981 0.20741701435087168 -0.30196100683765975 -0.25385877133545687 -0.135570243553908 0.028523407561303657 0.2583663936385397 -0.23614956654442906 0.2378324132286348 0.12575994394929668 -0.16827307966775318 -0.12833047529789582 0.30210554186007843 0.02147043055629699 0.2440708809816442 -0.2720582356799058 0.1574551811928003 -0.28683822173436807 -0.057420780873409384 0.006098514609794986 -0.2424924714448592 -0.05208574216079153 -0.11325132293051095 0.014818779094109539 -0.20601714982118088 -0.16989795513934527 1.0
0.15438606447621434 -0.0015296715057250322 -0.014704741343743116 -0.20203927568896135 0.1306965871211619 0.22987709743524654 -0.29140072482171164 0.2349810142182908 -0.1168982371626125 0.07143622762404143 0.0015359030522958668 0.29144408852490594 0.22079924888391977 0.2511927635308381 -0.28516218858865233 0.2547031194899086 -0.2784395532860026 -0.2930043805735123 0.15712029278026263 -0.0560006631962277 0.041841197183798404 -0.08063564909325012 -0.061319645100114666 0.0830367635352949 -0.11233659484422683 0.24135288198503782 -0.22386732234772366 -0.005465545716033239 0.013135086405905947 -0.17893753001272852 1.0
0.21029709675502187 0.190605830781788 0.2656246068980656 -0.3349802773579332 -0.21867468441412494 -0.27436001254206843 -0.0317560682498123 0.127281390456165 -0.2468237920996927 0.17976248755128993 -0.01278646693854248 0.22979554980225153 -0.08024250821011011 -0.2631012005707518 0.16537805470949418 0.10899867005798196 0.1266838571263921 0.2020774487019336 -0.0634369283244673 -0.11398836920873362 -0.11430133442069365 0.10880355667058526 -0.007009254932489623 0.06939473549992912 -0.07545933517952001 0.18567459884523368 -0.2648918833361796 0.07425423252481748 0.33119913763998493 -0.07787596368044418 1.0
0.07187256174629643 -0.25673338899384446 -0.040513181181833884 -0.12063472345079626 0.11761735321854541 0.05408131891317879 0.2058680781928511 0.29467803206901044 0.2858585893310858 0.18148341589598582 0.11353781180713805 0.21790597265541597 -0.021243728304084036 0.0012473405243275952 -0.04222189334403105 -0.19767330381260179 0.2814839134593372 -0.06448584846712106 -0.06467132439957501 0.15469214710593962 0.13474850998223614 -0.16014296571506798 0.3553788163246363 -0.15035151094333155 0.13303146871769952 0.13505095260585875 0.27073941212289404 -0.35092750802595474 0.043810369953859445 0.1091129142591509 1.0
0.0971088317734978 -0.25370212099531025 0.2806497604306056 0.09571698097836769 -0.22566636991358044 -0.04292452807441781 0.04014332615305617 0.16416291126635119 0.20446566563803487 -0.2637479888697763 0.18896419379998042 0.2547195719245156 0.19793041178342047 0.23203701836469326 -0.01320600447331336 0.2272707375107273 0.23879277881425728 0.2712256826043538 0.18015720440604852 -0.11659838141111706 0.022806110366009564 0.02200899218414589 0.06949524387166667 -0.13803336054796328 -0.09764941024909958 0.07906673842853237 0.24786196583501224 0.18028664969401798 -0.13412453737752292 0.266285380688721 1.0
-0.03819637368992111 0.08484659416988158 0.20379828639676717 0.2150028680593619 0.14278717921363204 0.11296944063236314 0.18162166161429186 -0.16431646157864369 -0.03838242361699611 0.11492364166096429 -0.13150653430386275 0.20416148686607602 -0.26903885853996673 -0.1897025634280968 -0.07415817273663672 0.3025307684627457 0.08230537341719292 -0.28495312827805613 -0.1526349686990139 0.2723337484554594 -0.06902316373076448 -0.01049432358770506 -0.08600732085856978 -0.2376577683032397 -0.2632149517070122 0.138746201493061 0.19817374576549468 0.18685300710774105 0.2567049088056934 -0.22043238479490557 1.0
-0.05232053836054614 0.2904545491945317 -0.16684748234088329 0.1900887383235262 0.21674663788797974 0.25916539616332374 -0.13357739242201386 -0.14678416014394088 -0.28989120161503534 -0.13836675216156016 0.0021679206493700294 0.1868552118911557 -0.050740683735968184 -0.047904441589172016 0.09465258954046085 -0.08981849163941577 0.23602168182548625 -0.10785962155429521 -0.26862248267014793 -0.29502423111092013 -0.09106364000122262 0.09699019002487978 0.12328799568551808 -0.17009962699469477 0.20307486644374798 -0.11801092247248116 0.13439302350960464 0.24231413722793335 -0.2806143333753695 -0.19062017630976483 1.0
0.21169464097270557 -0.017803215877600496 -0.0298718496005183 0.18560362695468444 -0.21168852065235466 0.18794621852833632 -0.03654058488099964 -0.2222799013810706 0.2596238435324197 0.10073881885718314 -0.2261891369067366 -0.2076777315362621 -0.285268662933274 0.2736137193990707 -0.14997630295320777 0.040764066637295704 -0.07594446853478724 0.0800275521513706 0.19170972735842573 -0.2166824851783262 0.1922887946960281 -0.09650818937910378 -0.2999579107476409 0.05165841612068998 0.1305928766215014 -0.2346579665147827 -0.061701455077906704 0.2325755793558971 0.13448158768027824 0.23129126199817807 1.0
0.12168673806874102 0.09494550010981695 0.09538522438308132 0.17425142445408612 0.3436844331008779 -0.1704693211183867 -0.319464374371144 -0.15769666111554806 0.29764630101453493 0.15657768726475516 -0.14935182698816335 -0.1867074753628391 -0.07371017931277378 -0.09203731046165928 0.23190650903613444 -0.11455021754307554 0.2209116368870307 -0.2298296898875593 0.13375302050395743 -0.031200388907175688 -0.3128441679235947 -0.09278576808054874 0.03261438566064583 0.13952885571209217 0.30055009160943014 0.10231897763265772 -0.042227871760006246 0.06466362151689461 0.22164905400743737 0.09020671560793088 1.0
-0.021924754240870183 -0.08087050406395901 -0.10829450907281912 0.31081717234901896 0.1514589745517302 -0.0993023156881634 -0.14795619201664473 0.22608990532297993 -0.14048071952941296 0.11303443071610456 0.11501656145767081 0.21533523843627722 -0.2698599869210266 0.1573279099375871 0.1010678031886971 0.19342102816996384 0.008511321547877882 0.3000009485149543 0.3079778822715264 0.21823121948472107 0.059145913588106884 -0.30367098410603693 -0.05843796968569431 0.24414733776781714 0.07591081733807346 -0.15977412615973344 0.17455003994326326 0.0662419082195032 0.24501407322261987 -0.15511263149940235 1.0
-0.0439973889558863 -0.10229076618083416 -0.13640045973751133 -0.24427101850412952 0.2485871855039519 -0.19332955242091568 0.2604148808925024 0.18427767489299904 0.09997002481331856 0.07732913069774348 0.23335885512976137 -0.12493817268649803 0.19791121674570603 0.12125667826764937 0.05794698114270674 -0.27809215457948916 0.2881534986422162 -0.2390202906391771 0.04938399220269793 -0.057149792590625303 -0.17202934047449023 0.14308386945028517 0.27309552657139685 -0.014507750010346961 0.2771296624759403 -0.20579842622704964 -0.2039076493704262 0.01748941070398534 -0.16161618714615741 0.17289278661942376 1.0
0.2750473315477852 0.2981796638222869 -0.059957875333798635 -0.08834714064161574 -0.29099138548815384 -0.07436902610602676 -0.0417286436387235 -0.017078565573208478 -0.12110182086346233 0.06289676451636603 0.04743951863183079 0.04429375422073533 -0.24529925104501824 0.28631609460512863 0.03492866579384076 -0.08049612785581779 -0.28807051789336263 0.22768489281177057 0.058488600767490365 0.0057034732609815425 -0.0467162392358098 -0.25974018060150056 -0.18526023625840704 -0.34115179941175955 0.19586368000192764 -0.325857189969598 -0.09191226962313676 0.0672474118744117 -0.058150405619963826 0.19896440900189943 1.0
0.026624780418770155 -0.19037274440802288 0.19909015602022193 0.05908297160634083 -0.03753438682214225 0.11046566519108242 -0.23221011745104606 -0.28873271889104474 0.012498678234107302 -0.17161976961695857 0.2772325974969969 0.03045685174482097 -0.2930870387456062 -0.24691795152677712 -0.27666923827563233 -0.2215558475678549 0.2889907573912419 -0.08395560376546156 0.15205810588607674 0.14879844000816841 -0.2588733408547257 0.2586066035926876 -0.051216945234883 0.17402762836603022 0.04341920934391563 0.10993501813557187 0.11237771283712207 0.05136168096633864 -0.11097074485400757 -0.21200226634131145 1.0
0.21786429623948586 -0.17867767158669645 0.13468070569571952 -0.22428868726421056 -0.14795737296377692 -0.055034406983311954 0.16098412915475274 0.29934672703853793 -0.3028378234173147 0.1317340128278489 -0.11567942598796953 -0.08441511191007943 -0.279126447739721 -0.22300296037087786 0.0951819424869533 0.2020329897843817 -0.15007699948441092 0.13959529000823628 0.20721269383507457 0.2761078256221236 0.1082762594249047 -0.09041396240705486 0.05621284349443881 -0.05692507767494987 0.12758473720715577 0.27283504313243573 0.06462361714338329 0.2069072104197868 -0.054011194615148805 -0.27663575227071663 1.0
0.016257479656676267 0.23943617032766293 -0.22301323736942053 -0.2995386106103168 -0.04089270620545112 0.004477285442039212 0.11778430685126613 -0.02967210666852112 0.22278235921893513 -0.2102881997494194 -0.2835979922284895 -0.02191002443612932 -0.07156781593576042 -0.2554265705760914 0.20591861162628913 0.1549575781451481 -0.2715331225760498 -0.02777796491078981 0.10782921672892226 0.2021427937574722 0.23247387334043024 -0.05534358287294719 0.2979684023790277 -0.22490334278065133 0.23137308103560217 -0.06486392876370972 0.17648383662863443 0.1146264951186124 -0.01721626190906858 0.22175324200888438 1.0
-0.2478868279653815 0.15430429449177327 -0.11716458680863753 -0.05198400593794075 0.18919117317850775 0.20569685086443196 -0.13330892983654177 0.13760743911193057 -0.238365320018757 0.16914206597101536 0.21504787108992282 0.22931841406211742 0.1041338665477659 0.24384407275282582 0.2492953323503602 -0.18597665175834774 -0.0003345507426086298 0.1994713995262343 -0.1863095617636274 0.10535365190863297 0.15815641045771792 -0.22229131235424895 0.03898750598017212 0.2507400604594855 -0.22455320284660799 0.2189100668665715 -0.25604009401284133 -0.13476783623467017 0.14076280041989753 -0.07685113313769225 1.0
-0.005486597565214727 0.15902234525915127 -0.04175540365999252 0.06838461342900222 -0.23514180382932126 0.12373850148751314 0.08468047476225754 0.19034595670731794 -0.20444219178168044 -0.11466233167322122 -0.307797646379586 -0.03990636282218501 0.21851641452277965 -0.25053601563075606 0.14426375817300988 -0.23246196184569656 0.3110500436699476 -0.0790403960550333 -0.17498364723139248 0.05052632468130184 0.16478263341085317 0.13204754428444496 -0.058005197884472205 -0.1387688561807571 0.2433136997288797 -0.18015776839858258 -0.21118813437536899 0.2999011323699018 -0.28991132401011716 -0.0630971323498903 1.0
0.08715203499323018 0.22272927259425962 0.3158792605321787 -0.2937465247931996 0.22387345808509324 -0.1877394869732582 -0.050947128586767414 0.0803277341476472 -0.21786909774091542 -0.08996182298033992 -0.21655282288348424 0.08091001114599593 -0.13413229616045866 -0.2119374044247122 -0.10009498149541947 -0.23933270659503159 -0.1013706026174922 -0.08279052707552229 -0.1398354792059342 -0.2431043696192575 -0.25081099445811755 -0.18727442559840274 0.016380379712867085 -0.09713354086165762 0.19831108340916026 -0.232921609237328 0.2565559654356892 -0.19203634441140416 0.09110029871746643 -0.12273196810226303 1.0
-0.21690352054271872 -0.1353612032007443 -0.03736249323294913 -0.05380771943951491 -0.03571855741493774 0.0023056622231411813 0.04553334340531316 0.21941814784174268 0.2294237099999331 0.30897707221108595 -0.1897686120684829 -0.10626975601666645 -0.21782095754552314 0.20429667781017377 0.15201845793866473 0.12195005746372721 0.29935316303909143 0.23944276023688105 -0.09638170831878404 0.004319784754213828 0.06511084163590797 -0.3001917826008868 0.0587555300392341 0.04032685319294299 -0.16296613282204891 -0.18381987381133746 -0.15248266948803932 -0.2544510015928591 0.3034155539992173 -0.2453100698629323 1.0
-0.061343172002753195 0.1899695498691221 0.3117648556761168 0.1304548995302799 0.16317783077740713 0.045358817375944244 0.011117134652358383 -0.1136007794150852 0.18599785538612865 0.09877886745502164 0.13171279269290315 -0.16283641347763886 0.12839659058173547 0.19605132981009166 0.22095834550188873 -0.30464799699333694 0.08117184627046026 -0.04295116827564397 -0.1945424181970067 0.043390521817410946 0.11391404703976897 -0.09575301338562812 -0.26194856367571384 -0.012057952865496416 -0.11257965972431896 -0.3352054178922825 -0.21222791508995123 -0.3432232445127226 0.14123595288013732 0.2693518415706833 1.0
-0.06410281303653881 0.1511609047942704 -0.036803936404740334 -0.2670289616771838 0.04161649388080462 -0.12865347339370964 0.16037604658280655 0.11918570888479893 0.1849207103891355 0.28381559517365196 0.3239296587510745 0.32098609382284937 0.16813231830765163 0.0025321045704123305 0.015972195272937466 0.19307408449496885 -0.2423117940056406 -0.3220430598315332 0.28733661299392044 -0.058611923474119934 -0.016100145742027443 0.23275230065363609 0.026503903118823575 0.06723301046793903 -0.2385896335823001 0.0588197583465177 0.03586569037940097 -0.21535546465394326 -0.1932988043090805 0.012738170604906394 1.0
-0.19794029813933256 0.13198060937363323 -0.13762092304394385 -0.1109636215546813 -0.2563058714300038 0.03423262174860241 0.26497713050504157 0.025422616010001644 -0.1543308824542797 0.18043145393594914 -0.2173872835419792 -0.27237283290724035 -0.15962501819621872 0.2049167490393873 0.23967142216776716 -0.1956193686195022 0.23892093175654108 0.16653571687222052 -0.1898965021959394 0.07304026743098642 0.2317783037184935 0.024632042092674316 0.18177383553837756 0.22159737442897015 0.0010967142951142882 -0.2535469563234808 -0.07660932341942925 0.13710994525796907 -0.27191928009304855 -0.08856092467530738 1.0
-0.16808481047362336 0.23392720478117449 0.16504093389828978 0.13156986061857956 -0.27757113976468345 -0.23099930364354557 0.3078597433682394 0.16956724379274035 0.06428222876964437 0.2849895310871854 0.017715771647928757 -0.1240488676486439 -0.2069893744773305 -0.03277968600998671 -0.06861014943624723 -0.2759981126086349 0.03782900621781382 0.12036419302727194 0.12011580136873762 -0.10351900353216184 0.08756743466328111 -0.02789208484827531 -0.3323403955613412 -0.03277492802589303 0.2027839371929099 -0.007683563424990745 0.0006720801025733471 0.2767130725713883 -0.28115896487287634 0.186682840521161 1.0
-0.08916278311769676 0.17332238225180915 -0.02574800160453747 0.22851627572337388 0.23801385434590736 0.004384175302785918 0.2894309234570824 -0.25483129762313633 -0.04009822032777652 0.08868658791090825 0.2929397197908307 -0.09868913987874886 0.0310034442824121 0.057891623216865 -0.05314347133255021 -0.13227798106334981 0.1374270496076535 0.13309965848647087 -0.25874178008736953 0.2141908896113815 0.18605527447359477 -0.19551228645897736 0.28101235879852315 0.2293457087129537 -0.042593143972060446 0.08185903297180057 0.26288272235277876 0.2790838645932774 -0.009497787519751704 -0.2542650066457688 1.0
-0.2866436352994497 -0.07822740403300323 0.16059654680667776 -0.11180052484973965 -0.0740247108288222 -0.183088997889944 0.2418603307682573 -0.036982297631463115 -0.049989688184160115 -0.20461381155874303 0.1535933393693124 0.2903727703860413 0.25172473530832773 0.017854878169085348 -0.2690542065277546 0.14730046290807527 -0.09560916290668932 0.029209266068334645 -0.09686205822909524 0.09343971134591504 0.1080139321807226 -0.04418613463044371 0.29514509544853496 0.19748614293458563 0.033592527934166824 0.3194460173948899 0.23658889636737634 -0.2836394953559142 0.1304633535011522 -0.2001405493046758 1.0
0.16213041741710896 -0.17600248442934263 0.250500170261054 -0.11248524757324875 0.2695897023131297 0.07969248304914599 0.19766524079207493 -0.019648782398939628 0.08074808209696965 0.06281032648973561 0.13712068306170613 -0.05638438491683294 0.10873471986888548 -0.17493470459537966 0.16114600015194577 0.05683877994050094 -0.10603574293890246 0.27220087043117946 -0.24872685444989978 0.2571894873717601 -0.15350413516584444 0.17170424983999394 0.29037590375616185 -0.14229984964563258 -0.2761108918480195 0.28449257579590737 0.2874534126486769 -0.08374612710503804 -0.001730484216313636 -0.1643013897439531 1.0
0.25548290081436914 -0.0492221740468642 0.06773845735165869 -0.06750347135432362 -0.24233184111841538 -0.08892366271760836 -0.003565361592661631 -0.178421406031756 0.15159326241707816 0.17633408891803035 -0.30366705166510494 0.028293748970503824 -0.04762225097116832 -0.27599544415068955 0.1482782787250974 0.17774165167167844 -0.2268354831288663 -0.004378062296920132 -0.25315480389914885 0.28260223624773706 -0.07354030165112928 0.20708711747638842 -0.23090929636916932 0.007070776272026933 0.21847000981606718 -0.07249957822173496 0.022272734633695165 -0.2873728471423626 0.19318848025436863 0.2740428193845269 1.0
0.1565925631617892 -0.11757769899692865 -0.20504775404564407 0.2400484350482796 0.31185884919319967 -0.30192395312865 -0.09263095438796554 -0.08706969748919463 -0.12406736240777916 -0.22115310443759262 -0.24197068007807981 0.18391157578485995 -0.292031312036463 -0.03365728563423144 0.11715067591332627 -0.17146809540032637 0.17431960618504733 0.05017511722030389 0.0411193315505359 0.23894943818370024 -0.24782231497413557 0.06314989304563305 -1.8641723727405553e-05 0.17832059162049096 -0.15598749504523834 0.26447906553256634 -0.22559665387235098 0.08043676963971218 -0.05804167134599872 0.1651872563418925 1.0
-0.10543888542495553 0.32907906346262406 0.09433507623188947 0.21110734124028502 -0.06250425560206836 -0.12583115397991446 -0.1962925652708591 -0.08974199293168625 -0.27435102245782444 0.20400715419328336 -0.034915989975283855 0.26281123340871654 -0.10354876585984638 0.077699280182664 0.16457538479036626 -0.16208252414377416 0.04441996806969443 -0.07530124330249063 0.014457634089862358 0.29919989868239544 0.22965271113647467 0.08656021675338146 0.154726103619326 0.20701933378751597 0.020422019921197587 0.2916503511489033 -0.281613670895795 -0.2217657732458634 -0.2444283048809728 -0.07345892144985695 1.0
0.03594525205312868 0.04320230539804177 0.01676513885116238 0.07569199139148237 -0.009979241475624857 0.09936419487028544 0.15213029792203953 0.11035049515422182 0.2901778217559386 -0.07964067370103999 0.061148929529554454 0.02948939166600745 0.20035064618567888 0.15026154821829507 -0.23138839187945467 0.2911161735133432 -0.2791209779352121 0.10992319886712211 -0.2045511915468126 -0.2532837468848413 0.21819478934261347 0.08561093874051053 0.21521787888645724 0.278575930492354 0.19146777621694472 0.2431145917490196 0.2406631243324842 -0.14912653551973187 0.07644600889293209 -0.3045680313270474 1.0
-0.2313510096072897 0.2004458233402797 -0.20347517327305106 0.22302772113154035 0.08987035212017772 0.0872281334455063 -0.12514623297501593 0.21305212415129224 -0.1821291006266421 0.13096833095580837 0.1998658445085573 -0.17693500541308946 -0.26102860585470566 0.11066293373179688 0.25899590015559354 -0.023041398189720133 -0.25709768127608407 0.2623237874451518 -0.07924872134326195 -0.24620967037823202 0.027430911810379724 0.1478254409473377 0.04431487364549916 0.23396936288527184 0.19393171551957153 0.10995780564527965 -0.25111857621973077 0.02423932736864266 0.2601639036965257 -0.08180455897625875 1.0
-0.04313773305730055 0.31620313972374475 -0.24747392543941008 -0.0826410664060266 -0.009134591574869651 -0.1819713331117856 0.2478980795546922 0.02818090161234223 -0.29969495770327725 0.09688173593468245 0.10827715439997179 0.027310018109253858 0.10332302832087974 -0.09161462619282527 0.10896418600953983 0.0928856103643997 0.25639455332571226 -0.1767729625969301 0.14074494375140104 0.3275479396147545 0.23760650250599144 -0.16250621990238662 -0.2633342615703769 -0.03365524347324799 -0.0920587845250409 0.24980695002314374 0.03610353017486441 -0.24813896626579862 -0.23294353958588238 -0.13398004015806586 1.0
-0.12356129737586687 -0.08757312777046457 -0.05050494580362716 -0.1031551047419545 -0.12879993553268615 -0.2104896694124838 0.34027857405985457 0.17325794869445474 -0.1702764820979945 -0.24364310371741035 0.3085615916615069 -0.06436385826109513 0.15082673836380536 -0.15582316899636978 0.13469298711883299 0.043629948914681554 0.04021789074578315 -0.18059209026595444 -0.33055283118473267 -0.19923913123997883 0.11113513928937976 -0.1476819631354994 -0.0841132172882404 0.3133708490971061 0.06034848500400924 0.1930209028278081 -0.1801500938647918 0.11056709653459264 -0.174788225303587 0.2522411019186173 1.0
0.2541371887653252 0.22068860845168148 -0.2950348893676366 -0.1324557957706262 -0.17395677237834883 -0.02922532586494238 -0.13542810105791178 -0.0823516465880016 0.1974374588279644 -0.15088121305198987 0.2718372793958882 -0.11593916567847565 0.06806713809067376 0.2711808842252291 0.027095710666188325 -0.25363031497341526 -0.26229664745176134 0.1813028251372099 -0.13532697473140917 0.0514518242546808 -0.009997750066529556 0.2451500962823008 -0.2645059006309957 0.022622327005719093 0.2041181887990344 -0.13542915315573925 -0.20897546442567586 0.10143458457421287 -0.2384402811757199 -0.09716420444764146 1.0
-0.23901381167379604 -0.23006573923569887 -0.036243194817688555 0.19826923085924938 -0.2757242607037551 -0.013906372484993303 -0.18811721678980065 0.2556557346009231 0.16402078279629922 -0.07174171985980031 -0.30187674014189864 0.03699338812542925 0.24883745813721178 -0.1586857006176721 -0.10171634473159011 -0.1801775360533105 -0.23135426453855937 -0.31165449904574455 -0.28712679876136254 0.05220575560774877 -0.025199824232456456 -0.16008958911721652 0.1653442850651912 -0.09024441181863248 0.04840742831070294 -0.10915289601181227 0.03135593213425424 0.1325588259797969 -0.28143732009603806 0.09114190823095314 1.0
-0.05611784708981794 -0.04644992019732615 0.10129659118684335 -0.23176428507901606 -0.250892531077627 -0.12950250121960788 -0.12098927846688717 -0.05628294779257601 0.2447068842032784 -0.022067453647318557 -0.02114678953990454 0.158925432971683 -0.2231614924777479 -0.23414139615259127 0.11963257270377599 -0.03514606611505599 -0.28441455653686226 0.12750038606155153 0.16840221216125775 -0.10768789594180232 -0.30628072672553835 0.29116033310474904 -0.14022149943470044 -0.11761247378190298 0.2249200123907365 -0.29635408188872353 -0.12902064094693427 0.21197987302281981 0.12478949090363842 0.24939946352007905 1.0
0.0680610368998698 -0.12482100686908236 -0.19041644217137582 0.267456904933795 0.33323969366187006 -0.15990332845580302 0.039291953732502945 -0.11090879683254735 0.0024224836489774265 -0.09300593500377287 -0.3399576771624431 -0.27107546169204844 0.26664475398181486 0.1745539874449348 0.16458163372159423 -0.31433935361059473 0.12600796230251357 0.3340613395989178 -0.17533506364020307 0.0035608266845602696 -0.09316931661446765 -0.11056870415028958 0.21598691072876613 -0.19707029844731463 0.07954081725446227 0.02299561996181602 -0.022807875068981274 -0.06279783778542129 0.1417527346548282 0.01797891133489211 1.0
-0.13661354663070988 0.10768126928658571 -0.17668272855355738 -0.10609575850426091 -0.23595184177098952 -0.2545005894278987 0.06536880890893229 -0.12538336925912297 0.13346491579564163 -0.20614757129663425 -0.2109239401491143 -0.25352943199617195 0.05124425572475972 0.21895020587591146 -0.14952559475061095 -0.14492408974013618 -0.2688306461057832 -0.2621895397390251 0.2123430702258251 0.05808723310760222 -0.02425169768216458 0.05680770925247801 -0.24266314296077407 0.24754476877193266 0.2136635095558061 -0.08516597709264327 -0.25683504205840013 -0.2508940635595372 -0.16315948845161213 0.043979171751116826 1.0
0.09462430366256967 0.2545076704376681 -0.26723556358778394 0.10095046844043967 -0.03769882324978049 -0.11062595646015827 -0.07411764780497057 -0.0969034867795041 0.16767843781755049 -0.055227626063251704 0.27016925852609613 0.14683613165626047 0.2728060184057709 0.16379304546080092 0.030171082503830746 -0.20812446760437064 0.2435805430800476 -0.019030043947677776 0.21450603985009645 0.2637400783305387 0.11497960854249886 0.27426163473142934 -0.1199697074540479 -0.0780784460937626 -0.16575883819470186 -0.03881044085419039 0.25830478650050376 -0.16945038137552856 -0.25817484281251224 0.26393582226716955 1.0
-0.1479203503171917 0.2218622996888126 -0.055672986883113916 0.1808738238194422 0.2162919207727403 0.08506198901808615 -0.1445481946163461 -0.27011902669282595 0.11450558158047294 0.23513385884651145 -0.04629893512635727 -0.2278268430386808 -0.27706034892277664 -0.1823037389994006 -0.22808461681607886 -0.1966065495838635 0.28310422425035003 -0.24890485981837457 -0.057729617342092976 -0.18170534320276555 -0.08029581834634218 0.03127930905968904 0.11979358573651008 0.1889500621836445 0.09784345592081295 -0.21070855794211876 -0.168443097408621 0.25393433917673086 -0.0986235052003412 -0.17204751856151615 1.0
0.07791577719102741 -0.27151221298792655 0.029811290618275185 -0.11921487802728574 -0.15414547257677602 0.32163542236550235 -0.31884494330040597 0.08940825799143082 0.07496276084770692 0.23261791156921113 -0.2665147514320911 -0.19723823527090312 0.125162385602612 -0.2244359243700049 0.0014430280912192512 -0.02023469175044898 0.1917624432962142 -0.05439059969379633 0.3182533622958295 0.2568970391317465 0.1924864870652569 0.26330424801267527 -0.13592014383996107 -0.08280650224299643 0.09017365802451319 -0.049576488984867405 -0.2085644108175159 0.016445821467077175 -0.04627326394149092 -0.19211277524031722 1.0
-0.20843200291307531 0.07823207959334501 0.1244363024605786 -0.009762641841567608 0.17150616368848626 -0.294081084699453 0.10667306982033163 0.04595832709829928 -0.22988830936274693 -0.09028196959562111 -0.325116147991498 0.036278470784739524 0.043120194831359565 0.23191262616429387 0.08364703330726068 -0.07455537862268756 0.06604817364780224 -0.05827714623536744 0.25633448376465995 0.292575234946555 0.1353609315441777 0.3392356952325315 -0.10815443729065206 0.08579530920676337 -0.07507189533381557 0.2902955259191387 0.07107950241570458 0.2563588892112624 -0.2664771986566483 0.1613539320094721 1.0
-0.2015169847117576 0.31752138721515427 0.11949255328950047 -0.35092571091216446 0.2474343595903115 -0.251612952332806 -0.09002152143118829 -0.2164342619759664 0.30262876560063784 -0.2582149775339807 -0.15647617300606764 0.008495382954662713 0.1538463821112187 -0.04592681054790105 0.07915470493108764 -0.17155964529771414 -0.01754569642242521 0.19759438959393172 0.0624250884229509 -0.10054771425462279 -0.007038853794507537 0.13285597475556915 0.156516227557702 -0.1686324423944785 -0.11236701349606425 0.1402686930672022 -0.24751526351157932 0.2741604656285636 -0.0007425525294851736 0.0681791105108606 1.0
-0.24979453272350013 -0.1608646891659097 -0.15100558602954123 -0.08991205782856745 -0.012555573103015501 -0.17286513053814806 -0.3281565674461311 0.3413439007860649 -0.2738932247682662 0.2483778921505839 0.24505078437392622 -0.08792621767869462 0.32306943166284924 0.01963218227729241 0.08161783166986121 -0.12964579988554154 0.013142790091642162 0.09878786436030836 -0.010205476857771054 -0.16790663584728635 0.07548466529649661 -0.27371431490821974 0.027713426507407483 0.14818968018700668 0.06254720428378782 -0.1328228179214918 0.16030533500560584 -0.030423341700780867 -0.293714872717883 0.1336305447513049 1.0
0.20579990515441318 0.061573931268368104 0.15509976120827149 0.22815335764258984 -0.11568735770598096 -0.2564842756139013 0.020141441004659304 -0.2676017200125491 0.23454581374091768 0.08021825079549784 -0.07995813416586356 0.013242717902317099 0.26134592936861867 0.17976151994996892 -0.015479613689286985 -0.2625589235124076 -0.021564165389748445 -0.27918514856177185 0.006883294275350955 -0.26361571875253953 -0.07753998207519912 0.22125399431849757 -0.14883422978643496 0.12161671174904169 -0.16066522314796072 0.22780627445384974 0.19425880099192344 0.2246300966562725 -0.08919896901216158 0.2739239284427751 1.0
0.17519980491271983 0.2744563107737836 -0.07455604432497936 -0.03668567255062778 -0.19174654956935025 0.15792600498392675 0.26650350146756174 0.1862177532810899 -0.29848279931296695 0.16891358764461373 0.1383373917074778 0.15082940146042007 -0.0683872557490386 0.14505249575379336 -0.13229960734863658 0.015506719976348695 -0.003911309501640852 0.010614241935990138 0.3056240728369676 -0.04466118119972305 -0.18977198639805767 -0.29064368866562584 -0.10962026442893942 0.22063345368727233 -0.18826896451686428 0.2927389165061987 0.14740976633468808 0.22794825897822543 0.1949724830358516 -0.08448340060063406 1.0
0.07427809623099164 0.2601089010530149 0.2221461546609521 0.053382271975987404 -0.2715620764334302 0.3206934207932968 0.2651326255386024 0.2826990472219824 0.04632834659951909 0.051321908601707045 -0.04879210894737912 0.0921318607460005 0.019290652808731396 0.16157347131073868 -0.030982441876484586 -0.3044144026038713 -0.051458185738769625 -0.1415997937796063 -0.09642427104951681 -0.06785357092355705 -0.29988832162519946 0.1936395333218187 -0.04958025839129811 -0.20751591627964355 0.12709736413098183 0.24839886400053915 -0.11691102290833284 0.11333375679608443 -0.06798804177115925 0.3058210730321529 1.0
0.17209033587959283 -0.18191174733859508 0.07400373587079322 0.14162658159496552 0.23331979816087733 -0.2802784459332498 -0.11020331586683373 -0.12164339585014022 0.19603941146938905 0.14700585696860635 0.10801383965185747 0.20131645023291056 0.19997443791955366 0.16871828571433492 0.017952233508854918 0.21624340382267654 0.2809038785813873 0.19957008189316255 -0.0935216422612571 -0.1402803000435749 -0.19494728199196198 -0.1969085221328702 0.2166951174321005 0.17902389392669718 0.2836156617120287 -0.18595143154424992 -0.22724813142138237 0.06746602266227884 -0.22294062684145302 -0.013794278477235678 1.0
0.1414259730045258 0.11794778147253868 0.2603591159451208 0.025154994782122776 0.25879228798331694 0.2545599757146447 -0.1810142765968333 -0.27097153011141534 -0.2730613201436911 0.12459745996990793 0.2531671287258355 -0.12201658121459291 0.18678040819105207 -0.07289337583845447 -0.08142306521301836 0.0406978068588139 0.13742756694975253 0.19755791692414662 0.15347292247505923 0.03402084336394772 0.24701867199227948 0.11092330005601951 -0.02561441657524338 0.2409784738839312 0.03835766564472787 0.18098919070588387 0.19547813123498317 0.28975549344798535 -0.26559658078639176 0.02303743615295909 1.0
0.3318515918133547 0.01187455176331637 -0.21587185522518867 0.12975069616715745 -0.3239091089526252 -0.07151385321404119 -0.26482922226234584 0.013961026805441258 0.25427428252041845 -0.11929801069146882 -0.3030743360200303 0.11624065389523855 -0.13525173169037033 0.2728060617070998 -0.022449894963740346 0.11018653374033499 0.24933457596560205 0.16492087784426956 0.2846794957250498 0.06844235007567417 0.1728727094200164 0.04611525634317551 -0.1790609805703652 0.026503765559922374 0.04561855355685998 0.039866570684710584 0.17148204889457822 0.0060644742901027355 0.2031981148859389 -0.2050590541684016 1.0
-0.13671903384327871 0.2541863171914212 0.12230518065315933 -0.07642796146292756 0.14314134778551932 -0.20246135707631824 0.25575359974904166 -0.12976879904794683 -0.05619277152506229 -0.08428261226727699 0.2655842225211027 -0.2743849508437392 -0.0810890350204345 0.17067286146113833 -0.16736023785273701 0.0716764154091487 0.1848536638181067 -0.07718336506740017 -0.024249899033418308 0.28753151109046976 0.03632003354244316 -0.2056738879274585 -0.22318499867406547 -0.2413844372188959 -0.14854660577507564 -0.2417525196372231 0.09355600922521877 0.2977119152537011 0.22484159204606122 -0.1539284602731236 1.0
-0.07385404689263697 -0.1349819113036793 -0.09659541949457659 -0.2751728670572013 -0.2681307334898475 0.27715118806548195 0.26050637909247054 0.2855232461432011 -0.06113069237626879 0.14359336607690462 0.27414718511921177 -0.16622864838155224 0.17159125223736701 -0.27007662733106724 -0.26916586254777014 0.125591412434195 -0.04761890801788202 0.05909970229802171 0.2587202304740876 -0.06529677179156287 0.15986147781164756 -0.22433405815335702 0.26801679070440226 0.05316313236197862 0.02412447940313996 -0.13583782463172292 0.10738576292199889 0.121469122063976 -0.04845367746826259 -0.016080774617654656 1.0
-0.06364523012341605 0.1367355316866221 0.011718618491401035 0.23592166382901447 -0.2716714548371093 0.23365882660234052 0.014361006371052455 0.08035177592634911 -0.21345497823021722 0.25692809227398067 -0.27182514405365826 0.0066894749777090265 0.13369380474906875 0.23220551618651694 0.0367284402523625 -0.011778367984688344 -0.11764635208478416 0.28182030720055273 0.12520247584011804 0.23631894674573908 0.09585454272199369 -0.2518888258445642 -0.08662937440173803 0.23240529416619693 0.2748423794830351 -0.15940268945271074 -0.022289303103901127 0.16629451949396787 0.025438460457586076 0.31451236987592196 1.0
0.13460624776044472 0.010884987152160392 0.21986439425217869 0.0012726552567851727 0.09118957047145095 0.19385929460969484 -0.13856497108094534 -0.29724671829774846 0.09717735264771508 -0.29574115064366496 -0.12126982859640893 -0.11387009266735314 -0.1959547527866056 -0.3056115735583214 0.17050949223473344 0.1288597984124827 -0.14026027505399088 0.04743956580392971 -0.2893487566841937 -0.12422756060572783 0.27660927710586863 -0.27403597555895826 0.1777080006602515 -0.16225766520215398 -0.2087797381749057 0.07723434413939245 -0.24457864707916574 -0.039447267603746096 -0.18008186918995267 -0.06293381753303538 1.0
0.0263030938347481 0.25217345251232376 -0.051840188538331174 -0.25170575102799436 -0.08690585212728531 -0.07111309554473969 -0.3462960927038035 0.12427054661758595 0.11387737422558933 -0.2650418539009376 -0.1792270859659778 -0.17853114206333687 0.12507567366878325 -0.12917237193475342 -0.12240495753497914 -0.1178775016574664 0.1802977051227786 -0.2559058387515117 0.21433108182120714 0.1929272697677014 0.009100303665103709 0.2706796090504678 0.15488105577782535 -0.03616694403704568 -0.17754623405301945 -0.08126953564272231 0.23769031962603307 -0.03589083807638656 -0.35037677936528017 -0.12167498249865667 1.0
-0.09297501509322219 -0.1239677226340792 -0.15946506303718716 -0.12820966434152695 -0.2145293168657072 0.11436448808126883 -0.2408918028829357 0.14246110721940833 -0.16982644863973248 -0.271756962488481 0.2499691130703966 0.09271770583282235 0.035359141630776206 -0.058861423213836875 -0.1106765675091106 0.2960604247440177 -0.2682682834163058 -0.2910975994323912 -0.14669518962124 -0.1954073155153216 -0.030791404681537248 -0.18080731095143288 0.20051748444434764 0.264554520514552 0.18787703738000577 -0.2308010677266139 0.15148992837308095 0.08785619267797155 0.1970196768305196 -0.0028657577785252816 1.0
0.08471020248572411 -0.029121536059687484 -0.23457747328187045 -0.3205723637411505 -0.24776994730477814 0.061568643746439826 -0.2908195461573498 0.03394988022481821 0.22910183918877006 0.15243008659477456 0.29451636935570386 -0.2703774332592397 0.043910433653615015 -0.24406064381107284 -0.028773439093077 -0.17048578732136319 0.12832755806317708 0.021527562713323782 0.16099969688451612 0.0870666576254634 0.1845407370572671 -0.10920870808754782 -0.2822008784149998 -0.1544986016534829 -0.3156359439423797 -0.07156052801446519 -0.0335901226207301 -0.20711758546499592 0.0760006754968297 -0.043002720754583786 1.0
0.20967008840467394 0.17007571174860506 -0.179479706248764 0.23104388634591588 0.23918795259044637 -0.24358129492170383 -0.023913647567344234 -0.24598807831615907 0.2785498034390682 0.009817403126019 0.19682258466860367 0.16277732266624725 0.20216641551591852 -0.08378362237119383 0.2272537987338276 -0.2574280695888209 -0.02419265417810243 0.28172199758121513 0.05885866072139762 0.12181356971282993 0.16533872031910157 -0.254521752434306 0.07174940771667965 -0.19584153885366512 -0.1620213111175836 -0.2524072105033257 0.007046243379577596 -0.15415509154550486 -0.0865159881295313 0.005745150400752269 1.0
